%YAML:1.0
---
default_detector: !!opencv-object-detector-hog
   winSize: [ 64, 128 ]
   blockSize: [ 16, 16 ]
   blockStride: [ 8, 8 ]
   cellSize: [ 8, 8 ]
   nbins: 9
   derivAperture: 1
   winSigma: 4.
   histogramNormType: 0
   L2HysThreshold: 2.0000000000000001e-01
   gammaCorrection: 1
   nlevels: 64
   signedGradient: 0
   SVMDetector: [ 1.26087740e-02, -1.49854450e-02, -2.03071889e-02,
       1.89642385e-02, 4.03214358e-02, 1.75671012e-03, -6.12709485e-03,
       -3.12863775e-02, 1.97300520e-02, 4.19597365e-02, -1.03758937e-02,
       -2.51017064e-02, -8.50571843e-04, 1.90850422e-02, 1.18510770e-02,
       -1.28919091e-02, -1.01121068e-02, 2.75575165e-02, 1.22065274e-02,
       -1.48660745e-02, -6.91932859e-03, 4.32967991e-02, 9.23669897e-03,
       1.61085557e-02, -1.99162103e-02, -6.18477426e-02, -7.59261521e-03,
       1.71452649e-02, -8.89996253e-03, -1.12570273e-02, 4.03089933e-02,
       -3.46211269e-02, 7.07139727e-03, -3.10484711e-02, -3.29379849e-02,
       -1.57690942e-02, 1.78293046e-02, -2.69944929e-02, -5.61110070e-03,
       1.82575511e-03, 4.05481905e-02, -5.57037676e-03, -2.82180868e-02,
       1.49506028e-03, 2.72592232e-02, 1.72210112e-02, -2.03052144e-02,
       2.40053628e-02, 4.27340604e-02, 1.04869008e-02, 1.88152436e-02,
       -1.07291332e-02, 1.37385016e-03, 8.17294698e-03, 7.19439890e-03,
       2.15871772e-03, -1.19555800e-03, 1.82604848e-03, 1.56518037e-03,
       -1.64594017e-02, -3.22469026e-02, -3.13117082e-04,
       -9.46509279e-03, 1.48940990e-02, -2.67808605e-03, 6.52126444e-04,
       1.72343291e-02, -1.05980886e-02, 2.76163928e-02, 3.30932176e-04,
       -6.33554207e-03, -2.39608786e-03, 2.03745067e-02, 1.03623541e-02,
       1.41203571e-02, 1.27272625e-02, 4.96972026e-03, 3.54873911e-02,
       -9.53088747e-04, -7.37044821e-03, -5.53355552e-03, 3.35762389e-02,
       1.41355144e-02, -1.31216738e-02, 3.67557956e-03, 2.14270949e-02,
       1.06219873e-02, -4.27001063e-03, 1.76899843e-02, 2.93270815e-02,
       2.09794603e-02, 1.33070571e-03, -4.70747240e-03, 6.65482040e-03,
       -3.61544378e-02, 4.98172753e-02, -2.40066656e-04, 2.07830244e-03,
       1.33997789e-02, 1.46541465e-02, 1.73717388e-03, -3.21695022e-02,
       -1.18016461e-02, -3.13178333e-03, 6.53903466e-03, 1.02385730e-02,
       2.83726770e-02, 8.57081823e-03, 1.74294952e-02, 2.44692266e-02,
       -1.19072394e-02, 1.07081858e-02, 2.73574013e-02, -8.44956841e-03,
       -1.87861943e-03, -4.47265804e-03, 3.75547004e-03, -9.99325048e-03,
       1.58205200e-02, -1.64333023e-02, -2.36773603e-02, 3.95562267e-03,
       -8.67263507e-03, -5.18188719e-03, -2.26028566e-03,
       -2.56324075e-02, 3.78748961e-03, 2.93779336e-02, -5.51953213e-03,
       3.65669243e-02, 1.01604043e-02, -6.15741313e-03, -1.84696727e-03,
       2.53584515e-02, -2.27313899e-02, -8.94112047e-03, 3.82363610e-03,
       -2.00414026e-04, -4.36556851e-03, -1.93703733e-02,
       -1.48193240e-02, -6.14481792e-03, 6.56521320e-03, -2.41095796e-02,
       -1.35618849e-02, 2.93766242e-02, -1.18070850e-02, -1.45631405e-02,
       -4.04443359e-03, -1.48630524e-02, -1.46077778e-02, 3.09719685e-02,
       -9.34240408e-03, -2.19641663e-02, 1.68795884e-02, -3.42573598e-02,
       -2.78593414e-02, 2.26915330e-02, -3.73953767e-02, -2.25345790e-02,
       2.81591602e-02, -6.34281477e-03, 6.02293666e-03, 3.15389223e-02,
       7.17535708e-03, 5.01584681e-03, -1.56582724e-02, 1.82065088e-02,
       2.53510829e-02, 3.95391993e-02, -2.51622801e-03, -3.72069031e-02,
       1.90592334e-02, -2.44523194e-02, -1.24099404e-02, 1.06370291e-02,
       -1.75119098e-02, 2.50820499e-02, 2.33979467e-02, -1.56666655e-02,
       -1.96925588e-02, -1.15098050e-02, -5.55473678e-02, 1.25626335e-02,
       5.50074689e-02, 6.33716816e-04, -7.25761661e-03, 3.70130017e-02,
       -8.34380742e-03, -1.60054807e-02, -2.34368462e-02,
       -4.12646122e-02, 1.18356925e-02, 3.23487557e-02, -3.54768112e-02,
       -2.15485785e-02, 2.14060582e-02, -1.18132690e-02, 9.97171458e-03,
       1.76331960e-02, -2.75737457e-02, 3.21369618e-02, 2.25258172e-02,
       1.54420976e-02, 1.82765420e-03, 3.74666080e-02, -2.47919876e-02,
       -9.84965079e-03, 8.30295868e-03, -9.33938939e-03, 6.24448480e-03,
       -6.23023417e-03, -2.28191949e-02, -1.53502626e-02, 2.57963641e-03,
       -3.63521725e-02, 5.98228443e-03, -8.18148896e-04, -2.57061347e-02,
       2.43792571e-02, 4.31535579e-02, 6.86360383e-03, -1.73390526e-02,
       1.98255163e-02, 2.32430380e-02, -4.08950029e-03, -1.24273757e-02,
       -6.98271021e-02, -2.76635885e-02, 2.69660428e-02, -3.60529241e-03,
       -3.52347605e-02, 1.80336349e-02, 1.80114072e-03, 2.85139098e-03,
       1.23818098e-02, 1.09286709e-02, 4.54453155e-02, 2.51543690e-02,
       9.18590557e-03, -1.62359066e-02, 5.38424961e-03, 3.05095175e-03,
       -1.87631939e-02, -3.15330760e-03, -9.74642206e-03,
       -1.98053811e-02, 9.62164812e-03, 1.17860641e-02, -2.90920082e-02,
       6.92002475e-03, -1.72451381e-02, 2.03573685e-02, 1.48848519e-02,
       -3.04437708e-02, 1.96206686e-03, 1.57928765e-02, 8.52463394e-03,
       -3.83444019e-02, 1.70492046e-02, -1.07403165e-02, -2.39106454e-02,
       -2.10810341e-02, -2.74936687e-02, -3.24066095e-02,
       -2.63254084e-02, -8.85595474e-03, -2.93390229e-02, 2.60361489e-02,
       -2.96164174e-02, 2.38079336e-02, 2.85732839e-02, 2.67783571e-02,
       2.21022554e-02, 1.64496377e-02, 3.40795889e-02, -2.07975414e-02,
       2.72123516e-02, 2.43740547e-02, -9.95115004e-03, -8.07078497e-04,
       1.50241116e-02, 1.52471922e-02, -3.92556153e-02, -4.23610443e-03,
       -5.31612057e-03, 3.87902260e-02, -1.46055073e-02, -3.13739888e-02,
       -3.03294379e-02, -2.00439245e-02, 7.10127689e-03, -3.26804556e-02,
       5.10794483e-03, -9.68404114e-03, 3.93587770e-03, 8.98107514e-03,
       -1.90895777e-02, -1.74945593e-02, -2.68358421e-02, 1.59220304e-02,
       -1.07298093e-02, -1.79865863e-02, -3.14031653e-02,
       -1.26776267e-02, -2.51833145e-02, -2.19098590e-02,
       -1.25277443e-02, -5.84346522e-03, 1.26549578e-03, -4.58372869e-02,
       2.25735847e-02, 1.47985462e-02, 1.78784505e-02, 1.15332683e-03,
       -3.21059488e-02, -7.60299433e-03, -2.05241755e-04, 1.32628307e-02,
       -2.11037323e-02, 2.68635880e-02, 1.39457062e-02, 3.50973685e-03,
       -2.29512583e-02, -1.03612023e-03, 1.58051942e-02, -2.71616299e-02,
       2.61435639e-02, -1.38845313e-02, 6.10895688e-03, -2.23726146e-02,
       -3.33262724e-03, 2.62574293e-02, -2.33916994e-02, -8.00879858e-03,
       -4.88605648e-02, -2.95774881e-02, -5.67012560e-03, 5.46689983e-03,
       -3.94865870e-02, -4.70981710e-02, 7.38026202e-03, 1.54215442e-02,
       3.26092690e-02, 1.44766318e-02, 4.83871661e-02, -1.06399627e-02,
       4.88534048e-02, 3.59508507e-02, 5.53094931e-02, -1.29378485e-02,
       -1.88191943e-02, 1.67121533e-02, -2.75827516e-02, -5.77010214e-03,
       -3.27302068e-02, -6.14609977e-04, -1.95312705e-02, 2.10416857e-02,
       -2.87701674e-02, -3.67001421e-03, 1.61572676e-02, -1.79033857e-02,
       -1.11149326e-02, -1.02191353e-02, -3.82401724e-03,
       -4.43593636e-02, -1.45278079e-02, 1.39124114e-02, -7.91000854e-03,
       1.67050641e-02, -1.19061312e-02, -8.18524789e-03, -2.45108828e-02,
       -3.34178656e-02, -3.68806347e-02, 2.97223357e-03, -9.05342586e-03,
       1.15230272e-03, 3.37686241e-02, 1.23955216e-02, 3.82237812e-03,
       1.81142539e-02, 2.27404591e-02, 4.29293560e-03, 3.02301329e-02,
       -1.05175544e-02, -7.30994251e-03, 2.95809004e-02, 1.00326091e-02,
       2.14582253e-02, -1.23158330e-02, -7.81156076e-03, -1.47333043e-02,
       6.57489663e-03, -2.14598086e-02, -1.99787226e-02, -1.15976566e-02,
       -1.55549226e-02, -5.75351343e-03, -1.28851468e-02,
       -7.39808427e-03, -2.78928177e-03, 1.71736833e-02, 4.36437968e-03,
       -4.46893722e-02, -3.99263203e-02, -4.00127172e-02,
       -2.40207072e-02, -4.49279100e-02, -1.16415722e-02,
       -6.18379563e-02, -1.26470551e-02, -1.97708178e-02, 6.84747193e-03,
       1.78232752e-02, -3.41826817e-03, 2.78650746e-02, -1.52998662e-03,
       3.30099761e-02, 1.83844101e-02, 1.56957824e-02, 1.03083523e-02,
       -5.26273288e-02, -1.68786626e-02, -4.25381912e-03,
       -8.71069788e-04, -1.93546396e-02, 2.65814196e-02, -7.92493764e-03,
       -2.51172148e-02, -4.29481976e-02, -1.83645282e-02, 1.86405913e-03,
       1.21467607e-02, 1.13219479e-02, -8.45221337e-03, -8.84742104e-03,
       -3.44699919e-02, 1.46332209e-03, 8.78344662e-03, -8.44369922e-03,
       -7.78720481e-03, -1.68266762e-02, -4.89637144e-02,
       -1.56065254e-02, -2.11176164e-02, -9.04152077e-03, 2.60621626e-02,
       6.25869818e-03, -1.50696011e-02, 8.09596479e-03, 1.81225892e-02,
       3.63360047e-02, 1.96837634e-02, 4.52759191e-02, 7.88805727e-03,
       3.19806747e-02, -2.63334513e-02, 4.41537471e-03, 1.91342868e-02,
       -4.59977426e-03, 5.13711339e-03, -3.59339011e-03, 2.25087777e-02,
       2.99309045e-02, 3.46537344e-02, -1.82458162e-02, -2.32670158e-02,
       5.80822630e-03, 2.07351558e-02, 2.71482784e-02, 6.96311751e-03,
       -1.52581548e-02, -1.58234574e-02, 3.90417166e-02, 3.50851612e-03,
       -2.24304553e-02, -3.49972844e-02, -2.64519472e-02, 1.69195887e-02,
       1.82438996e-02, 8.72648694e-03, -2.87946593e-02, -1.64354797e-02,
       6.55894075e-03, -3.41388839e-03, 3.28492336e-02, 1.15405470e-02,
       1.76382735e-02, 1.81494956e-03, 8.24334286e-03, -3.61515791e-04,
       1.41101172e-02, 1.01729780e-02, -2.37925872e-02, -2.34541725e-02,
       1.16105946e-02, -2.63981451e-03, -9.49093327e-03, 7.34173693e-03,
       -4.85189073e-02, -1.58523917e-02, 8.25005211e-03, 1.21093839e-02,
       -8.84607434e-03, -4.41370420e-02, 5.09567279e-03, -6.50851754e-03,
       1.82412453e-02, 3.53850331e-03, 9.08031315e-03, 5.17607853e-02,
       2.25605331e-02, -3.06520481e-02, -1.82221811e-02, 1.88544523e-02,
       -1.73461325e-02, 6.57991692e-03, -3.07583110e-03, -1.47631345e-02,
       2.85089053e-02, -1.94982402e-02, -2.13848446e-02, -6.03222381e-03,
       8.39880295e-03, 1.13636088e-02, 3.32036540e-02, -1.14540812e-02,
       7.63979601e-03, 1.89524908e-02, -1.15850838e-02, -4.40778472e-02,
       7.40477396e-03, 6.46503689e-03, -3.80810793e-03, 1.96406357e-02,
       -3.64259467e-03, -5.59556894e-02, -1.50143029e-02, 5.61645068e-02,
       -8.08913819e-03, -2.72005275e-02, 1.93776861e-02, 4.75791059e-02,
       2.68076546e-02, -1.72210317e-02, -3.03626452e-02, 2.43426487e-02,
       4.90183905e-02, -5.21949539e-03, -1.27283297e-02, 1.95568744e-02,
       -4.22920613e-03, 2.11347453e-02, 4.59477026e-03, 2.03502644e-02,
       1.16158184e-02, 1.21690603e-02, -1.48306023e-02, -3.83283645e-02,
       -1.79867074e-02, -1.62234735e-02, -1.00756884e-02,
       -2.28472091e-02, -2.67429352e-02, 1.36786411e-02, 2.71742344e-02,
       -2.52164192e-02, -6.70675840e-03, 1.05308124e-03, -2.48865932e-02,
       1.25034796e-02, 3.41561344e-03, 4.79477085e-03, 1.71606541e-02,
       3.23555171e-02, -1.96767822e-02, -2.22427007e-02, -2.28107292e-02,
       1.32737691e-02, -1.01986816e-02, -3.02007608e-02, 5.88461850e-03,
       2.45801155e-02, 1.29581261e-02, -6.88909134e-03, -2.10247990e-02,
       -7.34715164e-03, 8.92355107e-03, 1.90309193e-02, -4.47278144e-03,
       1.43786250e-02, 2.38155704e-02, 3.98922572e-03, -2.53078956e-02,
       1.69399511e-02, -2.87992577e-03, 5.46877226e-03, 3.89677822e-04,
       -2.35402100e-02, -2.53428891e-02, -5.45931840e-03, 2.07137335e-02,
       -2.47133672e-02, -8.38678889e-03, -1.20942956e-02,
       -5.75191900e-02, -1.06156971e-02, -1.63653102e-02, 1.44648366e-02,
       1.40394066e-02, 4.37368825e-03, 1.50206462e-02, -1.10167684e-02,
       2.07718299e-03, 3.38243842e-02, 1.22451028e-02, -1.72502063e-02,
       -5.87294716e-03, -5.48599195e-03, 1.53432209e-02, 1.89022385e-02,
       -5.28323278e-03, 1.16941975e-02, 1.32041881e-02, 1.83501001e-02,
       3.03025637e-02, 3.15594934e-02, -1.40729081e-02, 7.80814746e-03,
       -1.00872442e-02, -1.08437389e-02, -1.29397810e-02, 2.98475232e-02,
       -8.32193810e-03, -3.08541376e-02, -3.65956523e-03, 8.30011163e-03,
       -3.69516835e-02, -1.85129773e-02, -2.06422210e-02,
       -3.69210541e-03, 4.83371754e-04, 7.62165757e-03, 1.39763858e-02,
       2.11121067e-02, -2.45848410e-02, -1.66191049e-02, 7.45379878e-03,
       -1.51310144e-02, -5.44762751e-03, 1.72427353e-02, -4.39559855e-03,
       1.80108827e-02, 2.33244374e-02, -4.38830107e-02, 7.71068875e-03,
       3.05722933e-02, -1.70513168e-02, -2.78414390e-03, 3.84213179e-02,
       5.99556137e-03, -1.78110395e-02, -2.24108547e-02, -3.74658778e-02,
       -2.39869915e-02, 3.86390425e-02, 3.05808205e-02, 1.38970576e-02,
       1.39388698e-03, -2.37895194e-02, 8.20070785e-03, 1.89175513e-02,
       5.09783300e-03, -2.37392616e-02, 3.96689475e-02, 1.93195976e-02,
       1.26641737e-02, 2.48245206e-02, -2.07727663e-02, -1.58129279e-02,
       -1.22259222e-02, -3.76424119e-02, 6.35379478e-02, 5.48850000e-02,
       -4.04753871e-02, -3.21469530e-02, 2.80385744e-02, 1.29034156e-02,
       2.70501571e-03, -1.55418310e-02, -1.73159186e-02, 2.58668289e-02,
       2.15306431e-02, -3.66272852e-02, -4.08633910e-02, 2.34363321e-02,
       -2.50526033e-02, -4.63407580e-03, -7.53889419e-03,
       -4.27496899e-03, 5.84935173e-02, 9.65180993e-02, -2.24506184e-02,
       -2.31870078e-02, -5.63712046e-03, 4.16275673e-03, 1.12270180e-03,
       1.35812433e-02, -5.22110378e-03, 1.72315594e-02, 1.14012854e-02,
       -7.07803741e-02, -2.82621998e-02, 1.83544178e-02, -5.83636202e-02,
       -9.85874142e-03, -1.15155279e-04, -2.66027022e-02, 2.68207677e-02,
       2.05734223e-02, -2.04815939e-02, -3.01315100e-03, 4.80654463e-03,
       -7.98059069e-03, -1.28816692e-02, 1.27125550e-02, 1.10290619e-02,
       4.33090189e-03, 2.40206323e-03, -1.85610130e-02, 8.19625333e-03,
       1.90932136e-02, -2.67094467e-02, -2.31533572e-02, 1.35672034e-03,
       -1.35756470e-03, 8.90302751e-03, 3.02058868e-02, -5.54244826e-03,
       2.14323448e-03, 1.48092946e-02, -1.30818523e-02, -1.05965165e-02,
       3.72332223e-02, -1.69510264e-02, -3.34810056e-02, -1.48036974e-02,
       -4.07425538e-02, -7.00312434e-03, -2.39179209e-02,
       -2.24408880e-02, -1.34197744e-02, 1.36118419e-02, -5.52899502e-02,
       2.27251034e-02, -9.57636442e-03, -1.62915494e-02, 8.95584468e-03,
       2.24378202e-02, -1.15130339e-02, -2.40150956e-03, 4.12118770e-02,
       1.46388523e-02, 8.53508897e-03, -1.02714626e-02, -8.79835989e-03,
       -2.94332206e-02, 2.02675089e-02, -2.66342908e-02, -5.11438539e-03,
       4.07192633e-02, 1.61590073e-02, 4.23996225e-02, 5.49015328e-02,
       -3.62907425e-02, 1.19763575e-02, -8.08092416e-04, -1.31794773e-02,
       8.05935543e-03, 3.44717912e-02, 1.02634998e-02, -1.73789321e-03,
       5.46910018e-02, -2.70237923e-02, -2.34790016e-02, 1.59982014e-02,
       -4.86748554e-02, -6.90953166e-05, 7.59035442e-03, -1.78020205e-02,
       7.11669819e-03, -2.39322335e-02, 4.74009104e-03, -1.16396798e-02,
       -1.42873181e-02, -2.16357317e-03, -5.68897929e-03, 4.12097499e-02,
       2.88854875e-02, -1.30592994e-02, -1.35530429e-02, -7.05338549e-03,
       9.40023048e-04, -7.27337226e-03, -1.66593771e-02, -9.54054063e-04,
       2.31749285e-02, 1.93105917e-03, 4.32616659e-02, 5.84134087e-02,
       -7.00503448e-03, 1.07941721e-02, 1.24319391e-02, 2.91469973e-03,
       2.67853960e-02, 2.91643254e-02, -1.11220218e-02, 1.89717934e-02,
       2.23739184e-02, -4.61333357e-02, -1.22182060e-03, 2.32413411e-02,
       3.09207775e-02, 3.66291893e-03, 1.61330029e-02, 2.03440730e-02,
       -8.37660395e-03, 9.40316543e-03, -1.45062543e-02, -6.62235776e-03,
       1.40501345e-02, 1.52810896e-02, -4.02577668e-02, -1.48548791e-02,
       -4.47361870e-03, 2.45100446e-03, 8.01705872e-04, -2.55975630e-02,
       8.34830664e-03, 2.59800116e-03, 9.43922065e-03, -3.06734256e-02,
       -1.34409862e-02, -2.02262737e-02, 9.02405661e-03, 1.65411290e-02,
       -3.81570794e-02, 1.26483263e-02, 6.21393919e-02, 6.59219027e-02,
       6.76409667e-03, 2.78378334e-02, 3.46918590e-02, 8.84779554e-04,
       -4.61057294e-03, -3.73535454e-02, 2.70649791e-02, 2.69301236e-02,
       2.19318997e-02, -2.24332549e-02, -1.32010653e-04, -1.16817532e-02,
       1.79145001e-02, 6.73346734e-03, -3.02465428e-02, 1.59442611e-02,
       -3.03784292e-02, 6.89633517e-03, -2.51546828e-03, 2.82904673e-02,
       -1.25775617e-02, -1.18672261e-02, 1.64363030e-02, -3.33658084e-02,
       -1.99429244e-02, -2.04255246e-02, -2.02011745e-02,
       -1.40352240e-02, 1.94900110e-02, -3.86755578e-02, 3.56267020e-02,
       5.08202799e-02, -2.17514765e-03, 4.09882441e-02, 1.18639860e-02,
       2.37221215e-02, -1.25363693e-02, 1.30184293e-02, -2.46880250e-03,
       7.50883343e-03, 3.92233543e-02, -2.56960018e-04, 7.72441598e-03,
       1.86325740e-02, 5.33877965e-03, -3.01487911e-02, -3.01890746e-02,
       -1.70677248e-02, -2.92899348e-02, 1.09218061e-02, -4.35911864e-02,
       -2.70992145e-02, -1.73020400e-02, 1.54088391e-02, -1.00032091e-02,
       9.05316696e-03, -2.07775701e-02, -3.95231172e-02, -3.26063707e-02,
       -4.60007526e-02, -1.82350527e-03, -2.54509114e-02, 8.21829401e-03,
       -3.04476600e-02, -8.26654769e-03, -2.50010379e-02, 3.33793983e-02,
       3.08043845e-02, -3.89890792e-03, 2.42477767e-02, 2.39551906e-02,
       2.51837764e-02, -5.79538476e-03, -1.84885203e-03, 1.62686054e-02,
       2.07173359e-02, 1.61052980e-02, -4.96411473e-02, 2.13535316e-02,
       3.50098722e-02, 2.87945196e-02, -3.54023799e-02, -4.19648737e-02,
       -2.92794611e-02, 1.24146733e-02, -3.14327423e-03, -1.86768118e-02,
       6.40416658e-03, -2.10906030e-03, 2.01315656e-02, -2.42900848e-02,
       3.20722279e-03, 3.87341641e-02, -1.96976159e-02, 7.55842077e-04,
       3.57078249e-03, -1.80514250e-02, -5.92975728e-02, -1.75475758e-02,
       -3.11331153e-02, -9.95467510e-03, -3.61975506e-02, 2.61741318e-02,
       1.76359173e-02, -8.68298113e-03, 2.17499752e-02, 4.34598401e-02,
       2.59950571e-02, -4.04461324e-02, -1.37143228e-02, -1.25596263e-02,
       4.03929735e-03, 1.43558700e-02, 8.63648765e-03, 1.08778467e-02,
       -6.76999893e-03, 1.35720465e-02, -7.72544462e-03, -7.75415730e-03,
       -2.78163552e-02, -1.26607893e-02, 3.13691748e-03, 4.61635087e-03,
       -2.01168284e-02, -4.63096388e-02, -1.16941454e-02,
       -1.48528488e-02, 1.22625157e-02, -1.31879523e-02, -2.36868765e-02,
       -2.10541431e-02, -2.75858808e-02, -1.96135547e-02,
       -3.30936126e-02, -3.25840600e-02, -1.07493512e-02,
       -2.67210137e-03, -1.36096207e-02, 2.37064045e-02, 4.26246002e-02,
       2.33283881e-02, 1.53109524e-02, 3.82385179e-02, 6.13216273e-02,
       3.20500601e-03, 7.03766057e-03, 6.35261997e-04, 1.74205974e-02,
       4.85271476e-02, 8.92182440e-03, -2.17205728e-03, 4.02511694e-02,
       1.79918222e-02, 7.13551417e-04, 3.87863517e-02, -1.26900412e-02,
       -1.00727491e-02, -1.41003141e-02, -2.23378022e-03,
       -1.87971664e-03, -2.07418576e-02, 6.70078618e-04, 1.76298190e-02,
       2.35754494e-02, 1.92927253e-02, 1.02276541e-02, -2.13922020e-02,
       -7.46378768e-03, -1.30154868e-03, -2.82252543e-02,
       -5.39623648e-02, -5.00833914e-02, 6.82975352e-03, 5.62639646e-02,
       1.74673013e-02, 1.23294741e-02, 6.62862370e-03, 2.16538552e-02,
       1.96730979e-02, 6.44558072e-02, 5.18756248e-02, 6.29078224e-02,
       3.87382554e-03, -2.94822697e-02, -5.79940304e-02, -5.86602744e-03,
       -9.22032446e-03, 1.53495930e-02, 1.42499497e-02, -7.27611361e-03,
       4.71111620e-03, 5.56319952e-03, -1.38698416e-02, -9.81516391e-03,
       1.72750317e-02, 1.77201889e-02, -1.18704354e-02, 3.22430627e-03,
       -1.56988222e-02, 1.05787814e-02, 3.97916362e-02, -3.44792865e-02,
       -3.68854254e-02, 1.95953110e-03, 1.13214655e-02, -2.12218817e-02,
       -4.10440750e-03, -1.66138783e-02, -3.43528986e-02,
       -1.62466280e-02, 1.72887486e-03, 4.95664869e-03, 2.90679764e-02,
       2.08571013e-02, -5.23605384e-03, 2.33734120e-03, -4.44315048e-03,
       2.46453322e-02, 4.28915694e-02, 6.58056175e-04, -1.73880719e-02,
       -5.99852251e-03, 3.21636386e-02, -7.01427972e-03, 1.62182394e-02,
       -1.12128695e-02, -2.17450149e-02, 4.49663075e-03, -1.26854768e-02,
       -1.36436718e-02, -1.43773602e-02, 1.13751544e-02, 4.20519300e-02,
       -3.22176353e-03, -1.36982454e-02, -1.85117368e-02, 2.45564617e-03,
       3.35205644e-02, -7.60854175e-03, 9.52120777e-03, 2.58139651e-02,
       3.11784633e-03, -1.05778892e-02, -2.69826986e-02, 4.01458750e-03,
       1.94440391e-02, -1.93566978e-02, -2.89445724e-02, -3.45494971e-02,
       2.21191123e-02, 1.23427194e-02, 1.70356389e-02, 4.88766236e-03,
       -5.16921561e-03, 1.05816312e-02, -1.75391603e-02, -3.77940051e-02,
       -6.09743781e-03, 3.35860439e-02, -1.88214406e-02, 2.75244340e-02,
       -1.45917274e-02, -3.63053195e-03, 3.65332048e-03, -2.75443625e-02,
       -2.73505729e-02, 2.08912417e-02, -3.49540706e-03, -1.53855998e-02,
       -3.28348428e-02, -4.01128121e-02, -2.91268956e-02,
       -2.51589622e-02, -4.76894947e-03, 2.45812293e-02, 4.13852856e-02,
       2.05991585e-02, -1.92834530e-02, -1.89588610e-02, -3.86965200e-02,
       -1.03639150e-02, -9.77588538e-03, -3.24932039e-02,
       -9.64316074e-03, 9.75932181e-02, 8.72350484e-02, 5.31569235e-02,
       6.78422814e-03, -3.14140618e-02, -4.58507575e-02, -4.44510952e-02,
       2.66284682e-02, 7.88645148e-02, 8.70200545e-02, 7.48111159e-02,
       2.04666741e-02, 1.33768376e-02, 1.56530819e-03, -6.16306998e-03,
       -2.31409562e-03, 8.68108962e-03, -4.48269909e-03, -3.27323489e-02,
       -3.88166383e-02, 3.51414233e-02, -3.18813547e-02, -1.73018724e-02,
       2.25201864e-02, 4.75174002e-02, -3.31371911e-02, -2.57474016e-02,
       -1.75439231e-02, 1.53190887e-03, 1.64456628e-02, -1.06249806e-02,
       2.02815533e-02, 5.72137758e-02, 2.18992457e-02, 5.07132784e-02,
       2.99110711e-02, -1.16803497e-02, -2.12289412e-02, 2.00137217e-02,
       -2.53726002e-02, -4.07678587e-03, 7.06861839e-02, 7.45691285e-02,
       -3.38653848e-03, -3.83928348e-03, 9.56155453e-03, 1.37215182e-02,
       3.43956314e-02, -1.30302794e-02, 5.32110743e-02, 1.18037425e-01,
       3.25635336e-02, -8.60680453e-03, 1.16782233e-01, 1.29383326e-01,
       9.16164815e-02, -2.02641767e-02, -6.52383938e-02, -3.15203480e-02,
       -2.05080584e-03, -1.39163691e-04, -1.42144477e-02, 1.03269987e-01,
       7.11766183e-02, 1.69105306e-02, -1.70689523e-02, -6.49184436e-02,
       -5.44285290e-02, -2.85975654e-02, -5.74109890e-02,
       -5.79727925e-02, 7.35108405e-02, 1.12782121e-01, 4.28230874e-02,
       -1.41604170e-02, -2.75144372e-02, -3.55746597e-03, 5.66449948e-02,
       -2.24288572e-02, -5.63442856e-02, 2.72663031e-03, 3.08458284e-02,
       -3.69465314e-02, -2.36531254e-02, -4.84305844e-02,
       -2.16175802e-02, -2.78014317e-02, -7.11282343e-02, 4.53293957e-02,
       1.01554133e-01, 2.09909063e-02, 1.52724646e-02, -2.41275281e-02,
       -2.08181869e-02, 1.34403268e-02, 3.37237380e-02, -2.41646189e-02,
       1.22129051e-02, 2.34325957e-02, -2.22808663e-02, -8.18143040e-03,
       3.97010968e-04, -4.15168256e-02, 1.09938169e-02, 2.14338582e-02,
       -2.57270643e-03, -1.36545962e-02, 2.33575013e-02, -2.41737906e-02,
       -2.82040816e-02, -3.56949084e-02, 1.00051402e-03, 2.49369368e-02,
       1.36832548e-02, -4.20871936e-02, -2.59213056e-02, -2.09251624e-02,
       -3.67500782e-02, -4.29496653e-02, -1.20288394e-02,
       -2.69317403e-02, 8.30488279e-04, 7.30351359e-03, 5.10726124e-03,
       2.73379665e-02, 4.05475460e-02, -7.08848529e-04, 3.82636953e-03,
       -1.86029747e-02, -1.60864592e-02, 5.80311241e-03, 4.39903736e-02,
       1.61686223e-02, 4.02985588e-02, 6.63267672e-02, -1.22706629e-02,
       -5.92653640e-03, -3.90393883e-02, 6.54180115e-03, 7.22813979e-03,
       4.18712385e-02, -1.91319268e-02, 4.05198941e-03, 1.57954975e-03,
       -1.93660352e-02, -1.33138066e-02, -2.71408539e-02,
       -4.52279076e-02, -6.09268015e-03, 5.39768254e-03, -2.04975042e-03,
       2.13987520e-03, 4.08912310e-03, -3.24741378e-02, -4.44755182e-02,
       -3.52295972e-02, -1.54412491e-02, -7.90026877e-03,
       -1.64107997e-02, -4.31670845e-02, 6.51865453e-02, 1.22131057e-01,
       4.99346480e-03, -8.73879530e-03, -3.11244130e-02, 1.60413850e-02,
       5.09509191e-05, 4.00500484e-02, 3.16168107e-02, 6.04426116e-02,
       1.13542095e-01, -1.57592874e-02, -3.55240218e-02, 2.05314234e-02,
       -2.25406308e-02, 9.62809660e-03, 3.71366995e-03, -8.16173572e-03,
       6.87914388e-03, 3.69428173e-02, -4.79911175e-03, -9.35806055e-03,
       -3.94299664e-02, 1.78035181e-02, 8.80268810e-04, 7.75592355e-03,
       -2.85138953e-02, -8.68438650e-03, 9.61377192e-03, -1.44153228e-02,
       -2.88631003e-02, -4.34812950e-03, -3.84905213e-03,
       -2.12714802e-02, 9.69880633e-03, -2.21001394e-02, 6.87096789e-02,
       8.38505104e-02, -2.64472817e-03, -2.09329021e-03, -6.10145181e-03,
       8.56462028e-03, 8.26184172e-03, 2.40769777e-02, 1.45156905e-02,
       5.30615784e-02, 5.26924878e-02, -3.26372609e-02, -1.21185929e-02,
       -1.25288684e-02, 1.46446247e-02, 1.49948371e-03, 7.30073527e-02,
       4.17212024e-02, 1.15031498e-02, 1.52094467e-02, -3.04918224e-03,
       -1.44029614e-02, -2.39478741e-02, 2.60367002e-02, -4.21504403e-04,
       2.07091104e-02, -2.05066893e-02, -1.50384409e-02, -1.27588641e-02,
       -2.24470962e-02, -5.60795330e-02, 1.44880963e-03, -6.20038621e-03,
       -1.70422085e-02, 3.74644138e-02, -5.66533161e-03, 3.19173485e-02,
       2.86225546e-02, -3.30442153e-02, -1.94329321e-02, -1.34723959e-02,
       3.06656733e-02, -2.62962305e-03, 8.02123621e-02, 7.63961971e-02,
       3.66793945e-02, 1.19020538e-02, -3.70834768e-02, -4.27033287e-03,
       2.55342759e-02, 1.86571460e-02, -5.45057608e-03, 5.60245998e-02,
       5.53947836e-02, -2.84034666e-02, 1.38032315e-02, -4.06920090e-02,
       -4.56739627e-02, -3.08547467e-02, -1.90674774e-02,
       -3.84991355e-02, 2.64723171e-02, -1.50911044e-03, -1.89977547e-03,
       5.26894908e-03, -2.94392202e-02, -2.52079889e-02, 6.79471204e-03,
       -1.60534792e-02, -6.73872903e-02, 2.36869026e-02, 3.46067385e-03,
       1.31571982e-02, 2.84434520e-02, -2.88721509e-02, -2.12333500e-02,
       -2.85698543e-03, -1.41204298e-02, -2.88419537e-02, 1.57689918e-02,
       4.62213382e-02, 1.19699491e-02, 1.65591612e-02, -2.93774363e-02,
       -2.10462641e-02, 1.59434490e-02, -2.34649461e-02, -4.59267795e-02,
       -3.79914716e-02, 2.33926605e-02, 6.65409025e-03, 8.40507541e-03,
       -3.30482163e-02, -5.67803346e-02, -2.81033553e-02,
       -4.01093140e-02, -5.68406470e-02, 2.61632744e-02, 2.44736709e-02,
       9.40468721e-03, 4.66518961e-02, -3.01299058e-03, -3.48558426e-02,
       -7.44847627e-03, -2.38248184e-02, -5.10479249e-02,
       -2.67375521e-02, 8.00979696e-03, -5.04046166e-03, 1.84956584e-02,
       -3.21044140e-02, -2.11614035e-02, -5.12318499e-03, 1.06363639e-03,
       -4.78989072e-02, -1.61541048e-02, 1.13489572e-02, -9.54714837e-04,
       2.20590853e-03, -5.46113290e-02, -1.95053350e-02, -2.09528580e-03,
       8.71784461e-04, -5.01604006e-02, -3.18204351e-02, -1.85151380e-02,
       1.65119811e-04, 7.07581714e-02, -3.81085277e-03, -2.47418527e-02,
       -3.98570560e-02, -6.02933438e-03, -3.00366357e-02,
       -1.47150354e-02, -1.13470992e-02, -4.80820471e-03, 1.81650165e-02,
       -6.28067777e-02, -4.60205972e-02, -3.00315358e-02,
       -5.10867499e-03, -3.64892893e-02, -9.29419044e-03, 1.54730333e-02,
       -4.52705324e-02, -4.78552841e-03, -2.42101755e-02, 6.62175566e-03,
       -1.09034600e-02, -1.02529489e-02, -7.03807324e-02,
       -2.70180479e-02, -2.73769032e-02, -2.57091448e-02,
       -8.43758043e-03, -3.23952995e-02, -2.87368782e-02,
       -5.97164333e-02, -4.21916619e-02, -2.31251139e-02,
       -4.88369167e-03, -1.51619725e-02, 3.27823125e-03, 1.32621173e-02,
       -5.77939041e-02, -2.56292466e-02, -1.24026667e-02,
       -1.22526875e-02, -7.11625963e-02, 2.75477655e-02, 3.65630575e-02,
       2.41871905e-02, 3.64817902e-02, -1.92741007e-02, -1.02199595e-02,
       -3.74541171e-02, -2.40773968e-02, -1.95450895e-02, 4.90121692e-02,
       4.53188382e-02, -2.39325482e-02, 3.34143974e-02, -4.51169536e-03,
       -1.97243188e-02, -3.25191244e-02, -1.04107922e-02,
       -9.93077271e-03, 3.97922797e-03, -1.16326949e-02, -2.59255990e-02,
       -7.90384691e-03, -7.80204486e-04, -2.62973923e-02,
       -1.52955875e-02, -5.43588549e-02, -2.68456861e-02,
       -1.37993405e-02, -3.13284472e-02, 5.49428388e-02, 8.80833417e-02,
       5.47107719e-02, 3.01930588e-02, -4.09092428e-03, -1.06090843e-03,
       2.01397836e-02, 3.62382010e-02, 3.88066173e-02, 4.71952260e-02,
       6.38671368e-02, 7.16228336e-02, 4.19108110e-04, 1.13591552e-02,
       3.07367090e-03, 2.37627281e-03, 3.32329102e-04, 2.11174171e-02,
       -4.63502249e-03, -1.16338367e-02, 1.95784420e-02, 3.10360640e-02,
       5.51534891e-02, 6.34713322e-02, 4.28625122e-02, 3.30672972e-02,
       2.09210869e-02, -5.45897037e-02, -7.39343688e-02, -5.73518798e-02,
       -6.74495474e-02, -1.56439804e-02, -1.70055553e-02,
       -3.83917242e-02, -3.99949364e-02, -4.62106168e-02, 6.89566210e-02,
       7.80177563e-02, 4.44942750e-02, 4.20988388e-02, 9.08878744e-02,
       1.05634369e-01, 6.16832189e-02, 6.62997887e-02, 5.73364571e-02,
       -2.63422653e-02, -5.33162169e-02, -6.28434643e-02,
       -4.31870706e-02, 1.63192358e-02, -4.49780980e-03, -4.77515124e-02,
       -3.56794819e-02, -9.55027901e-03, -1.00885695e-02, 1.71257742e-02,
       3.02999225e-02, -1.82344101e-03, 1.15927719e-02, 7.93834589e-03,
       -1.46331498e-02, 7.43168499e-03, -1.30824093e-03, -1.78408958e-02,
       -1.13764238e-02, 8.49946681e-03, 3.66332592e-03, -9.50673409e-03,
       1.32381869e-02, 1.13860657e-02, -4.10644487e-02, -5.18842228e-03,
       -2.10564071e-03, -8.16668663e-03, 1.10533889e-02, 5.72225358e-03,
       -9.13318188e-04, 3.06204669e-02, 1.61862317e-02, -1.66607667e-02,
       1.13092270e-02, 9.98492632e-03, -2.85257958e-02, 4.15451964e-03,
       1.09772924e-02, 6.94017997e-03, 1.63074639e-02, 1.37381675e-02,
       -2.70103607e-02, -7.34106591e-03, 3.51665244e-02, -3.79358530e-02,
       -4.94228974e-02, -1.57404598e-02, 4.10606473e-04, -1.30392462e-02,
       -2.05428023e-02, -1.14037059e-02, 5.43744192e-02, 2.95555610e-02,
       -3.53037901e-02, -3.01425178e-02, 5.18633984e-03, 1.59054976e-02,
       4.04023044e-02, 1.07575823e-02, -1.67060904e-02, 5.70233725e-02,
       4.81306873e-02, -3.15488949e-02, -3.83385681e-02, -2.22522784e-02,
       4.39269748e-03, -1.16842985e-02, -2.66918186e-02, -3.48213874e-02,
       6.21451400e-02, 4.24847528e-02, 3.27613018e-03, -1.10746955e-03,
       7.09400419e-03, 5.17179910e-03, 3.08515783e-02, -1.47033259e-02,
       -2.82504782e-02, 4.68886979e-02, -5.29691428e-02, -2.61247903e-02,
       5.54968081e-02, 5.71588092e-02, 5.90476505e-02, 4.02677059e-02,
       2.54364423e-02, -4.51951623e-02, -4.73812222e-02, -4.18970808e-02,
       6.98005557e-02, 9.95750204e-02, 6.98347390e-02, 3.43090557e-02,
       5.04001491e-02, 2.93812118e-02, -3.89385456e-03, -4.71231043e-02,
       -4.79750969e-02, -3.73325907e-02, 2.21584011e-02, 3.20395194e-02,
       4.89845723e-02, 7.34403282e-02, 8.97671804e-02, -2.59285681e-02,
       -5.15469350e-02, -4.48944792e-02, 2.62155337e-03, 1.51202222e-02,
       7.25655304e-03, 2.63786614e-02, 7.99249411e-02, 9.70423669e-02,
       4.28171083e-02, -1.41378269e-02, 4.80992347e-02, 5.30288406e-02,
       3.14888619e-02, -1.18972268e-02, 3.20694805e-03, -2.09462512e-02,
       -4.09221603e-03, 3.45540270e-02, 3.82027104e-02, -1.32746296e-02,
       1.04087228e-02, 1.90293565e-02, -3.26522887e-02, 9.34338372e-04,
       -2.77652312e-02, 1.37834242e-02, 4.47554067e-02, 1.93985121e-03,
       5.26028872e-02, 5.70179224e-02, 5.50305797e-03, -2.36877222e-02,
       3.70209338e-03, 1.70874726e-02, 1.17451120e-02, 2.92574931e-02,
       5.74333034e-02, 1.28454212e-02, 4.20539007e-02, 2.84435786e-02,
       -4.16904800e-02, 6.52947882e-03, 2.77636875e-03, 2.77298447e-02,
       -2.65656447e-04, 2.31102505e-03, -6.58057928e-02, 3.20990719e-02,
       6.86820671e-02, 4.86121699e-02, 4.93812375e-04, 4.30954881e-02,
       6.14913218e-02, 6.29823133e-02, -3.10678203e-02, -5.54978624e-02,
       -4.12936807e-02, -1.49236703e-02, -1.95535552e-02, 3.51813585e-02,
       5.80371032e-03, 3.05518340e-02, 3.85081721e-03, -4.01758775e-02,
       -2.60226168e-02, 4.38184850e-02, 6.09850436e-02, 1.83652490e-02,
       2.14204434e-02, 7.02317879e-02, 7.11943358e-02, 5.53333834e-02,
       -4.99142334e-02, -6.99821413e-02, -3.21767218e-02,
       -7.69361912e-04, -1.34971105e-02, 4.83285040e-02, 1.32383138e-03,
       -2.48907111e-03, -1.71160586e-02, -6.22136407e-02,
       -1.91055313e-02, 2.21559219e-02, -8.35725293e-03, 1.85323171e-02,
       -3.06666605e-02, 2.02642009e-02, 3.46288681e-02, 3.79167050e-02,
       -4.47560586e-02, -3.65475416e-02, -2.06538532e-02,
       -3.36739868e-02, -4.63196747e-02, -4.67802957e-02,
       -4.08709198e-02, -7.26424716e-03, -2.51686247e-03,
       -3.43586467e-02, -4.15142439e-02, 2.89757028e-02, 1.63230393e-02,
       4.46991660e-02, -4.16652672e-02, -5.55956131e-03, -1.16518782e-02,
       9.54217650e-03, -4.41753492e-02, -1.42848575e-02, -6.14215713e-03,
       -4.04311195e-02, -1.35023920e-02, -8.56787935e-02,
       -6.25176653e-02, -5.24162985e-02, -1.54798329e-02,
       -1.58511791e-02, -1.67136025e-02, -5.69628691e-03,
       -7.16937799e-03, -1.00461822e-02, -5.18859960e-02,
       -1.17184017e-02, 1.75730195e-02, 3.03569175e-02, 5.73371537e-03,
       -4.04133536e-02, 1.25647485e-02, -1.31964567e-03, -3.84780541e-02,
       -4.65829186e-02, -4.12155408e-03, -1.01213751e-03, 1.71483438e-02,
       -3.65202501e-02, -2.66319923e-02, 2.07111686e-02, -3.52601595e-02,
       -6.56273274e-04, -5.68323061e-02, -1.69423874e-02,
       -2.51801172e-03, 3.05716172e-02, -1.22376177e-02, -9.71115232e-02,
       1.63080897e-02, -1.42266527e-02, -1.13768363e-02, -6.58857673e-02,
       -5.01128435e-02, -2.95256469e-02, 1.92383192e-02, -4.04155329e-02,
       -4.23448309e-02, 2.68259626e-02, -9.07181005e-04, 1.35445949e-02,
       -1.49707147e-03, 4.15786207e-02, 3.44543066e-03, 1.31833311e-02,
       -4.07917164e-02, -4.11839224e-02, -1.40771642e-03,
       -9.54483869e-04, 2.10713800e-02, 1.03165703e-02, 2.89375074e-02,
       2.04010624e-02, 2.23705489e-02, -2.01699641e-02, -6.20221607e-02,
       5.16115315e-03, 1.29504791e-02, 2.83293240e-02, 2.64450070e-03,
       1.76961953e-03, -1.45753184e-02, 2.88540740e-02, -3.66854817e-02,
       -3.06561813e-02, 9.95207578e-03, 1.10584898e-02, 2.13931985e-02,
       1.34450886e-02, -4.38208915e-02, -2.98801400e-02, -2.18111966e-02,
       -4.87752557e-02, -2.97747552e-02, 1.81341916e-02, 1.57134496e-02,
       3.32528092e-02, 3.31106782e-02, 6.95594922e-02, 5.11698909e-02,
       5.14095239e-02, -1.22397561e-02, -4.11591418e-02, -1.95858604e-03,
       -6.60203490e-03, -5.69560006e-03, 3.79015990e-02, 3.83018665e-02,
       1.24656856e-02, 1.44609148e-02, -4.50647064e-02, -1.43136643e-02,
       4.59051467e-02, 1.44942347e-02, 4.89898473e-02, 2.64587812e-02,
       3.08422297e-02, 2.27971580e-02, 9.29576345e-03, -1.34024145e-02,
       -3.66391428e-02, 3.27376053e-02, 1.50575405e-02, -1.03540567e-03,
       2.10876856e-02, 1.51629495e-02, 1.81747880e-02, -1.46327112e-02,
       -2.86235008e-02, -4.13724259e-02, 1.60566699e-02, -1.41436886e-02,
       -1.18596805e-02, 1.65052945e-03, 5.50222909e-03, -2.98583694e-02,
       3.34322155e-02, 5.35134366e-03, 4.57278080e-03, 4.72950377e-02,
       -7.84848724e-03, -2.83745099e-02, 1.41840195e-02, -1.43214865e-02,
       -3.73985209e-02, 4.25190032e-02, 2.42252741e-02, 4.64988407e-03,
       3.74804661e-02, -2.30682362e-02, -1.01746311e-02, 4.89665661e-03,
       -2.29899883e-02, 1.39659736e-02, 1.64911319e-02, -1.92704089e-02,
       1.06463544e-02, 3.51341553e-02, -3.16362083e-02, -2.79913936e-02,
       -1.13862213e-02, -2.71130819e-02, -2.17183549e-02, 2.61609275e-02,
       1.68250576e-02, -2.21321316e-04, 4.32327650e-02, 9.51599330e-04,
       -2.52917223e-02, -1.61248241e-02, -2.59902831e-02,
       -3.57269868e-02, 2.44821087e-02, 3.02591324e-02, -1.34608196e-02,
       5.76781742e-02, 1.81943998e-02, -3.83486152e-02, -2.71408074e-03,
       -2.30875071e-02, -3.52497189e-03, 3.09074912e-02, 1.10669835e-02,
       -8.68726894e-03, 1.58246960e-02, -7.70317810e-03, -4.40396694e-03,
       -1.35780862e-02, -2.57138032e-02, -2.35868748e-02, 4.89233285e-02,
       2.94406544e-02, -1.05689028e-02, 4.38590012e-02, -1.26756094e-02,
       -3.71596068e-02, -3.18502150e-02, -4.81522791e-02, 1.07987104e-02,
       6.79727495e-02, 1.74952820e-02, -3.17232758e-02, 7.24034160e-02,
       1.13257871e-03, -1.71615109e-02, 4.25055902e-03, 9.08834394e-03,
       -7.59614864e-03, 3.53589095e-02, -3.57414596e-02, -1.67841744e-02,
       1.12179704e-02, -5.43421432e-02, -5.21081723e-02, -1.99172981e-02,
       3.49416351e-03, -1.85497366e-02, 8.88409151e-04, -1.08105522e-02,
       -4.19685021e-02, 3.43220308e-02, -3.89244370e-02, -1.04927486e-02,
       -2.79336306e-03, -1.89604219e-02, -2.24967138e-03, 6.96776807e-02,
       -1.02556627e-02, -3.97477075e-02, -9.72905010e-03,
       -5.43816276e-02, -2.69467626e-02, -1.42530426e-02,
       -2.88238991e-02, -3.15492190e-02, 3.90915060e-03, -5.47547173e-03,
       -2.14817133e-02, -1.58657283e-02, -5.30734062e-02,
       -3.73079628e-02, 5.48335770e-03, -1.68834478e-02, -6.40591010e-02,
       -2.48902086e-02, 9.00788419e-03, 1.51717085e-02, 4.80391039e-03,
       -2.59505045e-02, -1.39297908e-02, -3.88113111e-02,
       -3.10413912e-02, -2.80687958e-02, 1.16112605e-02, 2.74264663e-02,
       9.60729260e-04, -3.00733633e-02, -6.87578619e-02, -1.90477259e-02,
       -7.75658153e-03, -4.16242369e-02, -3.79197635e-02,
       -1.44764930e-02, -2.47590784e-02, 3.05538811e-02, -6.85551111e-03,
       -3.43758799e-02, -2.82833911e-02, -2.28735339e-02,
       -4.16943096e-02, -4.41378579e-02, 1.62802767e-02, 1.29001262e-02,
       1.00492053e-02, 2.16994695e-02, 1.47367334e-02, 3.12344916e-02,
       5.13027189e-03, 1.79297675e-03, -1.40079828e-02, 1.62446816e-02,
       6.70267791e-02, -1.06719066e-03, 3.44164707e-02, 1.95349511e-02,
       -1.83952153e-02, 8.41974560e-03, -1.18711926e-02, -1.44501142e-02,
       2.89230258e-03, 2.41520572e-02, 2.61426698e-02, -5.33018261e-04,
       -1.84211265e-02, 1.34689026e-02, 2.23790091e-02, 1.28261270e-02,
       5.81454777e-04, 3.72614339e-02, 1.33517105e-02, 1.73907187e-02,
       1.06718577e-02, 2.34328257e-03, 1.17606074e-02, 2.50049625e-02,
       -1.27356155e-02, 1.12915039e-02, 1.26904752e-02, 2.03925697e-03,
       4.00815345e-02, 6.73261881e-02, 2.68425532e-02, 2.44510937e-02,
       8.54996145e-02, 9.35151950e-02, 7.96409044e-03, 2.89260540e-02,
       3.91298234e-02, -1.64492037e-02, -3.55837122e-02, -5.28250784e-02,
       -5.26255108e-02, 6.91770297e-03, -1.15957009e-02, -4.19686735e-02,
       -2.87816636e-02, -7.19042728e-03, 3.92189063e-02, 4.81927842e-02,
       3.43240686e-02, 7.74771348e-02, 7.52526075e-02, 6.41635284e-02,
       -2.29355600e-03, 3.30490544e-02, 2.61452422e-02, -2.43032165e-02,
       -6.31188676e-02, -3.77908237e-02, -2.42962074e-02, 2.50813756e-02,
       -2.56898757e-02, -5.74241951e-02, -6.36047050e-02,
       -4.88828346e-02, 9.67524573e-03, -1.14056859e-02, -2.81792833e-04,
       2.96346191e-02, -1.33720273e-02, 3.63682434e-02, 2.93981191e-02,
       -2.07014219e-03, 2.90328171e-02, -3.92499426e-03, -3.70327383e-02,
       -8.91455542e-03, 2.30730288e-02, -1.12674264e-02, 1.05914194e-02,
       -1.62868649e-02, -1.58490520e-02, -4.93281009e-03, 1.98176447e-02,
       -5.93756931e-03, 8.72954261e-03, 4.41652425e-02, 1.61134079e-02,
       3.71518545e-02, 2.45079165e-03, -3.32328044e-02, 7.87899084e-03,
       -2.62395795e-02, -1.94948446e-02, -9.61235631e-03, 5.43373115e-02,
       -1.27085149e-02, 2.63217259e-02, -1.42167015e-02, -3.35266590e-02,
       7.96923041e-03, 3.26982439e-02, -2.62095872e-02, -1.39057245e-02,
       -1.68176554e-02, 3.64342667e-02, 2.83660069e-02, 7.89595302e-03,
       -1.83768850e-02, 5.76006761e-03, 3.38074118e-02, -7.38870492e-03,
       -1.81854982e-02, -8.86434864e-05, -1.52673982e-02, 1.53828301e-02,
       -1.47321215e-02, -5.88673539e-02, -1.70063488e-02, 3.51851084e-03,
       -2.44712513e-02, -2.06890441e-02, -8.57993681e-03, 3.93383764e-03,
       2.16945335e-02, 7.38156913e-03, -2.24098191e-02, -2.20644418e-02,
       2.64781304e-02, 6.52266666e-03, -1.28011173e-02, 1.24728344e-02,
       -2.81662308e-03, 5.84992440e-03, 1.62291192e-02, -2.73034107e-02,
       6.56483928e-03, -5.29652135e-03, -3.79199609e-02, -1.31239911e-04,
       -3.82449874e-03, 3.97623405e-02, 7.11895227e-02, 9.96728167e-02,
       -3.82342236e-03, -1.65695902e-02, 5.35266532e-04, -1.34301186e-02,
       2.51647774e-02, -1.88639369e-02, 1.90789234e-02, 7.17588887e-02,
       9.82698649e-02, 6.93060085e-02, 3.09416596e-02, -2.42072698e-02,
       -4.80863154e-02, -3.83112952e-02, -3.29899378e-02, 2.37717442e-02,
       -1.96038429e-02, 4.23473939e-02, -2.93997601e-02, -2.50436701e-02,
       -3.67042124e-02, -1.89508498e-02, -9.17987898e-03,
       -2.56782267e-02, -1.26380427e-03, 4.02821824e-02, 6.36389628e-02,
       4.27249484e-02, 1.29792113e-02, 7.53310248e-02, 6.31418377e-02,
       6.79625338e-03, -3.84354703e-02, 1.04696928e-02, -6.55468507e-03,
       -7.19273882e-03, 2.83965599e-02, 6.19300269e-02, 7.41905719e-02,
       9.34298486e-02, 3.96866761e-02, -3.28942239e-02, 1.48521913e-02,
       2.75292266e-02, 3.22139896e-02, 1.34591328e-03, 2.05026884e-02,
       2.78255492e-02, 2.53594760e-02, 4.16802149e-03, -1.62699018e-02,
       1.36327725e-02, -3.92240696e-02, -3.38339433e-02, -2.69714985e-02,
       1.35655981e-02, 4.99059930e-02, 5.15302978e-02, -2.01772316e-03,
       -1.31446579e-02, 2.62861587e-02, 4.99038398e-03, -9.59969498e-03,
       -5.54617383e-02, -1.46402465e-02, -1.69899929e-02, 2.55280398e-02,
       -7.72198103e-03, -4.16098908e-02, -5.62605355e-03, 8.70967284e-02,
       1.26656175e-01, 8.83951932e-02, -4.58748378e-02, -7.08940178e-02,
       -3.08887307e-02, -5.06265312e-02, -5.46985045e-02,
       -7.85618648e-03, 4.02475335e-03, 4.39700522e-02, 1.59010440e-02,
       -1.40387118e-02, -2.80701481e-02, 3.20435762e-02, -2.04461906e-02,
       -3.10092326e-02, -4.85168351e-03, 9.90037099e-02, 1.45849243e-01,
       1.06228337e-01, -2.00335905e-02, -7.57184029e-02, -2.57630441e-02,
       -5.45113944e-02, -5.48728034e-02, -8.68398137e-03,
       -5.03221434e-03, 4.37543839e-02, 9.15458724e-02, 1.00962433e-03,
       -3.64872403e-02, 2.92108692e-02, 1.10370228e-02, 2.73881741e-02,
       -4.73122038e-02, -4.79724035e-02, -4.55114692e-02, 3.48538905e-02,
       7.79015617e-03, 2.12784205e-02, 1.53230391e-02, -8.46252963e-03,
       5.86705655e-03, -3.39958444e-02, -5.39821684e-02, -7.15325028e-02,
       -1.88519917e-02, 2.91499519e-03, -2.38600541e-02, 2.14315504e-02,
       -5.90994768e-03, 9.26141627e-03, -1.76386870e-02, -1.32581322e-02,
       5.99579467e-03, 1.08716182e-01, 4.90143411e-02, 2.70549138e-03,
       -4.78247879e-04, 2.52088974e-03, -1.69719644e-02, -1.02263307e-02,
       -4.30471413e-02, -7.32723400e-02, 2.83957236e-02, 2.10153703e-02,
       -1.02776410e-02, 1.69009659e-02, -2.13887058e-02, -3.69888544e-03,
       -2.68428791e-02, -4.91153076e-03, -3.54551226e-02, 1.36008095e-02,
       -1.22754900e-02, -4.57473211e-02, 4.86891484e-03, -1.98814888e-02,
       -1.45722665e-02, -5.02173603e-03, -1.95728447e-02,
       -2.35576760e-02, 2.22271718e-02, 1.05795600e-02, 1.51331173e-02,
       1.70762241e-02, -6.47226116e-03, 3.07162199e-03, -1.30913109e-02,
       1.01076243e-02, -3.74800973e-02, 3.87659706e-02, 8.93912837e-03,
       -1.84796434e-02, 4.01248336e-02, -5.14345150e-03, -7.72562344e-03,
       -9.89370234e-03, -2.20046262e-03, -5.00543509e-03, 5.40913828e-02,
       8.93738400e-03, -4.78835069e-02, 4.42245975e-03, -5.84335532e-03,
       1.20922634e-02, -2.69926153e-02, -8.31332989e-03, -1.03994142e-02,
       3.61916423e-02, -6.34854008e-03, -2.68759727e-02, -4.42912150e-03,
       -2.75904164e-02, -1.32611776e-02, -1.54745746e-02,
       -5.54851517e-02, -4.05993946e-02, 3.33355628e-02, -3.08122337e-02,
       3.93649973e-02, 5.34892567e-02, 8.90566874e-03, 2.10414757e-03,
       -2.86175497e-02, -1.03723509e-02, -3.19042196e-03, 9.52403247e-02,
       2.63388325e-02, 1.82670131e-02, 3.37701514e-02, 2.33244617e-02,
       -1.18145989e-02, -4.71123867e-03, -4.48818766e-02,
       -1.85518302e-02, 9.52474475e-02, 2.19443589e-02, -1.19188251e-02,
       6.08960958e-03, -2.89350990e-02, -9.66756033e-06, -5.21958657e-02,
       -1.28135663e-02, -2.59066708e-02, 4.20028828e-02, 2.56227497e-02,
       -1.99604474e-04, 5.08674560e-03, -3.43640335e-02, -6.05393341e-03,
       -4.99153370e-03, -4.82895300e-02, -2.17488352e-02,
       -1.46140938e-03, -1.19734630e-02, 3.37099060e-02, 1.99902467e-02,
       -2.15454008e-02, 2.35790433e-03, -3.78410006e-03, -1.40244449e-02,
       -3.94856604e-03, 8.77795890e-02, 4.47178520e-02, 6.63591698e-02,
       5.45696132e-02, -2.61920765e-02, 1.08829457e-02, 2.51907244e-04,
       -2.76404973e-02, -3.53215337e-02, 2.97059398e-02, 3.74130979e-02,
       2.14745384e-02, 3.41732688e-02, -2.73136832e-02, 4.63536335e-03,
       -3.23492698e-02, -5.28492592e-02, -3.25949788e-02, 8.18297360e-03,
       -3.12460382e-02, 1.27552431e-02, 1.29885301e-02, -5.31138852e-02,
       -8.19397741e-04, -4.34676334e-02, -4.87846285e-02,
       -4.11252491e-02, -1.44004729e-02, -1.57453548e-02, 8.46138299e-02,
       5.69789112e-02, -3.75977680e-02, 2.81753242e-02, 1.39761018e-02,
       -3.16735879e-02, -4.21587378e-02, 2.48953011e-02, 7.61792855e-03,
       2.97589730e-02, 1.04941865e-02, -4.60900404e-02, -1.09857265e-02,
       4.94770240e-03, -9.96282324e-03, -2.70298515e-02, 9.01482161e-03,
       7.82357529e-03, 2.71529262e-03, 1.34940511e-02, -1.93895753e-02,
       1.48175647e-02, -1.67125463e-02, -2.65486073e-02, -2.27367412e-02,
       2.28714347e-02, 2.02444401e-02, -8.40525795e-03, 2.11418793e-03,
       -4.44127508e-02, -2.48367880e-02, -9.98218637e-03,
       -4.17104103e-02, -7.25648412e-03, 3.87111455e-02, 2.05763280e-02,
       4.18875404e-02, 1.40643548e-02, -2.76457537e-02, -2.50775879e-03,
       1.28439406e-03, -1.69126280e-02, -2.82638837e-02, 3.44704045e-03,
       8.43530335e-03, -8.11103918e-03, -1.47398086e-02, -4.49143052e-02,
       -2.55240928e-02, 6.20285189e-03, -3.86415310e-02, -2.23943796e-02,
       2.50373445e-02, -1.48008177e-02, -2.52111740e-02, 1.06782755e-02,
       -3.74037065e-02, -9.05027334e-03, -7.30023440e-03,
       -1.67262629e-02, -1.95124783e-02, 6.37339875e-02, -4.57252981e-03,
       2.72593112e-03, -3.01084435e-03, -4.52457592e-02, -2.41606291e-02,
       -2.08948553e-03, -8.60422011e-03, -4.40317616e-02, 3.18255299e-03,
       5.59735438e-03, -9.21477284e-03, 4.65947809e-03, -4.07670476e-02,
       -1.56725175e-03, 1.73971616e-02, -3.55495065e-02, -4.14252318e-02,
       1.62553210e-02, -2.54596071e-03, -2.59620557e-03, -3.69470455e-02,
       -5.13326973e-02, -2.50530038e-02, 2.34877877e-03, -1.17899794e-02,
       -4.78621088e-02, -5.99958142e-03, -1.92628693e-04, 2.90672667e-02,
       3.01279593e-02, -2.95398030e-02, -3.39489356e-02, -8.43970105e-03,
       -2.61836238e-02, -4.20701019e-02, -4.36315266e-03,
       -1.56316683e-02, 5.24204448e-02, 3.95046882e-02, -2.63012573e-02,
       -4.16771062e-02, -1.59817096e-02, -1.68420430e-02,
       -2.02033799e-02, 4.17870395e-02, 1.27225909e-02, -2.29886081e-02,
       -4.83117513e-02, -6.97759986e-02, -4.03635800e-02,
       -2.99173854e-02, -2.85525210e-02, -1.86036099e-02,
       -1.22987051e-02, -2.37441305e-02, -3.32443714e-02,
       -3.77896316e-02, -3.27315554e-02, -4.34520617e-02,
       -3.83009650e-02, -5.24213947e-02, -2.78287288e-02,
       -1.42332138e-02, -8.23199190e-03, 4.01705652e-02, 4.64792326e-02,
       1.91955417e-02, 2.04643281e-03, 2.29767412e-02, 2.20031235e-02,
       4.17810455e-02, 8.99572074e-02, 4.46059294e-02, 1.28270090e-02,
       4.43107858e-02, 1.41706932e-02, 2.74741761e-02, 3.66711320e-05,
       3.23431008e-03, 7.09771141e-02, 4.98977341e-02, 3.04764863e-02,
       3.92623572e-03, 1.67216752e-02, 6.72606425e-03, -1.15090869e-02,
       2.33393023e-03, -4.58563864e-02, -1.42710069e-02, 3.38339843e-02,
       2.74959253e-03, -5.56827895e-02, 8.68210162e-04, -1.07765319e-02,
       -4.07026485e-02, -2.81983390e-02, -5.49597703e-02,
       -4.36145207e-03, -1.48018254e-02, -2.43518315e-02, 3.82682532e-02,
       6.00486398e-02, 5.55754676e-02, 1.00416742e-01, 7.12483823e-02,
       6.72645941e-02, 5.93612418e-02, 5.71822487e-02, 6.25897348e-02,
       -1.96369234e-02, -7.96551779e-02, -3.37138809e-02, 1.41035952e-02,
       1.78416315e-02, -1.72204152e-02, -2.49308664e-02, -4.63429131e-02,
       -1.30770095e-02, 1.40966829e-02, 2.46340875e-02, 4.18512970e-02,
       6.16196059e-02, 4.57742698e-02, 3.87007035e-02, 3.47142145e-02,
       3.75192752e-03, 1.39698107e-02, -3.98963951e-02, -4.81318906e-02,
       -2.48885863e-02, 2.03966396e-03, -7.16572301e-03, -2.93710828e-02,
       -3.72884199e-02, -7.94444829e-02, -3.81219499e-02, 2.38276701e-02,
       -2.09723134e-02, 2.57133264e-02, 2.86428817e-02, -1.53250536e-02,
       2.03978568e-02, 1.36422478e-02, -2.00235043e-02, 3.61271738e-03,
       -6.84133219e-03, -1.87915862e-02, 2.42155939e-02, 3.77707221e-02,
       -3.98765542e-02, 4.09167148e-02, 1.46365874e-02, -4.64967042e-02,
       -9.63490363e-03, 1.71666536e-02, -6.32295758e-03, 3.34555879e-02,
       3.09654698e-02, -9.91949067e-03, 5.12569100e-02, 3.37102525e-02,
       1.68238266e-03, 1.72032751e-02, -2.04003789e-02, -5.78465015e-02,
       2.96746120e-02, 2.53883600e-02, -8.83249007e-03, 2.95301341e-02,
       1.74506437e-02, -2.60360464e-02, -1.33274598e-02, 1.74642093e-02,
       9.34081792e-04, -1.48829287e-02, 4.20153840e-03, -1.11320149e-02,
       7.48962862e-03, -8.34830943e-03, -2.90904995e-02, -1.61785539e-02,
       1.34829395e-02, 8.65741167e-03, 4.44716727e-03, 3.93496901e-02,
       -2.64075752e-02, -2.16472000e-02, 3.27370428e-02, 1.75707066e-03,
       4.88625513e-03, 2.41665542e-02, -4.85488726e-03, -2.42585763e-02,
       3.07815485e-02, 1.59355495e-02, 1.82346925e-02, 5.92511939e-03,
       -1.95472352e-02, 3.52274477e-02, 2.54523158e-02, 7.91857019e-03,
       2.76122242e-02, 6.24252781e-02, -2.86363356e-04, 1.13243796e-02,
       2.65023094e-02, -1.00902952e-02, 1.56411380e-02, 2.21105814e-02,
       -3.26032154e-02, 3.74435307e-03, 1.26097444e-02, 1.45199196e-02,
       -2.91927736e-02, 3.82792689e-02, 1.78276505e-02, 1.37606356e-02,
       2.48630578e-03, -1.96130648e-02, -1.15616445e-03, -2.59894785e-03,
       -5.17686903e-02, -8.50195438e-03, 8.79455823e-03, 2.48069670e-02,
       1.02552716e-02, 2.46847887e-02, 9.68272891e-03, 1.10801458e-02,
       1.64544322e-02, 1.14171347e-02, -1.63585041e-02, -8.07540142e-04,
       -2.23949067e-02, -7.31657539e-03, 2.91720335e-03, -8.95157363e-03,
       -5.29960776e-03, 1.08177699e-02, 2.27491092e-03, -4.18925798e-03,
       -2.28849631e-02, 3.91750224e-03, 1.25363213e-03, 1.44295441e-02,
       -3.28071136e-03, -4.44003940e-03, 1.00829704e-02, 3.20928320e-02,
       -2.26096977e-02, -7.75772519e-03, -3.31151416e-03, 6.77246600e-03,
       -1.38315586e-02, 2.11508889e-02, 4.81497589e-03, 1.18335644e-02,
       6.18847203e-04, -1.75854471e-02, -1.97488498e-02, -3.94935906e-02,
       -2.73871813e-02, -5.59071498e-03, -2.11698487e-02, 4.51616151e-03,
       1.49476118e-02, 4.77688499e-02, 9.44817625e-03, -1.06436964e-02,
       -4.75370703e-04, 1.60217173e-02, 1.22304093e-02, 1.67120676e-02,
       3.89917158e-02, -8.93542636e-03, 3.09822802e-02, -2.16476377e-02,
       -5.26952744e-03, -1.24151604e-02, 3.24278027e-02, -2.96639856e-02,
       4.00732532e-02, 2.62099281e-02, 1.15366317e-02, 3.55373049e-04,
       2.39785444e-02, 5.66750355e-02, 4.41003554e-02, -2.59006228e-02,
       -4.80044484e-02, -8.94393772e-03, 8.43788590e-03, 7.39818788e-04,
       8.13281536e-03, -2.40359437e-02, -1.00633660e-02, 4.18973826e-02,
       -2.35593021e-02, -2.19638832e-02, 1.90163199e-02, 1.52560947e-02,
       1.60792172e-02, -6.09860523e-03, -2.09535696e-02, 1.35829812e-03,
       -2.56808046e-02, -8.70043039e-03, -1.17485626e-02, 1.31875440e-03,
       -1.36391018e-02, 7.42117758e-04, 3.80254979e-03, -3.78892459e-02,
       -9.99316201e-03, 1.32155893e-02, 1.19301081e-02, -2.18799412e-02,
       7.12271966e-03, -6.07105345e-03, 2.45045274e-02, -3.28850909e-03,
       -3.90400812e-02, -4.16493937e-02, 1.03402734e-01, 4.21426557e-02,
       -2.89510228e-02, -2.04106141e-02, -9.24073998e-03,
       -1.70513447e-02, 3.43802907e-02, -1.01415534e-02, -4.58654612e-02,
       4.14526723e-02, 1.71600915e-02, 1.47621082e-02, -1.55058634e-02,
       -9.38774832e-03, -7.38431292e-04, -6.38151774e-03,
       -4.29944769e-02, -2.64363941e-02, 5.09142950e-02, 6.16222695e-02,
       -1.30045619e-02, -9.61785950e-03, -8.18479061e-03,
       -9.08426382e-03, 2.95362696e-02, -3.22920047e-02, -3.39830369e-02,
       2.15890929e-02, 1.50974942e-02, -4.70174477e-02, 2.07039923e-03,
       -1.45203732e-02, 1.80899817e-02, 2.53001023e-02, 1.21162152e-02,
       -1.70711559e-04, 5.31227104e-02, 1.36654843e-02, -3.39439809e-02,
       -2.88333627e-03, -3.21886055e-02, 2.13344465e-03, 2.09292229e-02,
       1.32913403e-02, -9.63560771e-03, 1.32197374e-02, -2.98704132e-02,
       -7.32921762e-03, 2.50477833e-03, -2.35289074e-02, 6.00513490e-03,
       3.22561674e-02, -1.62644610e-02, -4.09844033e-02, 9.92367044e-03,
       2.07041018e-02, -1.21737029e-02, -1.36499722e-02, -3.39484625e-02,
       -8.64275265e-03, 3.11381798e-02, -2.22278405e-02, -2.46266034e-02,
       2.12244187e-02, -1.17603829e-02, 3.38215493e-02, 2.07191408e-02,
       -2.96316983e-04, 1.06988410e-02, 2.69049555e-02, -5.81878936e-03,
       -2.56226510e-02, 4.14919332e-02, 2.75302306e-02, -3.99766723e-03,
       -1.05848233e-03, 1.82726805e-03, -2.01142263e-02, 2.68069631e-03,
       -1.89415403e-02, -2.85751354e-02, 3.81089672e-02, 2.56764647e-02,
       2.70193666e-02, 2.17909347e-02, -2.70204302e-02, -1.56089999e-02,
       1.22058550e-02, -2.53853630e-02, -1.30174225e-02, -7.60658353e-04,
       1.24321105e-02, 7.89483450e-03, 2.58151954e-03, -2.66639553e-02,
       -3.26176062e-02, 2.23587751e-02, -4.41075265e-02, -1.03382170e-02,
       1.69472233e-03, -1.76528364e-03, -2.20110000e-04, 1.23444693e-02,
       8.87155253e-03, 1.76627431e-02, 1.90708358e-02, 2.79196519e-02,
       -5.25820628e-03, 5.90014681e-02, 5.38864806e-02, 2.64743809e-02,
       2.72471271e-02, -1.22916074e-02, 4.20029014e-02, 2.94119399e-02,
       1.36763779e-02, -3.34620625e-02, 2.96093971e-02, 1.89443212e-02,
       2.99877692e-02, 1.93304121e-02, 6.91376440e-03, -6.42515300e-03,
       2.93693151e-02, 1.67732313e-02, -1.25270821e-02, -9.19659578e-05,
       9.10431705e-03, 4.00992576e-03, -9.99099109e-04, 1.37926359e-03,
       1.66552304e-03, 1.38848871e-02, 2.40847212e-03, -3.43545899e-02,
       8.31425935e-03, -1.00765191e-03, 2.57593915e-02, 3.25609297e-02,
       9.90026281e-04, 7.23028034e-02, 7.36774802e-02, 2.90682763e-02,
       -2.61516050e-02, 4.14261147e-02, -4.96344687e-03, -1.85438264e-02,
       -1.91100519e-02, -2.59903781e-02, 1.85675994e-02, 3.85891199e-02,
       3.64806354e-02, -8.51273444e-03, -8.24498199e-03, -3.33264433e-02,
       2.32889205e-02, 1.05384941e-04, -1.11405617e-02, 3.55502181e-02,
       3.33068594e-02, 8.50004796e-03, -4.55797799e-02, 8.25909199e-04,
       7.11578061e-04, 3.19190032e-04, -2.43247077e-02, -1.69178247e-02,
       1.42105753e-02, 1.67323574e-02, -2.29173210e-02, -2.94754747e-02,
       -9.41223837e-03, 8.49239249e-03, -3.67084369e-02, 2.58472213e-03,
       -1.84805430e-02, 1.21921394e-02, -1.37651926e-02, 2.57058293e-02,
       5.20470552e-03, 4.38344777e-02, 2.87073199e-03, -3.01118568e-02,
       1.07473796e-02, -2.25409772e-02, 2.69674752e-02, 1.40576754e-02,
       4.64089308e-03, 1.16728321e-02, 4.47443053e-02, -8.04193504e-03,
       -1.10643804e-02, -2.37399759e-03, -2.47826185e-02, 8.52601137e-04,
       -2.85097100e-02, 1.60190195e-03, -2.46959180e-02, 6.47015311e-03,
       -5.05607692e-04, -2.93929763e-02, -1.66481698e-03,
       -1.33855203e-02, 1.35046914e-02, -1.96066424e-02, -2.24118400e-03,
       -2.44992599e-02, 1.32685737e-03, -9.90680978e-03, -1.37764437e-03,
       1.65813323e-02, 1.84407663e-02, 5.01600578e-02, 3.26827690e-02,
       7.18397569e-05, -5.92205953e-03, 4.49871868e-02, 2.36614924e-02,
       -1.16947079e-02, -8.40227120e-03, -9.36826784e-03, 4.36556116e-02,
       1.73950829e-02, 2.32665706e-02, -1.36371497e-02, 2.23604124e-02,
       1.25319455e-02, -4.41880561e-02, -1.37844810e-03, -4.82954318e-03,
       1.13454033e-02, 9.96558648e-03, -2.09827963e-02, -3.63975205e-02,
       2.58440450e-02, -2.84875352e-02, -3.78022604e-02, -2.05219314e-02,
       -3.29493880e-02, -1.76657327e-02, -2.99247215e-04, 1.84954647e-02,
       -5.15341163e-02, -2.58687995e-02, -3.13337743e-02,
       -2.11266037e-02, -8.41230899e-03, -1.62119139e-02, 5.68860844e-02,
       2.81963032e-02, 3.62213291e-02, 1.64700579e-02, 2.82766577e-02,
       2.09752209e-02, -3.93294096e-02, -5.25251744e-05, 2.53203604e-03,
       1.98119003e-02, -3.26068811e-02, -2.94563849e-03, 6.44630613e-03,
       3.63129191e-02, 1.46568567e-02, -4.68234852e-04, -4.37955651e-03,
       -3.96895483e-02, 8.91622796e-04, -1.75034534e-02, 3.18142138e-02,
       -6.09295629e-03, -2.10115872e-02, -1.12733291e-02,
       -3.41286995e-02, -1.89733002e-02, -3.25976722e-02,
       -5.03625907e-02, -3.37669328e-02, -3.55689004e-02,
       -1.82788894e-02, -2.31125150e-02, 9.25842760e-05, 2.11222861e-02,
       4.24197763e-02, 3.18742245e-02, 7.03979582e-02, 7.44978562e-02,
       1.67855863e-02, 1.20897545e-02, 4.46072072e-02, 4.92270179e-02,
       -1.31058721e-02, 3.63885574e-02, 3.09226960e-02, 2.63761152e-02,
       1.05033200e-02, 2.36785822e-02, 2.12043189e-02, -6.67476270e-04,
       4.10716888e-03, -2.15333253e-02, 9.95939225e-03, 7.40204751e-03,
       -2.39639822e-02, -1.06103467e-02, -1.34101277e-02,
       -1.60056036e-02, -6.62331376e-03, -2.17407383e-03,
       -2.27747187e-02, -7.03970343e-03, 2.46495684e-03, -1.99282132e-02,
       -7.26570236e-03, -1.16114011e-02, -2.82844547e-02,
       -2.66275629e-02, -3.73640098e-03, 1.11959474e-02, 4.14440148e-02,
       6.98959231e-02, 6.88715801e-02, 1.98256709e-02, 4.39096168e-02,
       4.97327074e-02, 2.15482363e-03, 1.77603215e-02, -1.81130803e-04,
       -3.79717024e-03, 9.63208731e-03, 1.36771342e-02, -1.86920855e-02,
       -2.91086342e-02, 1.62557920e-03, -5.21504283e-02, -1.55893071e-02,
       2.80938521e-02, 1.27020255e-02, 3.43003683e-02, 1.77940272e-03,
       -8.71430989e-03, -7.44373631e-03, 3.77444737e-02, -1.40020577e-02,
       2.50922590e-02, 2.51367483e-02, -7.74884969e-03, 3.53502459e-04,
       -9.45997611e-03, -5.07470407e-02, -4.91866134e-02,
       -1.03612170e-02, -1.92315020e-02, 1.04401093e-02, 3.96203324e-02,
       -2.82332581e-03, 3.85807361e-03, 3.34578846e-03, -4.44060899e-02,
       -8.37368425e-03, 3.90234217e-02, 4.63643577e-03, 2.81323753e-02,
       1.19396076e-02, -5.45212254e-02, 4.25244542e-03, -7.95286056e-03,
       -7.77571043e-03, 4.38464852e-03, -1.12399943e-02, -5.08194342e-02,
       2.70114280e-03, 2.60377657e-02, 2.47221207e-03, 9.26286913e-03,
       3.74308378e-02, -1.42099541e-02, 1.12632653e-02, 2.27267593e-02,
       -1.55817147e-03, 2.24301871e-03, 1.25137595e-02, -2.95901541e-02,
       1.74020287e-02, 1.09572029e-02, 1.84690598e-02, 3.80628817e-02,
       -2.12597777e-03, -4.90348078e-02, 3.71985696e-03, 7.16623804e-03,
       -8.52456689e-03, -1.48701984e-02, 2.44236691e-03, 1.80987734e-02,
       7.65536027e-03, 1.29182534e-02, -2.06083190e-02, 1.12588722e-02,
       9.14617348e-03, 5.94669208e-03, 3.15210503e-03, 2.49588154e-02,
       -1.87145062e-02, 1.37541536e-02, -8.64582136e-03, -3.24933045e-02,
       -2.11467821e-04, 4.44289781e-02, 1.33628622e-02, -2.66363863e-02,
       -6.46868115e-03, 2.62178946e-02, 3.52914371e-02, -5.79630141e-04,
       -8.27735104e-03, 1.59616768e-02, 4.68608104e-02, 1.86100118e-02,
       -1.37259858e-02, 1.13763288e-02, 1.93151683e-02, 1.63568498e-03,
       2.12940690e-03, 5.60657075e-03, 3.46563756e-02, 1.89582668e-02,
       2.33678683e-03, 6.43605692e-03, 9.83829331e-03, 9.62110702e-03,
       1.58179421e-02, 1.73930582e-02, -1.11338580e-02, -2.55822716e-03,
       7.09708035e-03, -5.20287501e-03, -1.73364324e-03, 1.51189407e-02,
       5.32835955e-04, 1.21652456e-02, 9.17929690e-03, -3.98231391e-03,
       1.11939367e-02, 1.65134873e-02, -8.30616802e-03, -1.37310242e-02,
       -1.59289222e-02, 2.95487773e-02, 1.82714071e-02, 2.09027734e-02,
       -1.12235220e-02, 8.08653049e-03, 1.54193782e-03, 3.26787308e-02,
       -2.37449538e-03, 7.39733642e-03, 1.27541181e-02, 2.00912375e-02,
       2.14868374e-02, 4.09442279e-03, 1.48138562e-02, -5.60851349e-03,
       -1.24598276e-02, -2.44906731e-03, 1.91036817e-02, 6.02328591e-03,
       8.27631168e-03, 3.20671755e-03, -5.96993417e-03, 8.75498727e-03,
       -2.76495460e-02, 1.21038239e-02, 1.57524440e-02, -1.22759193e-02,
       8.06208700e-04, -2.21390706e-02, -2.91046798e-02, -1.41385812e-02,
       3.84951616e-03, 1.54056353e-02, 3.26052941e-02, 2.79932432e-02,
       2.02844627e-02, 3.32219526e-02, 7.99510221e-04, 1.74292382e-02,
       8.36741738e-03, 1.77123044e-02, 3.32210399e-02, 1.59430578e-02,
       -5.10721421e-03, -4.87192161e-03, 2.62124073e-02, 1.33901369e-02,
       1.15403477e-02, 3.12166754e-02, 3.90219316e-02, -2.71231607e-02,
       2.59486511e-02, 2.18778364e-02, 1.35123571e-02, -2.04883963e-02,
       4.08266624e-03, 4.61678905e-03, 4.10493137e-03, -6.41780859e-03,
       -1.21990191e-02, 1.36819687e-02, -9.99432988e-03, 4.05512657e-03,
       -2.46867407e-02, -1.50449090e-02, -1.05179055e-02,
       -2.33090427e-02, -3.40882852e-03, 9.85771138e-03, 2.02127993e-02,
       -1.49347982e-03, 1.21937897e-02, -1.06739337e-02, 6.39041606e-03,
       2.19737440e-02, 4.84902374e-02, 3.29994559e-02, 7.41196191e-03,
       2.49778852e-02, -1.43307736e-02, -5.87152876e-03, -4.16868851e-02,
       2.39357076e-04, -1.18692673e-03, 3.21690179e-02, -8.74996651e-04,
       1.66295916e-02, 1.48535555e-03, -1.32070435e-02, 6.42905477e-03,
       -3.00742011e-03, 1.01937521e-02, -5.02211973e-03, 2.64537465e-02,
       5.42473234e-03, 7.27966847e-03, 9.17475391e-03, -1.40417358e-02,
       -1.49163958e-02, 1.84213910e-02, 4.59479215e-03, -2.99753714e-02,
       -1.62599571e-02, -1.32935736e-02, 8.60703085e-03, 6.38377219e-02,
       -1.34976152e-02, -2.17817333e-02, 1.31212054e-02, 2.08237525e-02,
       -2.11917274e-02, 7.11307453e-04, -4.36338149e-02, 2.71551237e-02,
       4.19487469e-02, -1.12540815e-02, -3.31273079e-02, 1.33472597e-02,
       -1.33713400e-02, -3.44038047e-02, -1.50694195e-02,
       -2.00935751e-02, 8.80940445e-03, 1.78144965e-02, -2.19451450e-02,
       6.95698429e-03, 1.55741386e-02, 3.43078673e-02, -4.11113985e-02,
       -2.17635706e-02, 2.52542775e-02, 9.15086269e-03, -4.76814574e-03,
       -2.94409413e-02, -3.53633501e-02, -1.33865913e-02,
       -3.35034006e-03, -3.61251906e-02, 3.17983143e-02, 1.33585585e-02,
       9.18850489e-03, 4.16026190e-02, -9.28667467e-03, 1.07396776e-02,
       1.18062245e-02, 1.26071032e-02, -3.40971574e-02, -2.96861473e-02,
       -2.23131683e-02, 1.28294725e-03, 2.53547635e-02, -2.90496908e-02,
       -3.10987327e-02, -8.83727800e-03, 1.38119366e-02, -1.35449590e-02,
       -4.89657419e-03, -7.59823481e-03, 1.06957257e-02, 3.31837311e-02,
       9.91804805e-03, 7.49550620e-03, 6.24282239e-03, 1.18357893e-02,
       -7.76336808e-03, 2.57870462e-02, 1.43731693e-02, -3.21839266e-02,
       7.58399675e-03, -3.01938914e-02, 4.80571063e-03, 2.91465502e-03,
       -9.10667889e-03, -1.36866448e-02, -8.94750468e-03,
       -3.50310393e-02, 1.35726193e-02, 1.94096621e-02, -1.04789445e-02,
       -1.46501744e-02, 1.85362697e-02, 3.95315774e-02, -3.73143982e-03,
       2.88501102e-02, 7.60495989e-03, -1.53913051e-02, 6.67745247e-03,
       -4.76247296e-02, 1.58958836e-04, 6.49777986e-03, 3.35527817e-04,
       -2.71429922e-02, -1.58737563e-02, -3.96330357e-02, 2.87072286e-02,
       4.25173678e-02, 1.97855234e-02, 3.75777073e-02, 3.36118937e-02,
       4.45719212e-02, 4.11724832e-05, 2.32576691e-02, 2.74333023e-02,
       1.58291217e-02, 3.02694030e-02, 6.10401621e-03, -1.18616258e-03,
       -2.84101907e-02, 5.03169431e-04, -1.61503702e-02, 9.85383336e-03,
       -5.23080397e-03, 1.43559473e-02, 2.05422007e-02, -2.11460441e-02,
       1.13446098e-02, 1.18439458e-02, 4.47846018e-02, -6.63976371e-03,
       4.39699506e-04, -9.59552079e-03, -1.37458555e-04, 3.66390683e-02,
       -1.53562315e-02, -3.30906222e-03, 1.45091640e-03, -2.10028049e-02,
       -2.94039566e-02, -4.50494379e-04, -2.93434653e-02, 2.07508467e-02,
       2.54892167e-02, -5.98491728e-03, 8.92958418e-03, -2.41025705e-02,
       -1.09220832e-03, -9.47565027e-03, 2.81918864e-03, 4.65840846e-03,
       -1.16873309e-02, 2.97486456e-03, -1.83968470e-02, -6.29338482e-03,
       -2.57521495e-02, -1.20744137e-02, -1.28019322e-02,
       -1.24193849e-02, -2.05092393e-02, 1.55066764e-02, 3.72768417e-02,
       -2.01298762e-02, -5.75898588e-03, 1.41255427e-02, 2.59350874e-02,
       4.55455808e-03, -5.81773417e-03, -3.08580082e-02, -1.10795526e-02,
       -1.60838233e-03, -2.78176144e-02, -4.86185262e-03, 9.95383877e-03,
       2.49996223e-02, -1.66664887e-02, -3.23325992e-02, -2.04462167e-02,
       3.79899773e-03, 1.19616231e-02, -2.53813565e-02, 5.48244966e-03,
       -3.21603827e-02, 3.94980088e-02, 5.30878827e-03, 1.32285031e-02,
       2.71293502e-02, -1.81466546e-02, 1.13675361e-02, -1.06149530e-02,
       -7.89903849e-03, -2.02251133e-02, 2.27116253e-02, -1.48835720e-03,
       1.91714223e-02, 1.03916740e-03, 8.21828377e-03, -8.00350867e-03,
       -3.21313515e-02, -1.31865125e-02, -1.97291523e-02, 3.20395865e-02,
       -1.76033340e-02, -6.09348156e-03, -7.82886706e-03, 3.44912848e-03,
       -2.34380737e-03, -1.75588690e-02, -1.38911437e-02, 8.39889864e-04,
       -2.88254698e-03, -2.44523305e-02, 4.68262844e-03, 1.62212329e-03,
       -1.94482990e-02, 2.73060016e-02, 4.12910571e-03, 1.61100365e-02,
       5.41416882e-03, 2.03945264e-02, 2.77869049e-02, 4.75811847e-02,
       1.66761857e-02, 7.26936385e-03, 1.21614216e-02, -1.52284205e-02,
       -1.84763782e-02, -9.09787789e-03, 3.48048098e-02, -8.32233392e-03,
       1.67349502e-02, -3.56780132e-03, -9.66867711e-03, 2.93621863e-03,
       -1.16356388e-02, 1.48413004e-02, -3.69073940e-03, 1.92708187e-02,
       -1.35236671e-02, 1.01487385e-02, 1.59682170e-03, -1.49743157e-02,
       -7.21489592e-03, -2.20918674e-02, 4.55015479e-03, -2.46767923e-02,
       1.17542632e-02, -4.16326113e-02, -2.60212719e-02, -2.41841692e-02,
       1.37599809e-02, 1.21828923e-02, -2.16474216e-02, -1.11825066e-03,
       -5.17338561e-03, 3.78014930e-02, -4.88689309e-03, 1.40109751e-02,
       3.73887224e-03, -1.86794885e-02, -2.88891215e-02, -4.03377041e-02,
       -9.97319724e-03, 1.25649413e-02, -1.32579415e-03, -2.19311547e-02,
       -1.05284043e-02, -7.26701971e-03, 2.50716577e-03, 1.95564758e-02,
       -3.71423215e-02, 7.09470455e-03, 2.11477391e-02, 1.88205577e-02,
       -2.72303373e-02, -2.32105330e-02, -3.48441303e-02,
       -3.42315473e-02, -1.35415057e-05, -8.55174959e-02, 6.83929480e-04,
       5.27029345e-03, -1.77024473e-02, -4.40747254e-02, -1.52464453e-02,
       -3.87355313e-02, -2.83044484e-03, 1.00611718e-02, 2.63085663e-02,
       2.18425691e-02, 1.96146220e-02, 2.49150954e-02, 9.32058226e-03,
       1.80733968e-02, 3.69076617e-02, -1.22700920e-02, 8.79462250e-03,
       2.32351571e-02, -6.40737917e-03, -1.55131212e-02, 1.45251509e-02,
       -8.23206501e-04, 3.66536365e-03, 9.81193129e-03, -2.28852569e-03,
       1.47074912e-04, -3.74623165e-02, 8.27763323e-03, 1.04893101e-02,
       3.27014104e-02, 1.19862435e-02, 1.60931703e-02, 2.50279991e-04,
       -2.50012446e-02, 1.78184658e-02, -1.43923610e-02, -1.40141044e-02,
       8.98996659e-04, -4.66029719e-03, -1.31620327e-02, 3.88701074e-03,
       -1.45558389e-02, 2.63032578e-02, 1.58916023e-02, -2.02517468e-03,
       -3.79947526e-03, 1.28127849e-02, -6.97094714e-04, 2.90779211e-02,
       1.64099075e-02, 6.96044369e-03, 4.47118189e-03, 1.10622891e-03,
       -1.14137325e-02, 1.89678967e-02, -2.03213858e-05, -1.71767268e-02,
       6.68638479e-03, -1.11181419e-02, -1.01876557e-02, -1.19188707e-02,
       3.81811038e-02, -1.81563720e-02, -3.18955667e-02, 3.04199327e-02,
       2.35484522e-02, 3.36736478e-02, 2.88363285e-02, -7.84761924e-03,
       -8.81096348e-03, -8.66474304e-03, -2.79155057e-02, 1.42294206e-02,
       2.09818445e-02, 1.45173781e-02, 1.16115073e-02, -1.63980518e-02,
       -2.57550068e-02, -3.42228403e-03, -1.22109074e-02,
       -2.02279408e-02, 5.49032502e-02, 2.31619133e-03, -7.82395247e-03,
       -5.33178402e-03, -1.63749661e-02, -9.84910131e-03, 7.70393340e-03,
       -3.70960236e-02, -6.66862354e-04, 1.09001677e-02, -1.53640648e-02,
       1.24432927e-03, 1.64717459e-03, -1.64517183e-02, 2.78950464e-02,
       1.56854689e-02, -1.09584760e-02, -2.49641631e-02, 1.51192751e-02,
       -1.00955404e-02, 4.58905241e-03, -4.01226543e-02, -3.75997238e-02,
       7.25225126e-03, 8.47378001e-03, 1.60901598e-03, -8.22428335e-03,
       -4.46807779e-02, -2.70972289e-02, -9.46499780e-03,
       -2.62635443e-02, -1.62820816e-02, 2.92643253e-02, -1.20905399e+00 ]
