%YAML:1.0
---
my_detector: !!opencv-object-detector-hog
   winSize: [ 64, 128 ]
   blockSize: [ 16, 16 ]
   blockStride: [ 8, 8 ]
   cellSize: [ 8, 8 ]
   nbins: 9
   derivAperture: 1
   winSigma: 4.
   histogramNormType: 0
   L2HysThreshold: 2.0000000000000001e-01
   gammaCorrection: 1
   nlevels: 64
   signedGradient: 0
   SVMDetector: [ -3.46975896e-04, -4.98086773e-02, -2.98032984e-02,
       4.28371131e-03, 1.77321360e-02, 4.84525179e-03, 1.70581006e-02,
       7.06867175e-03, 3.12789902e-02, 2.56189518e-02, -4.27641347e-03,
       -2.53548387e-06, -1.02405029e-03, -1.59113749e-03, 1.28478231e-02,
       2.07877345e-02, 5.29301120e-03, 2.14212597e-03, 1.51938968e-03,
       -3.21636908e-02, 7.42871838e-04, 8.72632209e-03, 5.54651674e-03,
       -3.43391381e-04, -3.46860364e-02, -4.18156385e-02, 3.75545211e-03,
       2.74343658e-02, 1.06510492e-02, 2.21250835e-03, 3.98901850e-02,
       -3.38244326e-02, 1.09240375e-02, -6.82835374e-03, -5.68810059e-03,
       -3.45782861e-02, -2.24940828e-03, -2.26921141e-02, 9.54665430e-03,
       3.91945010e-03, 3.94125208e-02, 7.92413112e-03, -1.65780890e-03,
       -4.83236392e-04, 1.07675698e-02, -1.35421669e-02, -1.72546245e-02,
       1.75778251e-02, 3.31569533e-03, 1.23417238e-02, 2.30526570e-02,
       3.90639994e-03, 4.08606492e-02, 1.13524506e-02, 9.20240209e-03,
       3.33015952e-04, 2.04936322e-02, 2.76871528e-02, -1.95931662e-02,
       2.30649812e-03, -3.92433023e-03, 1.46290259e-02, -2.10898276e-02,
       -4.06141346e-03, -9.87046678e-03, -2.07611453e-02,
       -8.12411401e-03, -6.25341374e-04, 1.15885306e-02, -1.98055077e-02,
       1.28065143e-03, -3.59293516e-03, 1.94349084e-02, 9.69718769e-03,
       1.29969325e-03, -1.24404784e-02, 1.66576747e-02, 4.62796427e-02,
       1.12757888e-02, 1.46279046e-02, -8.81247316e-03, 2.86726039e-02,
       3.68631743e-02, 1.94591600e-02, -6.45555416e-03, 3.79380165e-03,
       2.18461510e-02, 1.33252079e-02, -4.52765636e-03, 4.20439150e-03,
       1.24180969e-02, 1.84624996e-02, -1.24933636e-02, -5.23343566e-04,
       5.89159038e-03, 1.04819434e-02, -1.67704020e-02, -8.44250782e-04,
       4.39074618e-04, 1.70832500e-02, 1.21151665e-02, -4.02990216e-03,
       -6.18774584e-03, -1.88251343e-02, 1.92632666e-03, 1.58174001e-02,
       1.75670311e-02, -1.23186149e-02, 1.11933285e-02, 3.16120014e-02,
       1.28229745e-02, -9.34293587e-03, -4.39945172e-04, -1.52350366e-02,
       2.16320142e-04, -2.63857488e-02, -8.42824485e-03, -2.82559693e-02,
       -4.26536286e-03, -6.97154785e-03, -1.32024484e-02,
       -5.71617577e-03, -8.39308742e-03, 7.95873348e-03, 9.15952958e-03,
       -1.05059138e-02, -1.39542238e-03, 1.29088713e-02, 6.61500357e-03,
       8.55613593e-03, -3.02450303e-02, -1.53214810e-02, -7.93728605e-03,
       2.01316215e-02, -2.72802431e-02, -2.33386513e-02, -5.79262665e-03,
       -1.15080522e-02, -1.34505797e-02, -1.67095736e-02,
       -2.24323664e-02, -1.83709953e-02, 1.21968873e-02, -2.27376837e-02,
       -1.18830865e-02, 1.52475452e-02, -2.68476978e-02, -1.59499347e-02,
       2.60606166e-02, -3.05884983e-04, 1.20606003e-02, 9.31542832e-03,
       -1.19360955e-02, 7.73869455e-03, -2.68409238e-03, -4.84825075e-02,
       -1.38589395e-02, 4.96758707e-03, -3.90452379e-03, -2.29708645e-02,
       5.24968188e-03, -6.23850804e-03, -1.98359024e-02, 4.04170714e-02,
       -4.45270073e-03, 5.28409961e-04, 1.72894914e-02, 1.71157811e-02,
       1.49044804e-02, 3.80643643e-02, 1.38650965e-02, -4.98527065e-02,
       -7.27484562e-03, -2.25379746e-02, 2.52416037e-04, 9.24151763e-03,
       2.04717834e-02, 1.56493988e-02, 5.54053299e-03, -3.62697314e-03,
       1.44526333e-04, -3.08395606e-02, -3.10031064e-02, 7.39633851e-03,
       1.40632344e-02, -1.82787776e-02, -2.53922716e-02, 2.11823564e-02,
       1.78755876e-02, -7.16776680e-03, -1.97780952e-02, -1.18069788e-02,
       7.10965972e-03, 3.44535057e-03, -4.30893563e-02, -2.18008272e-02,
       1.41923213e-02, 1.95821468e-03, 1.46542946e-02, 9.47312801e-05,
       -1.08480845e-02, 4.13198695e-02, 1.48303816e-02, 1.60066988e-02,
       -1.78560466e-02, 4.02331054e-02, 1.09645221e-02, -2.90520862e-02,
       -4.07412648e-03, -3.54687939e-03, 2.48270691e-03, -3.27308453e-03,
       -1.13332439e-02, -7.72590283e-03, 3.27767767e-02, 1.13183828e-02,
       1.36229973e-02, -2.95423530e-03, -9.16468538e-03, 2.56862249e-02,
       1.70954783e-02, -1.45031437e-02, -2.25431100e-02, 1.14131048e-02,
       1.78566650e-02, -1.94815919e-02, -2.16906182e-02, -3.99212316e-02,
       -5.20927878e-03, 3.00512160e-03, -2.63224132e-02, -3.42369266e-02,
       4.30447161e-02, 9.32668243e-03, -6.12908509e-03, 6.80599036e-03,
       2.34974287e-02, 5.36267571e-02, 1.27966059e-02, 1.54919615e-02,
       -1.25189573e-02, 3.12208124e-02, 9.50619671e-03, -3.57814580e-02,
       -9.18503851e-03, -4.20231326e-03, -1.12411976e-02, 1.92737281e-02,
       -2.20304951e-02, -4.91069555e-02, 4.77627059e-03, -9.73541196e-03,
       -4.17350512e-03, 1.95405483e-02, 2.01359042e-04, 2.07916126e-02,
       7.61043467e-03, -3.48766078e-03, -1.55224353e-02, 4.59865443e-02,
       3.22620315e-03, -2.43783984e-02, 5.46925515e-03, -1.33869308e-03,
       -1.83817260e-02, -2.46382896e-02, -1.12756584e-02,
       -4.10810597e-02, 4.84279776e-03, -4.35439236e-02, 1.17015233e-02,
       3.84730808e-02, 2.90654339e-02, 3.53815630e-02, 2.44971756e-02,
       -3.54083371e-03, -2.08734702e-02, 2.53918357e-02, 1.34806009e-02,
       -3.28726275e-03, 4.46260767e-03, -1.23073719e-02, -1.32630076e-02,
       -1.04371067e-02, 7.34205125e-03, -1.24993571e-03, 1.19279334e-02,
       -1.40312463e-02, -1.49860885e-02, -6.10688236e-04, 1.78844389e-02,
       -1.42627172e-02, 5.67719433e-03, -6.07038941e-03, -3.81310023e-02,
       -6.19265530e-03, -1.41540626e-02, -1.70802884e-02, 1.77076180e-02,
       9.41722374e-03, -1.96184963e-03, 1.69838127e-02, -1.14780823e-02,
       -4.93709929e-02, -1.55635374e-02, -3.02482545e-02, 5.17725572e-03,
       -7.75321200e-03, -1.68850515e-02, -1.31785301e-02,
       -2.33953893e-02, 1.91230103e-02, 2.42897719e-02, 1.26047162e-02,
       1.72972642e-02, -1.06664188e-02, 2.31523486e-03, -1.84094533e-02,
       -9.67399683e-03, -1.37027977e-02, -2.18717847e-03,
       -9.09665227e-03, 9.24000703e-03, -6.26584375e-03, 1.45980902e-02,
       4.13698889e-02, 4.31295112e-03, -9.93483700e-03, -1.20938420e-02,
       1.01475026e-02, -2.24816501e-02, -2.39905920e-02, 3.06554157e-02,
       -1.45722530e-03, 2.10692128e-03, -3.06548905e-02, -1.67172365e-02,
       -4.39262763e-03, 1.44260544e-02, -2.28588153e-02, -4.63647135e-02,
       9.47037525e-03, 2.67974827e-02, 2.00254638e-02, 2.91761011e-04,
       -2.56969291e-03, -1.82194840e-02, 3.83769115e-03, -5.15533797e-03,
       2.02671643e-02, 4.75707650e-03, -2.59999372e-02, 1.39759211e-02,
       -2.07803492e-02, -3.10452213e-03, -2.29620133e-02, 1.77057907e-02,
       -1.57140251e-02, -1.01369154e-02, -1.48363393e-02,
       -3.01954243e-03, 7.64225749e-03, -8.82199220e-03, 3.73560786e-02,
       2.72617154e-02, 2.33959919e-03, -1.44293699e-02, -6.99741533e-03,
       4.46831388e-03, -1.73163116e-02, 6.14372548e-03, -4.91710566e-03,
       9.94475186e-03, 1.68677536e-03, -1.87811423e-02, -4.40184884e-02,
       -5.46958251e-03, -5.09173563e-03, 7.74160307e-03, 2.17682272e-02,
       1.88252684e-02, 5.33983223e-02, 1.15941381e-02, 2.54009627e-02,
       2.44667716e-02, 2.37546097e-02, 1.40886838e-02, 1.45375840e-02,
       2.96342988e-02, 3.47052068e-02, 3.10591664e-02, 6.47006929e-03,
       8.58079176e-03, -4.14876686e-03, 1.94135995e-03, 1.44470669e-02,
       -4.98336460e-03, -6.37442851e-03, -7.08384532e-03,
       -1.15687931e-02, -2.44778711e-02, 1.45288697e-02, -3.18483710e-02,
       6.05935277e-03, -3.46778263e-03, -2.32824907e-02, -7.21068727e-03,
       -1.67990178e-02, -1.98448431e-02, -2.30779517e-02,
       -7.48153264e-03, -4.20955122e-02, 1.67084187e-02, -4.08232072e-03,
       2.71990448e-02, 1.63849574e-02, 1.62389893e-02, 1.85001101e-02,
       7.43243285e-03, 8.44697282e-03, -5.43550029e-03, 1.79982185e-02,
       3.02018318e-02, -1.22663658e-02, -1.74995288e-02, -8.12020095e-04,
       -2.44219732e-02, -1.25892228e-02, 1.38583938e-02, -1.11047328e-02,
       -1.29330242e-02, -1.06131900e-02, -1.17146773e-02, 7.90037401e-03,
       2.07073707e-02, 2.65897289e-02, -1.28056630e-02, -3.13436687e-02,
       -4.19111475e-02, -5.00772009e-03, 1.73898470e-02, -4.74919379e-03,
       -1.70077849e-02, 7.12696509e-03, -1.17373113e-02, -2.28141602e-02,
       -2.60990225e-02, -7.17105716e-03, 2.82308669e-03, 8.94619618e-04,
       1.22516695e-03, -1.09594129e-02, 2.61640530e-02, 5.18224984e-02,
       2.35317703e-02, 7.85332918e-03, 2.14213077e-02, 2.57694051e-02,
       2.72142142e-03, -4.22835117e-03, 1.03009376e-03, 4.12293002e-02,
       3.83242257e-02, 4.78043640e-03, 6.60668220e-03, 1.56317949e-02,
       9.56090726e-03, -5.86676272e-03, -3.15721234e-04, 8.90071155e-04,
       3.20914797e-02, 2.17842255e-02, 1.21494457e-02, 1.55534772e-02,
       1.44089516e-02, 2.23873109e-02, 2.15090234e-02, -1.16452174e-02,
       -1.49393054e-02, 1.58390664e-02, -1.40393199e-02, 1.30946999e-02,
       1.24579109e-02, -1.08559569e-02, -3.54963318e-02, 2.05047578e-02,
       -4.95168334e-03, 8.66963621e-03, 3.00337095e-02, 1.94966346e-02,
       1.39480196e-02, 5.66679277e-02, 5.26037067e-03, -5.78122586e-03,
       1.37614878e-02, -2.54984833e-02, -1.97626036e-02, 3.62060741e-02,
       -9.76658426e-04, 1.11177200e-02, 2.21958919e-03, -1.98859181e-02,
       -2.04402637e-02, 2.79651210e-02, 8.47939681e-03, -2.67483806e-03,
       -1.51769640e-02, -2.84980307e-03, -1.76470783e-02, 5.00147939e-02,
       1.13965236e-02, -1.24485577e-02, 2.53875908e-02, 1.62294712e-02,
       -3.44535448e-02, 7.17678014e-03, 2.05080174e-02, 1.31900620e-03,
       4.29381896e-03, 3.18548200e-03, -2.84654070e-02, 8.08491558e-03,
       2.48534000e-03, -6.83142990e-03, 3.10463067e-02, 3.41415741e-02,
       2.89580021e-02, 5.16461469e-02, -7.17421668e-03, -1.95427351e-02,
       2.94142421e-02, 8.12697690e-03, -5.71890958e-02, -1.08660199e-03,
       -1.67669617e-02, -5.90339187e-05, 4.25253920e-02, 1.60000194e-02,
       -4.13213037e-02, 1.75768267e-02, 3.87485251e-02, -1.90268364e-02,
       4.45756176e-03, 1.96952373e-02, 3.10577732e-02, 1.22407312e-02,
       -9.33540426e-03, -1.76012386e-02, 3.60255465e-02, 4.59325500e-02,
       9.41032730e-03, 3.46783735e-03, 1.58314649e-02, -1.21367229e-02,
       5.96699398e-03, 1.22081600e-02, 1.89848654e-02, 1.32082710e-02,
       -1.80535782e-02, -5.18412106e-02, -1.29269687e-02, 1.66832209e-02,
       7.57476920e-03, -1.67616631e-03, -6.13397313e-03, 1.24183763e-03,
       2.49886364e-02, 2.61029042e-02, -1.63949896e-02, 1.33949742e-02,
       -1.36971027e-02, -5.31666307e-03, 8.67380388e-03, 2.46378710e-03,
       1.54720247e-02, 3.30481641e-02, 2.31924951e-02, -1.69030726e-02,
       -1.18646845e-02, -2.48747077e-02, -7.02668307e-03,
       -1.12795085e-02, -1.66569855e-02, 3.37857869e-03, -7.11384416e-03,
       2.67509688e-02, -1.43690165e-02, -1.74342468e-02, -2.19478514e-02,
       -1.79182254e-02, 2.41921385e-04, -3.60578415e-03, -1.46739064e-02,
       3.80693525e-02, 3.02005224e-02, -5.81114925e-03, 7.25315558e-03,
       -2.61712708e-02, 1.64811257e-02, 5.29347220e-03, -1.02333939e-02,
       -3.04581132e-02, 7.55789923e-03, 1.69646461e-02, -2.82937940e-02,
       1.42618734e-02, 1.77439433e-02, -2.53391247e-02, 3.23876669e-03,
       -3.60889430e-03, -6.42433204e-03, 2.10876465e-02, 1.59900961e-03,
       2.20418675e-03, -1.57463423e-03, -2.09374446e-02, 1.12391990e-02,
       -1.39339678e-02, -2.36820932e-02, -2.72335913e-02, 8.09155032e-03,
       3.09028430e-03, 1.08155729e-02, -1.56641416e-02, 2.11644545e-03,
       2.06266847e-02, 1.31352956e-03, 2.82405205e-02, 4.68209460e-02,
       1.02365119e-02, 1.38936909e-02, -3.59086618e-02, -1.60616431e-02,
       1.17224054e-02, 2.66950577e-02, 6.43231720e-03, -2.42369678e-02,
       1.32212611e-02, 2.40530502e-02, -3.75436544e-02, -3.99814248e-02,
       -2.30364893e-02, 5.60746295e-03, 2.50707474e-03, 6.49417657e-03,
       2.59033288e-03, 3.36927809e-02, -3.06032784e-03, -2.07619574e-02,
       1.64113659e-02, -2.09208438e-03, -2.11028401e-02, 1.67218801e-02,
       -2.88111507e-03, 5.74193522e-03, 3.65014300e-02, -2.73813847e-02,
       1.05703045e-02, 2.64695380e-02, -1.35033661e-02, -2.48557106e-02,
       1.84295941e-02, -8.57445970e-03, -3.53585929e-02, -2.95472313e-02,
       9.10201576e-04, -4.17371280e-03, 4.83123101e-02, 6.38971478e-02,
       2.60595512e-02, -9.46571399e-03, -1.32227466e-02, 2.84485221e-02,
       3.40614952e-02, -1.16748670e-02, -2.43137814e-02, 4.79653813e-02,
       1.45824964e-03, -2.75732726e-02, -8.61085858e-03, -1.68487150e-02,
       -6.98529111e-05, -3.70966159e-02, -2.48438679e-02, 2.45074686e-02,
       6.02300838e-02, -2.31385678e-02, -3.42565365e-02, 1.95025839e-02,
       -1.61077117e-03, -2.13230047e-02, -1.19539676e-02,
       -4.00921097e-03, 2.04436798e-02, 3.69286165e-02, -3.62989902e-02,
       -3.80319804e-02, 2.81353295e-02, -6.12683175e-03, -1.53114796e-02,
       -5.73553937e-03, -1.13812033e-02, 4.42335755e-02, 1.04673021e-01,
       -2.14294847e-02, -3.16194743e-02, 7.26194959e-03, -6.68098102e-04,
       9.70758125e-03, 6.31714193e-03, -1.40094589e-02, 1.07578961e-02,
       4.34607714e-02, -6.57088980e-02, -3.73350047e-02, 2.24569552e-02,
       -2.12596264e-02, 1.65161695e-02, 3.49798240e-03, -2.58454345e-02,
       3.46694961e-02, 3.31626125e-02, -1.50129711e-02, -9.99643281e-03,
       2.41489988e-02, 4.75419592e-03, 2.50428659e-03, 1.34276878e-02,
       1.34892063e-02, 1.11814197e-02, -9.42779146e-03, -3.39234807e-02,
       1.40439561e-02, 1.01320576e-02, -7.51415687e-03, -2.73876116e-02,
       2.40738560e-02, 5.38075296e-03, 7.30633317e-03, 2.62672007e-02,
       -2.30670460e-02, -1.71302725e-02, 1.00694876e-02, 2.50976756e-02,
       1.69492755e-02, 1.96524467e-02, -1.58354864e-02, 5.06751938e-03,
       -1.78189157e-03, -2.31387280e-02, -2.31263204e-03, 1.62511691e-02,
       1.45103522e-02, -1.85872223e-02, -5.14370902e-03, -3.89620364e-02,
       1.67428385e-02, 1.45435296e-02, -1.28386207e-02, 2.19900571e-02,
       2.78037935e-02, -8.50421004e-03, -1.74937230e-02, 4.54792269e-02,
       4.88819070e-02, -9.79060493e-03, -6.10374287e-03, -1.47158755e-02,
       -1.22579122e-02, 1.93133224e-02, -4.90472764e-02, -2.90982109e-02,
       3.10523119e-02, 2.13542897e-02, 2.38651503e-02, 5.75413741e-02,
       -3.10671758e-02, 1.73747074e-02, 2.04506889e-02, -5.86172426e-03,
       -2.00215075e-03, 1.89340916e-02, 1.90521888e-02, 2.64150798e-02,
       2.42310558e-02, -3.72644998e-02, -2.10828707e-02, 5.34030842e-03,
       -2.88941544e-02, 1.48238987e-02, 5.71455155e-03, -1.02513693e-02,
       1.05261561e-02, -1.35541079e-03, 1.51654948e-02, 2.33630259e-02,
       -9.06241685e-03, -2.40863990e-02, -1.57828890e-02,
       -4.65211272e-03, 1.06192604e-02, -4.89225553e-04, -9.22502298e-03,
       -1.37556465e-02, 2.01693550e-02, 2.55162008e-02, -2.74093589e-03,
       -3.60399857e-03, 2.14224891e-03, 3.54806450e-03, 5.43825626e-02,
       5.61274998e-02, 1.74012072e-02, 1.82250142e-02, 1.32086249e-02,
       6.19143061e-03, 2.18694620e-02, 9.58545785e-03, -4.63204505e-03,
       2.35497132e-02, 3.63632701e-02, -2.08130050e-02, 1.27476277e-02,
       2.54001711e-02, 3.32633667e-02, 7.40653719e-04, 1.15005551e-02,
       1.98985450e-02, -7.22420076e-03, 1.20310439e-02, -3.68594974e-02,
       6.36346033e-03, 1.92024466e-02, 1.23515921e-02, -1.52531872e-02,
       -1.73498653e-02, -2.00093240e-02, 1.22191599e-02, 1.83125753e-02,
       -4.67901379e-02, -5.24757057e-03, 2.06939522e-02, -1.97770316e-02,
       -2.29704343e-02, -2.10157018e-02, -3.77507024e-02, 3.59845464e-04,
       3.12443879e-02, -2.76549831e-02, 3.71497013e-02, 7.09377602e-02,
       8.84875581e-02, 1.82966013e-02, 3.82914394e-02, 1.43012591e-02,
       -1.11371409e-02, 1.13695245e-02, -4.20017019e-02, 1.36422394e-02,
       3.78973521e-02, -2.19136942e-03, -3.33632864e-02, 3.33937746e-03,
       -3.21050510e-02, 1.37246987e-02, 1.54033406e-02, -4.02715355e-02,
       2.38829968e-03, 9.81336646e-03, -9.11121350e-03, -1.22406287e-02,
       3.91381513e-03, -1.93438120e-02, -2.03680415e-02, 1.65912341e-02,
       -2.61196606e-02, -1.71938986e-02, -1.35041047e-02, 3.27318301e-03,
       -1.86977275e-02, 1.05360858e-02, -2.16149297e-02, 1.02341194e-02,
       3.18410136e-02, -4.29316014e-02, 3.09360959e-02, 3.74511890e-02,
       1.23252645e-02, -2.02040561e-02, -1.80411246e-02, -3.64790894e-02,
       2.00424064e-03, 3.19063254e-02, -1.64835192e-02, 3.98063892e-03,
       1.20572085e-02, 4.03858200e-02, -4.43769731e-02, -2.06113923e-02,
       -1.78904030e-02, -3.07225194e-02, 1.12046367e-02, -3.54853980e-02,
       -2.43676268e-02, -2.53623612e-02, 9.11698397e-03, 4.87637194e-03,
       1.89587101e-02, -1.52672017e-02, -2.58534551e-02, -1.37155894e-02,
       -2.20365338e-02, 6.74178312e-03, -4.30039652e-02, -5.58005832e-03,
       -3.03195119e-02, -2.13705655e-03, -1.30122304e-02, 1.45007102e-02,
       1.68907028e-02, -9.87872854e-03, 7.28727924e-03, 3.01643834e-02,
       4.65333834e-02, -8.19924753e-04, 3.03953923e-02, -8.98247678e-03,
       -2.72649108e-03, -2.41919144e-04, -1.85830854e-02, 1.84010807e-02,
       2.05374975e-02, 5.00406362e-02, 8.01129732e-03, 6.02401141e-03,
       -1.92570221e-02, 1.88694766e-03, -6.19247742e-03, -1.70074664e-02,
       3.74651252e-04, -1.25793843e-02, 2.69144366e-04, -4.88146879e-02,
       -9.76676121e-03, 2.07955819e-02, -1.53991897e-02, -4.22301656e-03,
       -9.04472638e-03, -2.57166419e-02, -4.11086269e-02,
       -3.74867059e-02, -2.15363633e-02, -1.85079183e-02,
       -4.45577018e-02, 1.04447724e-02, -5.54227550e-03, -1.54620754e-02,
       3.00879497e-02, 5.29572405e-02, 3.16952541e-02, -3.78437936e-02,
       1.80749148e-02, 2.53800210e-03, -4.93343081e-03, 1.35670137e-02,
       1.36778085e-02, 2.10148953e-02, 3.08810826e-02, 1.44633083e-02,
       1.55551359e-02, -4.05068789e-03, -7.22625991e-03, -3.19016017e-02,
       -9.41732898e-03, 1.12308208e-02, 1.10951159e-02, 9.81189660e-04,
       -2.57961284e-02, 2.88529228e-03, 1.88394859e-02, -2.21781917e-02,
       -1.27724856e-02, -1.94599070e-02, -9.93856881e-03,
       -1.86052267e-02, -3.96187045e-02, -5.99781461e-02,
       -1.24960048e-02, 1.76705304e-03, -9.89522226e-03, -1.03719085e-02,
       2.93569490e-02, 2.23222673e-02, 3.57258283e-02, 5.42843267e-02,
       2.08614618e-02, 1.92185473e-02, 2.09946875e-02, -4.73039318e-03,
       2.75748614e-02, 5.44514544e-02, 2.46994365e-02, 1.37002328e-02,
       6.85198326e-03, 8.28370545e-03, 2.59282738e-02, 6.28086254e-02,
       -2.43496429e-03, 9.21731815e-03, -1.26143219e-02, 1.19774891e-02,
       -1.74134728e-02, -1.04260910e-02, 2.34250184e-02, 3.42567861e-02,
       6.56511681e-03, 1.18031362e-02, 6.07310329e-03, -1.44139305e-02,
       1.20310122e-02, -3.56506966e-02, -2.10186671e-02, -3.36739384e-02,
       -7.84133188e-03, 2.44051171e-03, 3.47868800e-02, 2.66054440e-02,
       2.62472611e-02, 2.13108528e-02, 4.17625606e-02, 2.87910644e-02,
       6.46140724e-02, 5.30865490e-02, 6.35807961e-02, 1.12320678e-02,
       -2.86877695e-02, -4.60386910e-02, -2.31309049e-03,
       -2.45983098e-02, -1.82121643e-03, 3.32411975e-02, 7.41689559e-03,
       1.46527786e-03, -5.55062527e-03, 1.11799743e-02, -1.63129461e-03,
       2.15180106e-02, -5.06173447e-03, -1.42498687e-02, 1.37046380e-02,
       6.56663161e-03, 7.10132206e-03, 3.22762989e-02, -1.03444769e-03,
       -3.38500589e-02, -4.14650608e-03, -2.13487569e-04,
       -1.66302081e-02, 9.43001639e-03, 5.56664728e-03, -2.66195852e-02,
       9.15131252e-03, 2.38695759e-02, -2.33899103e-03, 1.65113118e-02,
       8.70548654e-04, -3.08927745e-02, 3.36061940e-02, 9.16261412e-03,
       1.83998421e-02, 3.12683508e-02, 2.56190300e-02, -7.98866432e-03,
       1.51774073e-02, 2.75063422e-02, -8.44807271e-03, 2.23783143e-02,
       7.78918713e-03, -4.55548503e-02, -6.29237015e-03, -4.19783704e-02,
       -4.35631834e-02, -1.41359388e-03, 3.24074477e-02, 3.13004702e-02,
       2.91371485e-03, -5.32201398e-03, -1.73210651e-02, 3.38411803e-04,
       -2.08095228e-03, -1.77425761e-02, 2.10187770e-02, 9.67522990e-03,
       1.26978699e-02, 8.66340660e-03, -1.40269082e-02, 3.52118118e-03,
       4.31619771e-02, 9.86892730e-04, -2.23747399e-02, -2.39809118e-02,
       1.22741722e-02, 4.75274120e-03, -3.34307528e-03, -1.78277474e-02,
       -2.24366561e-02, 2.54494417e-02, 1.11113582e-02, -2.60341577e-02,
       -2.03027669e-03, 6.64443849e-03, -3.72644104e-02, 3.44330147e-02,
       -2.55640820e-02, -1.34428851e-02, 4.54676040e-02, -3.45905237e-02,
       -3.48961763e-02, 9.11173318e-03, -2.21482199e-02, 7.27546215e-03,
       -4.94934171e-02, -4.37469780e-02, -5.01749329e-02,
       -5.67835243e-03, 1.42514892e-02, 2.85040941e-02, 3.59846093e-02,
       2.22936068e-02, 2.21545678e-02, -2.73886323e-02, -2.17580665e-02,
       -3.80630307e-02, -8.16363655e-03, -3.09912283e-02,
       -1.06087315e-03, 1.04377910e-01, 7.81144649e-02, 2.63790116e-02,
       3.64480820e-03, -3.31971161e-02, -5.01528792e-02, -2.14962550e-02,
       4.91960905e-02, 1.01651110e-01, 1.07900694e-01, 6.30319118e-02,
       3.31792608e-03, -1.22098029e-02, -1.37517683e-03, -2.41612010e-02,
       -2.83759483e-03, 4.67746966e-02, -1.53633934e-02, -3.61049324e-02,
       -2.04267837e-02, 1.06036598e-02, -2.54064444e-02, -1.27325924e-02,
       2.08679400e-02, 4.64887507e-02, -8.34609102e-03, -4.30539101e-02,
       2.11611036e-02, 2.36612316e-02, -7.20710866e-03, -2.43233517e-02,
       -1.56388301e-02, 5.09604402e-02, 2.43358910e-02, 7.04403445e-02,
       3.23693156e-02, -3.64491269e-02, -2.43210364e-02, -4.56612930e-03,
       -1.68701503e-02, 1.75838824e-02, 8.37159604e-02, 8.79654661e-02,
       -3.27022467e-03, -1.40073197e-02, 1.09091522e-02, 2.97762379e-02,
       5.10497298e-03, 1.93270706e-02, 5.84798194e-02, 9.35180783e-02,
       5.00215180e-02, -2.38590743e-02, 7.87243471e-02, 1.59320995e-01,
       1.01727322e-01, -4.93214279e-03, -2.63714492e-02, -2.63812281e-02,
       4.84743714e-03, -3.32227163e-02, -2.11517271e-02, 7.15718791e-02,
       5.41646443e-02, 6.53856387e-03, -2.26142798e-02, -5.48365153e-02,
       -5.84303364e-02, -5.06077185e-02, -8.55654106e-02,
       -3.90262417e-02, 6.84961006e-02, 1.40946060e-01, 8.41396376e-02,
       1.38573386e-02, 2.05863491e-02, 2.17698123e-02, 3.03648878e-02,
       -1.21751092e-02, -4.14071605e-02, 5.41838817e-03, 6.72800094e-02,
       4.57051647e-05, -1.55852446e-02, -2.52468251e-02, -2.56085489e-02,
       -2.91132331e-02, -8.63299221e-02, 6.60449937e-02, 1.07607841e-01,
       2.16807686e-02, 1.03539936e-02, 2.46882718e-02, -1.19990045e-02,
       5.92540856e-03, 7.98422284e-03, 9.66438034e-04, 2.22724341e-02,
       4.44544740e-02, -4.21828777e-02, -1.38720190e-02, 1.30311977e-02,
       -2.08085962e-02, 2.09976751e-02, 6.71975547e-03, -7.28111117e-05,
       9.14815068e-03, -4.53944178e-03, -2.93461066e-02, -4.56706807e-02,
       3.25268577e-03, 1.11739114e-02, 1.78330094e-02, 1.47661185e-02,
       -1.77764725e-02, -3.07545122e-02, -5.61221354e-02,
       -7.33868703e-02, -5.12016863e-02, -3.34759871e-03,
       -3.65141220e-02, -1.58023406e-02, -1.98603328e-03,
       -3.93173611e-03, 4.08908315e-02, 5.22332117e-02, -3.02594211e-02,
       4.57646651e-03, -4.99227457e-03, -1.69054419e-03, 1.36953341e-02,
       1.81442592e-02, 2.81953700e-02, 1.98557805e-02, 6.32579550e-02,
       1.26388501e-02, 3.21028195e-02, -6.87807892e-03, 9.52874962e-03,
       -8.14438518e-03, 2.58364789e-02, -1.95599124e-02, -5.37090423e-03,
       2.20862366e-02, -3.41231227e-02, -7.73272989e-03, -4.18186327e-03,
       -3.72098237e-02, -1.57323051e-02, 3.20830494e-02, -2.10590810e-02,
       -2.94485455e-03, 1.82366818e-02, -1.23150880e-02, -2.29648184e-02,
       -4.25052010e-02, -1.56278629e-02, -5.34188701e-03, 3.30096367e-03,
       -4.59046476e-02, 8.79108254e-03, 7.36590326e-02, -1.80660305e-03,
       2.00685747e-02, -1.93889886e-02, 2.32366323e-02, -9.70003835e-04,
       2.99738310e-02, 3.07847522e-02, 4.45841923e-02, 6.63228706e-02,
       -1.76740754e-02, -4.09834795e-02, -1.69159081e-02,
       -2.75568757e-03, 1.49110416e-02, 4.40231599e-02, 2.98347026e-02,
       -2.12955419e-02, 2.64814161e-02, -1.83905140e-02, -2.17145570e-02,
       -3.73329297e-02, 4.45232121e-03, -8.45145714e-03, -9.44520719e-03,
       -4.62610535e-02, 5.90656046e-03, 1.64911430e-02, -3.85603495e-02,
       -7.08194822e-02, -1.03443628e-02, 1.51248742e-02, -2.28944700e-02,
       2.35564932e-02, -1.05513493e-02, 6.22408465e-02, 7.18179643e-02,
       1.91502701e-02, -1.25732170e-02, -8.20406992e-03, 1.59964412e-02,
       -4.46774391e-03, 2.00369339e-02, 4.35607582e-02, 4.98928241e-02,
       3.16148810e-02, -1.96465943e-02, -1.91895720e-02, -2.62751593e-03,
       3.21762636e-02, -6.95515703e-03, 2.68554930e-02, 7.61442855e-02,
       4.08871360e-02, 2.13527828e-02, -1.90956797e-02, -2.09953282e-02,
       -1.29018687e-02, 3.03954799e-02, -2.05886960e-02, 2.68617589e-02,
       -9.85448342e-03, -6.54210011e-03, -2.22150013e-02,
       -9.89910122e-03, -3.44086140e-02, 1.53236724e-02, -3.35995574e-03,
       -2.95267925e-02, 4.04840684e-04, 1.30824919e-03, 3.14603671e-02,
       1.75732598e-02, -1.89675875e-02, -1.08703030e-02, 1.76718477e-02,
       2.70114951e-02, 9.49527835e-04, 6.61992803e-02, 9.38164070e-02,
       1.58588421e-02, -7.51653919e-04, -4.86386828e-02, -3.59096192e-02,
       -4.37144097e-03, -1.59623083e-02, -1.34457769e-02, 5.09732366e-02,
       2.77569443e-02, -1.47066722e-02, -8.72325385e-04, -4.38230708e-02,
       -3.59069519e-02, -1.76988449e-02, -1.48316147e-02,
       -1.17876418e-02, 3.70877050e-02, 3.61950621e-02, -3.29067628e-03,
       5.45616541e-03, -5.12221046e-02, -4.00887579e-02, -2.03971053e-03,
       -1.04745720e-02, -5.64518757e-02, 4.76253033e-02, 2.70982850e-02,
       3.60333137e-02, 1.60368849e-02, -4.36573513e-02, -1.66565925e-02,
       -8.01200047e-03, -2.28785314e-02, -2.78343242e-02, 5.35939937e-04,
       1.27086695e-02, 3.06150559e-02, 2.85012666e-02, -1.73679087e-02,
       -4.03523147e-02, -3.58100352e-03, -2.86352728e-02,
       -6.53412566e-02, -2.19124882e-03, 1.03675378e-02, 2.53824014e-02,
       1.06599424e-02, -4.91549373e-02, -3.00329626e-02, -7.08362041e-03,
       -2.01070011e-02, -2.73162834e-02, 4.88800555e-02, 2.83758547e-02,
       2.45300774e-02, 3.01729906e-02, -2.39410102e-02, -4.73506078e-02,
       -1.65553689e-02, -3.18257138e-02, -3.41940373e-02, 2.72314977e-02,
       1.37633886e-02, 1.27009992e-02, 7.68229738e-03, -3.59265581e-02,
       -3.77700366e-02, -5.33750094e-03, -5.65703027e-03,
       -3.79220881e-02, 6.67392835e-03, -3.05934846e-02, 6.02245214e-04,
       1.63709112e-02, -4.02949750e-02, 4.36628656e-03, 3.23576806e-03,
       1.34668569e-03, -3.34075391e-02, -9.94786341e-03, -2.42027752e-02,
       3.94057250e-03, 6.70083836e-02, -4.72748559e-03, -2.84217466e-02,
       -1.03916042e-02, -4.27955342e-03, 3.67741995e-05, 2.05256734e-02,
       -2.85321828e-02, 6.40595099e-03, 3.00953444e-02, -2.48449519e-02,
       -1.37780653e-02, -4.12085414e-04, 6.90824538e-03, -5.95004717e-03,
       1.72815821e-03, 1.97431352e-02, -3.39381844e-02, -3.03693227e-02,
       -3.08060218e-02, -4.25776793e-03, -5.64593170e-03,
       -3.03684566e-02, -8.43223780e-02, -2.55047511e-02,
       -1.58103332e-02, 3.41958529e-03, -1.42157786e-02, -3.05871945e-02,
       -2.46233325e-02, -1.94788575e-02, -4.10770029e-02,
       -4.23426889e-02, -1.92916878e-02, -1.74375379e-03,
       -1.20582171e-02, -3.77482502e-04, -5.69452271e-02,
       -4.49162461e-02, -3.61902714e-02, -1.09875044e-02,
       -5.36387712e-02, 9.49735101e-03, 3.31238098e-02, 2.27818117e-02,
       2.63859406e-02, -2.52988674e-02, -1.08379498e-02, -1.52186789e-02,
       -2.42780671e-02, -8.08545109e-03, 3.21988761e-02, 4.20477241e-02,
       4.85571800e-03, 3.86485122e-02, 8.94580409e-03, -3.11550521e-03,
       6.06491184e-03, -1.74138434e-02, -5.81739563e-03, -6.45109778e-03,
       -1.44212078e-02, -1.74856037e-02, 3.52772721e-03, -1.28140468e-02,
       -4.02393416e-02, -2.72025429e-02, -5.89438342e-02,
       -1.57097448e-02, 7.93011580e-03, -3.94105315e-02, 6.44001812e-02,
       8.94443020e-02, 5.43179363e-02, 4.25518863e-02, 2.02476401e-02,
       6.30937330e-03, 1.31329466e-02, 4.36912328e-02, 3.12144123e-02,
       3.03833690e-02, 4.40771393e-02, 4.99821939e-02, 3.09366593e-03,
       -6.77070720e-03, 6.58667088e-03, -6.07664464e-03, 2.08337400e-02,
       4.15732898e-03, -5.39773609e-03, -1.92763489e-02, -1.20618809e-02,
       3.23169082e-02, 7.34932274e-02, 6.78514093e-02, 4.96047921e-02,
       5.41135706e-02, 2.84754811e-03, -3.70555036e-02, -5.79889454e-02,
       -4.31158803e-02, -7.05273002e-02, -3.17473635e-02,
       -3.05789970e-02, -3.55753936e-02, -3.47017162e-02,
       -4.36409973e-02, 3.74861509e-02, 4.13560458e-02, 2.81347539e-02,
       5.01363240e-02, 9.63584110e-02, 1.16823770e-01, 3.13791223e-02,
       4.66833450e-02, 2.32635029e-02, -6.19328208e-03, -2.40286142e-02,
       -4.56143357e-02, -4.95801084e-02, 3.89416586e-03, 2.02154424e-02,
       -1.74071118e-02, -2.92158369e-02, -5.56705892e-03, 2.58656708e-03,
       7.35959457e-03, 1.89718306e-02, 2.77412701e-02, -1.23737724e-02,
       1.50463954e-02, -5.71592106e-03, -9.43806116e-03, -9.18183569e-03,
       -1.42405285e-02, -3.16248350e-02, 6.58950023e-03, 8.82609456e-04,
       -2.04202682e-02, 3.69565226e-02, 2.69968286e-02, -4.21560630e-02,
       -3.07683721e-02, 6.45818980e-03, -5.45301940e-04, 1.17240911e-02,
       1.99750438e-02, -4.04630713e-02, 2.51674503e-02, 3.04557718e-02,
       -4.79159690e-03, 1.86322499e-02, -1.61482044e-03, -6.19795620e-02,
       -1.48565397e-02, -1.24943042e-02, -1.02439374e-02, 3.79582271e-02,
       1.58557333e-02, -2.07798947e-02, -2.05911677e-02, 4.56912480e-02,
       -3.21298353e-02, -4.87354361e-02, -2.98929270e-02,
       -5.55922510e-03, -1.68404263e-02, -4.66347076e-02,
       -3.91294695e-02, 3.82715836e-02, 3.65685225e-02, -2.85093542e-02,
       -3.70746329e-02, 7.97214080e-03, -9.96404886e-03, 1.01677049e-02,
       -1.93818752e-02, -2.12922804e-02, 5.84584512e-02, 6.39601573e-02,
       -2.17516162e-02, -3.38175483e-02, -2.03340799e-02,
       -1.15079125e-02, -2.81941760e-02, -2.93847527e-02,
       -5.31059243e-02, 6.69486821e-02, 3.60333212e-02, -1.25708058e-02,
       -2.28461325e-02, 1.12470072e-02, -9.14917979e-03, 2.03767363e-02,
       -5.50958933e-03, -3.05301528e-02, 4.25009429e-02, -6.33146986e-02,
       -4.44567651e-02, 5.99015504e-02, 5.78541458e-02, 3.57469805e-02,
       3.47235836e-02, 2.12131552e-02, -1.83297265e-02, -2.04494894e-02,
       -1.51996156e-02, 5.14097624e-02, 8.57303664e-02, 6.53847381e-02,
       2.11148933e-02, 2.84936428e-02, 2.64740679e-02, 3.80075374e-03,
       -6.01004250e-02, -5.62695675e-02, -2.51493007e-02, 2.49996018e-02,
       3.98768447e-02, 5.76425046e-02, 6.89779967e-02, 6.81175664e-02,
       -2.50650905e-02, -3.99356484e-02, -4.16799821e-02,
       -1.62756315e-03, 4.44753189e-03, 7.09579652e-03, 7.61383073e-03,
       5.31298630e-02, 6.77867010e-02, 5.56110404e-02, -3.52236629e-02,
       5.09355552e-02, 2.33967789e-02, -1.50229102e-02, 4.20566276e-03,
       6.78019505e-03, -1.96830053e-02, -8.59172363e-03, 4.08855043e-02,
       3.34623978e-02, -1.23649510e-02, 1.11142138e-03, 7.42427306e-03,
       4.19213157e-03, 1.51014933e-03, -1.38777914e-02, 9.14474204e-03,
       4.65296023e-02, 1.64035913e-02, 4.00253758e-02, 5.61974980e-02,
       2.75413768e-04, -2.02274490e-02, -1.68646649e-02, -9.99618322e-04,
       4.78401873e-03, 5.04080690e-02, 4.24853712e-02, 2.66498458e-02,
       6.07322678e-02, 4.10835035e-02, -1.03784669e-02, -1.97422616e-02,
       6.49587205e-03, 3.47447977e-03, -1.15966666e-02, 1.34442113e-02,
       -4.63957079e-02, 2.81249564e-02, 6.79492429e-02, 7.10940734e-02,
       1.63399354e-02, 5.92498630e-02, 4.01001014e-02, 4.13923971e-02,
       -2.42819954e-02, -6.41041696e-02, -2.49963272e-02, 4.29254433e-04,
       -7.84808025e-03, 5.24834218e-03, 8.39021523e-03, 4.02598688e-03,
       -1.38628082e-02, -6.52815551e-02, -2.94695813e-02, 4.85763699e-02,
       7.98093230e-02, 4.09659930e-02, -3.18826251e-02, 5.00009581e-02,
       4.88106683e-02, 2.03968212e-02, -4.59419303e-02, -5.82383797e-02,
       -2.35119052e-02, 2.72513907e-02, -1.17004290e-02, -3.36465728e-03,
       -3.18801925e-02, -3.91877256e-02, -4.12121303e-02,
       -7.79278502e-02, 1.25040126e-03, 1.11294370e-02, 1.02676656e-02,
       1.91127521e-03, -1.19099272e-02, 3.31895910e-02, 3.26838158e-02,
       2.38321014e-02, -2.10065022e-02, -3.43657024e-02, -4.91701849e-02,
       -6.88960999e-02, -6.93377554e-02, -3.84454280e-02,
       -2.22110543e-02, -4.77426825e-03, 2.46457406e-03, -3.26267001e-03,
       -2.41703726e-02, 2.79964097e-02, 2.86075342e-02, 1.21859796e-02,
       -4.39964607e-02, -5.30118542e-03, -3.59590235e-03, 1.19953202e-02,
       -3.37477438e-02, -3.22090276e-02, -2.84648109e-02,
       -2.57489476e-02, -3.48877832e-02, -3.30270045e-02,
       -4.67072800e-02, -3.43098342e-02, -4.78173159e-02,
       -3.88040133e-02, -1.22271525e-02, -2.42833444e-03,
       -2.79111098e-02, -1.72256231e-02, -3.39956060e-02, 6.59041340e-03,
       2.71784030e-02, 5.87167293e-02, 6.25099801e-03, -5.04040755e-02,
       7.94132892e-03, 1.63183815e-03, -2.28535365e-02, -5.61658181e-02,
       -1.32960314e-02, 3.80766578e-02, 4.19646502e-02, -5.97806908e-02,
       -1.46000739e-02, -6.96186488e-03, -1.60185080e-02,
       -1.85947865e-02, -2.95906439e-02, 8.69316328e-03, 9.74017568e-03,
       1.14272740e-02, -3.05345878e-02, -5.65297529e-02, 1.56073943e-02,
       1.49253877e-02, -3.28588486e-02, -7.93506578e-02, -2.93295979e-02,
       1.43351667e-02, 4.94921720e-03, -5.65075949e-02, -4.43984680e-02,
       3.88282421e-03, -5.05531020e-03, 1.15076248e-02, 3.08761199e-04,
       1.88221913e-02, 7.34216487e-03, -1.57615971e-02, -4.98269908e-02,
       -5.59785515e-02, -1.70330815e-02, -2.52502202e-03, 1.01181259e-02,
       5.23916297e-02, 4.17873301e-02, 1.42414952e-02, -9.12781805e-03,
       -4.86686528e-02, -5.77430502e-02, -1.37860849e-02, 1.00001870e-02,
       2.15964336e-02, -1.92036815e-02, -1.97370648e-02, -1.59181673e-02,
       -1.79336574e-02, -6.02148287e-02, -5.43664880e-02,
       -8.15964676e-03, -1.00287320e-02, 2.35978197e-02, 2.20040213e-02,
       -1.17819142e-02, -2.00507548e-02, -3.80921960e-02,
       -6.65193796e-02, -2.56651957e-02, -9.80186928e-03, 9.69613064e-03,
       3.34240347e-02, 3.06026302e-02, 4.68061268e-02, 1.60724148e-02,
       2.85343323e-02, -2.21629981e-02, -2.24303883e-02, -3.23130786e-02,
       -6.84120180e-03, 3.24971639e-02, 3.61480340e-02, -5.18142106e-03,
       -9.35233664e-03, 1.33323921e-02, -3.93328220e-02, -4.53904457e-02,
       2.39469390e-02, 8.05668440e-03, 5.15678525e-02, 1.81834865e-02,
       1.19844051e-02, 9.72413551e-03, -6.77692099e-03, -4.38478738e-02,
       -4.23498899e-02, 2.04521716e-02, 2.79178470e-02, 3.44852731e-02,
       4.20384035e-02, 1.10312141e-02, 1.31424062e-03, -3.94999869e-02,
       -2.84547787e-02, 5.19578997e-03, 1.78824943e-02, -1.09825311e-02,
       -5.01549756e-03, 2.67795883e-02, -8.52569565e-03, -4.01993282e-02,
       3.15331214e-04, 1.77056473e-02, 2.57938169e-02, 6.56648800e-02,
       -2.67616734e-02, -8.60770233e-03, 2.90610362e-02, -1.84881911e-02,
       -6.47850558e-02, 2.29270440e-02, 2.02429537e-02, -1.52229052e-02,
       2.33321004e-02, -2.90938523e-02, 8.10138788e-03, 1.84664782e-02,
       -1.22626349e-02, -2.68536415e-02, 5.72289992e-03, -3.82440388e-02,
       8.46764818e-03, 2.41614114e-02, -4.22062986e-02, -4.32255156e-02,
       7.67885195e-03, -6.44484907e-03, -2.86901686e-02, 2.37245318e-02,
       2.02513617e-02, 9.49743204e-03, 4.21428941e-02, -2.52897702e-02,
       -8.71995836e-03, 1.68035757e-02, -1.93445683e-02, -3.43911275e-02,
       3.15324478e-02, 2.01498326e-02, -3.06370873e-02, 4.68261801e-02,
       1.17386058e-02, -3.00487094e-02, -5.94663620e-03, -1.42680164e-02,
       1.57514699e-02, 4.99016903e-02, 1.61935817e-02, 4.07853257e-03,
       1.52421417e-02, -3.20015065e-02, -2.46352516e-02, 9.85498820e-03,
       -2.55085733e-02, -3.88381295e-02, 3.81894335e-02, 3.99676636e-02,
       -1.49011295e-02, 1.71076600e-02, -1.23003619e-02, -1.82883870e-02,
       -1.66842304e-02, -2.78932899e-02, 1.60878897e-02, 5.33554032e-02,
       1.62560195e-02, -2.70730183e-02, 4.63131778e-02, 4.94108419e-04,
       -1.90279279e-02, 1.72252692e-02, -1.31126982e-03, -9.24822816e-04,
       2.00780947e-02, -3.30372266e-02, -1.26231648e-02, 2.26672739e-02,
       -4.07308340e-02, -2.31509097e-02, -1.65378768e-02,
       -1.29013881e-02, -2.83643026e-02, -1.47524718e-02,
       -3.87710612e-03, -2.17750464e-02, 2.50500012e-02, 3.25068180e-03,
       4.37781820e-03, 3.09425853e-02, -2.60211285e-02, -1.76860746e-02,
       4.99236956e-02, 8.14621709e-03, -1.68154761e-02, -2.43796920e-03,
       -3.11491992e-02, 5.93942869e-03, -1.30655784e-02, -5.23072891e-02,
       -6.81188554e-02, 1.27072772e-02, -8.71472247e-03, 2.29082629e-03,
       6.99882722e-03, -3.32559831e-02, -2.55602170e-02, 1.79358583e-03,
       -7.99536891e-03, -5.10442145e-02, -5.98136596e-02, 2.09782720e-02,
       2.46558692e-02, 1.70972068e-02, -2.07682010e-02, -2.37780679e-02,
       -2.88382638e-02, -3.20159644e-02, -2.91614216e-02,
       -2.39572711e-02, 7.26220803e-03, 3.95248784e-03, -2.46862452e-02,
       -6.72260672e-02, -1.72319766e-02, -2.26065470e-03,
       -3.48496661e-02, -7.06363693e-02, -3.01237125e-02,
       -1.98816024e-02, 2.26722732e-02, -1.48433121e-02, -2.82271989e-02,
       -3.46887410e-02, -2.14550775e-02, -4.42861915e-02,
       -6.70927688e-02, 2.61149369e-03, -3.70464101e-02, 2.64920276e-02,
       3.28828767e-02, 1.07018286e-02, 2.28456426e-02, 1.71632078e-02,
       2.08253786e-02, -1.16879297e-02, -1.72280031e-03, 1.52829858e-02,
       -9.15331114e-03, 1.85141321e-02, 5.28445141e-03, -3.35104913e-02,
       9.96827520e-03, 2.42895936e-03, -4.53052903e-03, 1.50567228e-02,
       1.98504608e-02, 1.26875248e-02, 1.29648913e-02, -5.60622057e-03,
       -1.22459419e-02, 1.83419809e-02, 4.60837893e-02, 1.93887502e-02,
       4.01140451e-02, -1.35504687e-02, 4.61580558e-03, -3.30265844e-04,
       -1.61733609e-02, -3.08741331e-02, -4.78106271e-03,
       -9.13480390e-03, 6.37807511e-03, 3.41008045e-02, 1.13896048e-02,
       1.10260509e-02, 3.18978019e-02, 1.13971755e-02, 4.42554429e-02,
       1.01516575e-01, 8.25858414e-02, 7.10652967e-04, 1.09482510e-02,
       1.32926172e-02, -8.03498924e-03, -2.73589715e-02, -4.44181114e-02,
       -2.01421361e-02, 6.35578763e-03, -1.34138400e-02, -2.84710247e-02,
       -3.92426290e-02, -1.30377356e-02, 3.30755785e-02, 1.33007159e-02,
       2.10242327e-02, 7.20305294e-02, 8.90130028e-02, 3.44949625e-02,
       -7.15241442e-03, 3.54790352e-02, 3.33207473e-02, -2.75890660e-02,
       -5.31392917e-02, -2.79879812e-02, 4.86604357e-03, 4.10294645e-02,
       -3.77803184e-02, -5.95301986e-02, -5.67815341e-02,
       -3.20873521e-02, 3.52544077e-02, -1.61745381e-02, 5.59194339e-03,
       3.95759344e-02, -2.80804187e-02, 3.81066538e-02, 2.60290522e-02,
       -2.71823611e-02, 3.71907465e-02, 4.98831645e-02, -3.67213264e-02,
       -2.72691287e-02, 1.44890428e-03, -3.41521166e-02, 2.19163373e-02,
       -2.94071902e-02, -3.07339132e-02, 2.02508718e-02, 1.83938835e-02,
       -1.84866469e-02, 2.93479115e-02, 5.63430339e-02, 2.20925501e-03,
       5.05754575e-02, 2.20924728e-02, -2.21647844e-02, 1.47192171e-02,
       1.50641371e-02, -3.00106648e-02, -5.92520181e-03, 6.08198252e-03,
       -2.40608156e-02, -3.06466653e-04, -2.10865494e-02,
       -1.37540577e-02, 2.70805657e-02, 4.90926839e-02, -3.78411151e-02,
       -3.81206051e-02, -2.50186380e-02, 2.68645515e-03, 9.70729720e-03,
       6.87324861e-03, -3.25318463e-02, 9.96133871e-03, 2.53843088e-02,
       -2.17559300e-02, -2.78488323e-02, 1.90164300e-03, -3.72817032e-02,
       1.44675067e-02, -2.04996839e-02, -5.00515737e-02, 2.50928773e-04,
       -4.52277949e-03, -4.37466614e-02, -1.89962853e-02, 5.60070667e-03,
       9.21474188e-04, 4.18812782e-02, 6.09053532e-03, -2.75536105e-02,
       -1.96372587e-02, 2.23282911e-02, -2.13046744e-02, -2.60710288e-02,
       1.69938914e-02, -3.16352956e-02, 1.82714816e-02, 1.08837420e-02,
       -2.27173157e-02, 2.81396396e-02, -3.02269906e-02, -3.50612849e-02,
       -1.44733703e-02, -1.29137645e-02, 3.82817201e-02, 7.42985457e-02,
       5.51761538e-02, -1.90858692e-02, -3.84122133e-02, 1.43556586e-02,
       2.67090113e-03, 1.95606500e-02, -1.67173818e-02, 4.95854765e-03,
       7.00668469e-02, 9.04323235e-02, 7.51734227e-02, 3.26553546e-02,
       -2.26474609e-02, -3.52337174e-02, -2.99271084e-02,
       -2.32282821e-02, 2.27741916e-02, -2.45285034e-02, -5.46172354e-03,
       -3.52292806e-02, -1.94521528e-02, -1.77756380e-02,
       -2.00173799e-02, -1.25155440e-02, -1.24145057e-02,
       -4.85360762e-03, 3.03671211e-02, 3.51609737e-02, 2.40045991e-02,
       5.03760390e-03, 7.13056773e-02, 5.92319593e-02, 5.76170161e-03,
       -3.94998454e-02, -1.21762976e-02, -2.08210200e-03,
       -9.00661014e-03, 2.07757633e-02, 6.58933297e-02, 6.22455627e-02,
       8.26929361e-02, 3.42710502e-02, -1.83967017e-02, -1.00766029e-02,
       3.60810384e-02, 1.47262085e-02, -2.75211148e-02, 3.65688186e-03,
       2.81819459e-02, -4.45118814e-04, -9.41624492e-03, -1.00725656e-02,
       -1.51380629e-03, -1.28815379e-02, -1.93525199e-02,
       -1.08790090e-02, 2.57055927e-02, 1.76482201e-02, 2.44458858e-02,
       1.32524567e-02, -1.30838519e-02, -3.99683509e-03, 1.85301423e-03,
       -1.86009873e-02, -6.24287389e-02, -2.93473080e-02,
       -3.62779573e-02, 1.25816073e-02, -5.77145303e-03, -1.65174194e-02,
       -2.21078936e-02, 8.72446150e-02, 1.21696867e-01, 7.00756758e-02,
       -3.05569079e-02, -5.81522845e-02, -2.77990177e-02,
       -3.21165286e-02, -4.78348248e-02, -4.91545089e-02,
       -5.88529091e-03, 4.26943637e-02, 2.33283173e-02, -2.54954044e-02,
       -3.59447636e-02, 8.55346117e-03, -1.12436870e-02, -3.78665030e-02,
       -1.00183850e-02, 8.08385313e-02, 1.25343084e-01, 9.24562663e-02,
       -9.33157746e-03, -6.23134449e-02, -3.03865410e-02,
       -5.24869338e-02, -6.55078888e-02, -2.29722429e-02,
       -8.89532361e-03, 3.35661434e-02, 7.74423331e-02, 1.04517303e-02,
       -1.82806496e-02, 2.76842322e-02, 1.53561225e-02, 2.73697986e-03,
       -3.73987369e-02, -5.05449548e-02, -3.25730853e-02, 2.30890643e-02,
       8.65387823e-03, 1.97296534e-02, 6.70613721e-04, 3.41364997e-03,
       -9.38249286e-03, -1.29992487e-02, -5.84582686e-02,
       -6.17379844e-02, -1.79146733e-02, -2.41862126e-02,
       -1.71774700e-02, 2.36207601e-02, 1.26809506e-02, -9.15018842e-03,
       4.93524503e-03, 2.19641882e-03, 3.55786048e-02, 1.15626790e-01,
       5.27061187e-02, -1.96509324e-02, -1.66524842e-03, 1.15126548e-02,
       -2.55544558e-02, 9.33231041e-03, -3.66908088e-02, -3.62049341e-02,
       3.48330140e-02, 1.87001973e-02, 1.39366370e-02, -4.01628623e-03,
       -4.39485768e-03, -1.28552308e-02, -1.36607606e-02,
       -1.42956907e-02, -3.40170898e-02, 1.77483372e-02, 9.86842089e-04,
       -4.20870557e-02, -7.02677698e-06, -7.68424128e-04,
       -6.12161448e-03, -3.17242593e-02, -2.52494067e-02,
       -1.94740426e-02, 3.13915568e-03, 4.17321076e-04, 4.35091835e-03,
       1.80456962e-03, -7.12114107e-03, -1.19132129e-03, 3.47660016e-03,
       -2.75422167e-03, 3.90213332e-03, 7.42083490e-02, 3.85542698e-02,
       -3.25066922e-03, 3.31809707e-02, 1.89926140e-02, 2.18102802e-02,
       -2.63328999e-02, -1.81645956e-02, 5.73185878e-03, 8.56917724e-02,
       2.88213212e-02, -1.64737925e-02, 9.96730872e-04, -2.96825822e-03,
       8.79167765e-03, -2.35833712e-02, -1.67613626e-02, -1.45381885e-02,
       1.53464209e-02, 9.51371156e-03, -4.80175298e-03, -1.78759173e-03,
       -3.58637013e-02, -2.25859247e-02, -5.59556670e-02,
       -5.56956902e-02, -2.90826764e-02, 8.45530443e-03, -1.64173003e-02,
       3.58500183e-02, 3.01876776e-02, 1.30285230e-02, 2.04005055e-02,
       -1.09493444e-02, -3.18829995e-03, 1.49770305e-02, 1.13236502e-01,
       3.14811617e-02, 2.65050307e-02, 2.87681948e-02, 1.82983875e-02,
       -8.49200226e-03, -1.84162799e-02, -4.62451242e-02,
       -2.53658611e-02, 7.73378983e-02, 4.21154387e-02, -3.91360596e-02,
       2.31318325e-02, -1.67466812e-02, 4.48714150e-03, -4.70385514e-02,
       -2.31001992e-02, -4.28959960e-03, 1.66814644e-02, 1.00895930e-02,
       -2.25707199e-02, 1.96462553e-02, -2.13011727e-02, -3.46507248e-03,
       -9.45078023e-03, -2.79204808e-02, -2.36564465e-02,
       -2.16707233e-02, -3.73403020e-02, 2.12625880e-02, 1.77314151e-02,
       6.48726942e-03, 2.33088490e-02, -4.18990059e-03, -5.82528720e-03,
       6.31016726e-03, 4.23013791e-02, 5.04004993e-02, 3.68592851e-02,
       4.79184315e-02, -8.35490320e-03, 3.15538747e-03, 1.79761499e-02,
       -1.75387471e-03, -8.18591099e-03, 2.46689264e-02, 4.87708636e-02,
       1.39669878e-02, 3.08225192e-02, -3.09437029e-02, -6.55228086e-03,
       -1.67910978e-02, -3.34573351e-02, -4.68725413e-02,
       -1.08696427e-03, -3.81829515e-02, 3.00818682e-02, 1.03544826e-02,
       -7.01302886e-02, -1.87090375e-02, -7.95361307e-03,
       -1.52559234e-02, -4.60501835e-02, -1.58060975e-02, 3.13351140e-03,
       8.13897774e-02, 7.17263743e-02, -1.61543686e-03, 2.51612309e-02,
       2.81928387e-02, -1.58730093e-02, -3.78922671e-02, 1.61310453e-02,
       2.71865968e-02, 3.91960070e-02, 4.72136028e-02, -6.08166773e-03,
       1.33269485e-02, -3.17204627e-03, -1.57918558e-02, -3.75796631e-02,
       2.05729879e-03, 1.59038212e-02, 3.36780362e-02, 1.05701489e-02,
       -5.46618253e-02, -2.92335320e-02, -9.87070054e-03,
       -1.83003396e-02, -4.98090014e-02, 9.14667919e-03, 4.11931574e-02,
       1.23313796e-02, -7.26261316e-03, -5.78345358e-02, -2.96756253e-02,
       -2.73377802e-02, -4.21024933e-02, -2.50434689e-02, 4.35584337e-02,
       2.48103272e-02, 2.93756016e-02, 1.89099424e-02, -2.03981921e-02,
       4.26865416e-03, -1.18117519e-02, -1.40654147e-02, -3.74065153e-02,
       2.13974249e-02, 5.82186505e-03, 3.73067777e-03, -1.94121916e-02,
       -6.03222698e-02, -2.44992059e-02, -1.24051878e-02,
       -3.11349276e-02, -4.48332205e-02, 9.88513790e-03, -6.46813959e-03,
       -9.76353232e-03, 6.70403847e-03, -1.14136301e-02, 1.08012185e-02,
       -5.70570305e-03, -2.15298776e-02, -3.84408273e-02, 6.58918396e-02,
       7.49379164e-04, 3.26278666e-03, -1.12131564e-02, -2.29233224e-02,
       6.70805341e-03, -6.22027507e-03, -1.38700437e-02, -3.34829912e-02,
       2.98803337e-02, 9.09013860e-03, -1.93308275e-02, -2.10207943e-02,
       -3.35480049e-02, 2.06491482e-02, -1.00901518e-02, -2.00611241e-02,
       -5.87832332e-02, 9.29668453e-03, -3.28813456e-02, -3.14166062e-02,
       -3.69277000e-02, -3.52737084e-02, 1.84833240e-02, -5.69580402e-03,
       9.63574555e-03, -3.59770581e-02, 1.15264347e-02, -2.11502723e-02,
       2.77946126e-02, 3.15757990e-02, -4.74019833e-02, -2.18346547e-02,
       6.88457862e-04, -1.43456394e-02, -5.60752898e-02, -1.25630852e-02,
       -5.80055173e-03, 5.59750684e-02, 3.37083302e-02, -3.06548029e-02,
       -1.55890705e-02, -1.81424059e-02, -3.03248223e-02,
       -6.39372095e-02, 3.26821916e-02, -9.40633938e-03, -4.93902825e-02,
       -3.76895666e-02, -5.56589663e-02, -2.08227374e-02,
       -1.85271818e-02, -7.38838967e-03, -3.06134764e-02,
       -2.40173744e-04, -3.95222791e-02, -3.74180786e-02,
       -3.12487781e-02, -4.95120659e-02, -2.21408643e-02,
       -4.01858874e-02, -4.10986096e-02, -5.20519391e-02,
       -1.71291619e-03, -2.61755213e-02, 1.47987688e-02, 3.20512466e-02,
       1.84768867e-02, -1.35807535e-02, 1.45149967e-02, 3.08842547e-02,
       4.58737612e-02, 6.40151128e-02, 2.94078887e-02, -1.16048602e-03,
       3.25702131e-02, 3.87744932e-03, -2.71625035e-02, -2.38361154e-02,
       9.05439164e-03, 4.75178100e-02, 3.69616449e-02, 2.35648211e-02,
       -6.15317747e-03, -1.10549096e-03, -2.54656095e-02,
       -1.09115355e-02, -1.30286142e-02, -2.91500054e-03,
       -2.13065487e-03, 3.43476534e-02, 3.64638516e-04, -4.54220325e-02,
       -1.04988758e-02, -1.52317276e-02, -3.82552557e-02,
       -2.93203717e-04, -5.42674921e-02, -1.37800649e-02,
       -1.93783431e-03, -2.74299979e-02, 2.88507156e-02, 5.10210060e-02,
       6.84307367e-02, 8.88448730e-02, 6.52013868e-02, 4.58388105e-02,
       2.33764034e-02, 3.62468548e-02, 4.73597534e-02, -2.14886628e-02,
       -3.25374827e-02, -8.52198899e-03, 5.16212024e-02, 4.09004092e-02,
       -2.75463462e-02, -4.96112779e-02, -5.07429838e-02,
       -2.78672278e-02, 1.36221675e-02, 4.22236212e-02, 7.43094012e-02,
       7.69639760e-02, 4.40918580e-02, 1.79754961e-02, 2.78581288e-02,
       3.69701674e-03, 7.05908344e-04, -4.01185788e-02, -3.12048942e-02,
       -1.78775052e-03, 2.28041057e-02, 4.85078013e-03, -5.59767298e-02,
       -4.83049452e-02, -6.21785000e-02, -4.68550287e-02, 2.80395560e-02,
       -6.95534749e-03, 2.29207110e-02, 2.62526833e-02, 2.58534476e-02,
       8.69638473e-03, 1.59552488e-02, -1.93720516e-02, 9.44678904e-04,
       2.62697209e-02, -7.55020138e-03, 2.11541057e-02, 9.28729679e-03,
       -1.95517335e-02, 1.17308078e-02, -1.52420504e-02, -4.99005243e-02,
       -2.07046815e-03, 2.22097849e-04, 3.19355028e-03, 4.89736944e-02,
       2.93214694e-02, 2.04306096e-02, 3.05326339e-02, 4.19327170e-02,
       2.88185626e-02, 3.24505195e-03, -1.14545701e-02, -2.07121465e-02,
       2.70948280e-02, -4.46125679e-03, -5.37589006e-02, 1.33152967e-02,
       1.56077938e-02, -3.35649140e-02, -2.73524281e-02, 1.51262954e-02,
       -2.54988801e-02, -3.83017138e-02, 9.46432911e-03, 1.63607893e-03,
       2.02254448e-02, -1.13228345e-02, -2.24987976e-02, -9.85919149e-04,
       1.93996225e-02, -2.09861454e-02, 4.98234713e-03, 3.51405442e-02,
       3.18405568e-03, -1.50152098e-03, 2.26704758e-02, -1.31546920e-02,
       1.86435357e-02, -3.74262640e-03, -2.63109542e-02, -5.17805330e-02,
       1.94870401e-02, 3.26052941e-02, 4.29461896e-02, 4.38181311e-03,
       -2.15937831e-02, 1.05688935e-02, 4.78409976e-02, 2.08412651e-02,
       2.08902601e-02, 5.92532642e-02, 1.26964552e-02, 1.53752966e-02,
       1.38046192e-02, 5.60122775e-03, 1.50192799e-02, 2.60629691e-02,
       -2.65952144e-02, -2.18403712e-03, 2.88527571e-02, 1.95433758e-02,
       -1.83031894e-02, 6.72735460e-03, -8.19548126e-03, 2.73791514e-02,
       3.26675586e-02, -1.21686058e-02, -6.03594631e-03, 5.46332914e-03,
       -5.60323037e-02, 2.25893408e-02, 1.47248320e-02, -8.84868763e-03,
       1.48102967e-02, 2.60199588e-02, 1.34526426e-02, -1.29164374e-02,
       2.33839229e-02, 1.44803738e-02, -7.16584921e-03, -1.39365839e-02,
       3.50096542e-03, 1.71992742e-02, 7.67294667e-04, 1.41379312e-02,
       -8.96574091e-03, 3.75754833e-02, -4.77008522e-03, 4.16868040e-03,
       -1.75666381e-02, 9.67805646e-03, 2.48090979e-02, 3.44682001e-02,
       -1.10811759e-02, -3.11872829e-02, 5.29106334e-03, 1.62177943e-02,
       1.92985442e-02, 8.21546651e-03, 3.41254607e-04, 4.82255267e-03,
       -1.08349079e-03, 3.21063101e-02, -7.17199035e-03, -1.71756966e-03,
       -1.67929439e-03, 3.27254832e-03, -1.87521521e-02, -2.49056313e-02,
       -2.27427240e-02, -1.65875964e-02, -3.38649959e-03,
       -1.70684811e-02, 2.27260287e-03, 1.19813085e-02, 9.68716224e-04,
       -2.37631574e-02, -2.85469252e-03, -2.98239687e-03, 2.19868962e-02,
       3.68033946e-02, 2.03528497e-02, -1.39294080e-02, -1.50954211e-02,
       -1.91255733e-02, -2.11677942e-02, 2.52778339e-03, 1.52003178e-02,
       -1.76532827e-02, 2.68764906e-02, 2.69076992e-02, -1.55975474e-02,
       6.26479741e-03, 7.61688314e-03, 3.06944009e-02, 4.13183570e-02,
       -2.84147728e-02, -3.41060460e-02, -1.43913236e-02, 1.72543083e-03,
       -4.35695797e-03, 1.12922061e-02, -9.84730665e-03, -1.11737596e-02,
       4.67498563e-02, -3.47088873e-02, -1.29794488e-02, 1.90501455e-02,
       1.44432830e-02, 5.00881393e-03, 1.42933121e-02, -3.60826403e-02,
       -3.06516862e-03, -1.21667562e-02, -1.54346665e-02,
       -7.33929267e-03, 7.20444415e-03, -8.55590496e-03, -4.10910184e-03,
       2.09902320e-02, -4.00546938e-02, -2.95750760e-02, 2.55923979e-02,
       2.12165341e-02, -7.11157359e-03, 2.71303058e-02, 1.66129246e-02,
       1.99423544e-02, 2.18901187e-02, -3.20267566e-02, -2.48069130e-02,
       8.59106034e-02, 4.63737547e-02, -4.67271134e-02, -6.16003666e-03,
       -1.39697585e-02, -9.69759561e-03, 2.34904289e-02, -4.43758294e-02,
       -6.03290722e-02, 3.67484428e-02, 1.71943903e-02, -1.85010664e-03,
       2.17161775e-02, -1.14672035e-02, 1.66486222e-02, 2.47014835e-02,
       -3.72350998e-02, -2.44541746e-02, 6.23630360e-02, 5.50021529e-02,
       -3.75066209e-03, 2.15933565e-02, -1.86770521e-02, 1.54427078e-03,
       2.36884616e-02, -2.91931685e-02, -2.77493056e-02, 2.95345802e-02,
       -8.17287620e-03, -4.73155305e-02, -8.52556061e-03,
       -6.89721480e-03, 1.26436902e-02, 3.54007408e-02, 6.50667632e-03,
       5.51381474e-03, 4.61835079e-02, 2.18006354e-02, -3.71373482e-02,
       -5.66339493e-03, -3.29010114e-02, -3.94364214e-03,
       -1.55902626e-02, 6.61509065e-03, -1.39025142e-02, 4.02909294e-02,
       -1.33560421e-02, 2.25956012e-02, 3.29075903e-02, -3.65589258e-05,
       1.20972274e-02, 3.77931446e-02, 7.91927241e-03, -1.07863741e-02,
       3.06068137e-02, 1.06409481e-02, 1.16403839e-02, 3.18527520e-02,
       -2.44027395e-02, -5.29922033e-03, -4.15110058e-04, 1.03662629e-02,
       -2.47420985e-02, 1.12516908e-02, -1.15471426e-02, -6.75017573e-03,
       4.85491939e-03, -1.36198234e-02, 5.47188614e-03, 7.27950176e-03,
       -4.61832108e-03, -1.84654929e-02, 9.37081128e-02, 3.17204632e-02,
       -2.53655389e-02, -9.60599072e-03, -7.65355118e-03,
       -2.07180660e-02, -1.36835836e-02, -2.50743851e-02,
       -2.04135664e-02, 5.30557781e-02, 3.25233825e-02, 5.79820713e-03,
       2.77378596e-02, -1.37844225e-02, -1.33044515e-02, 1.77842993e-02,
       2.69920286e-02, -1.47357155e-02, 2.92688869e-02, 3.96187464e-03,
       -6.24290202e-03, 7.04975519e-03, -1.01589141e-02, -3.51008959e-03,
       1.70525555e-02, -2.89244931e-02, -1.77807063e-02, 6.19710772e-04,
       1.19270300e-02, -6.41278736e-03, 2.54649576e-02, 2.78015006e-02,
       1.68164000e-02, -1.37481894e-02, 2.04683654e-02, 9.13597550e-03,
       3.95549498e-02, 5.72701544e-02, -6.88748946e-03, 7.64291966e-03,
       3.41409212e-03, 1.80294234e-02, 1.48761133e-02, 2.50062421e-02,
       1.00531476e-02, 3.70036066e-02, 2.64918972e-02, 1.60798226e-02,
       1.48247415e-02, 1.43171567e-03, -2.08566408e-03, -1.30689749e-02,
       1.25338705e-02, 4.09535784e-03, -1.63066275e-02, 3.76364663e-02,
       -1.76455136e-02, -1.17724556e-02, -4.39016800e-03,
       -3.11884657e-03, 2.00457661e-03, 1.81249790e-02, -1.61325205e-02,
       -3.12633142e-02, 1.16169937e-02, 2.52267532e-02, 2.69681271e-02,
       1.59040689e-02, 3.03537101e-02, 3.51677202e-02, 5.56282029e-02,
       -1.10232858e-02, 2.89863218e-02, 2.80764177e-02, -5.24286646e-03,
       -1.25767933e-02, -8.77068099e-03, 2.44852658e-02, 7.04122661e-03,
       4.68184501e-02, 6.62768213e-03, 7.67670665e-03, 2.52794707e-03,
       1.58825554e-02, -2.41619046e-03, -2.18291879e-02, 7.70060811e-03,
       7.10148271e-03, 3.54993269e-02, -2.46296953e-02, -7.62253860e-03,
       2.29788269e-03, -2.69308873e-02, -4.00424153e-02, -1.52482735e-02,
       -1.46439187e-02, -2.02189106e-02, 1.67002846e-02, -3.58221792e-02,
       -9.99032706e-03, -8.79009999e-03, -2.19140928e-02,
       -1.76878227e-03, 3.16423643e-03, 3.11684702e-02, -5.14620310e-03,
       1.82490405e-02, -3.04309535e-03, 5.49749024e-02, 1.04997552e-03,
       -2.36241668e-02, 4.73762769e-03, -3.49239483e-02, 1.88823193e-02,
       -2.29219142e-02, 1.08118579e-02, 3.41876224e-03, 4.76706140e-02,
       -2.32721120e-02, -2.52862107e-02, -8.71221011e-04, 6.06598705e-03,
       5.39983716e-03, -7.61140278e-03, -2.07468332e-03, -1.49605200e-02,
       2.70134257e-03, -4.75138659e-03, -2.77711768e-02, -1.12595800e-02,
       -2.44179685e-02, -2.29043346e-02, -2.33207624e-02,
       -1.08457860e-02, -2.68672835e-02, 8.32563359e-03, -3.05953119e-02,
       8.74221267e-04, 1.26567911e-02, -3.81508237e-03, 4.43679057e-02,
       -1.25357518e-02, 2.05727778e-02, -1.62351336e-02, 3.06796804e-02,
       9.35545564e-03, -8.43978766e-03, -1.08725047e-02, -1.68584399e-02,
       4.92668524e-02, 8.49411264e-03, 2.19291672e-02, -2.89383531e-02,
       2.92717889e-02, 1.69402380e-02, -1.59008540e-02, 9.34526138e-03,
       -1.41040822e-02, -8.51322524e-03, -1.76700782e-02,
       -9.04493127e-03, -2.98272744e-02, 6.89527905e-03, -2.82665901e-02,
       -1.24085760e-02, 7.35744776e-04, -3.27909365e-02, 7.02618388e-03,
       -2.12822147e-02, 1.35725206e-02, -5.50046936e-02, -1.78851970e-02,
       -4.41018976e-02, -1.64461248e-02, -1.80177111e-02,
       -1.59712452e-02, 2.84785908e-02, 1.30248396e-02, 1.72236506e-02,
       -2.99593434e-02, 1.48134418e-02, 3.12299225e-02, -2.86620706e-02,
       -2.60317456e-02, -9.32678394e-03, 3.05930730e-02, 1.90142281e-02,
       1.14381751e-02, -5.80275431e-03, 4.17146124e-02, 2.72300933e-02,
       1.78685524e-02, -1.70017462e-02, -2.30038408e-02, 2.49241944e-02,
       2.71209422e-02, 1.04852132e-02, -3.43570076e-02, 5.98794967e-03,
       5.94075350e-03, -5.93189038e-02, -4.51809689e-02, -2.93106213e-02,
       -5.72886914e-02, -2.24821996e-02, -8.37178621e-03,
       -2.50154920e-02, 1.08880838e-02, 1.06399059e-02, 1.05835404e-02,
       1.61166545e-02, -1.84770010e-03, 4.18139994e-02, 5.71133681e-02,
       5.57550602e-02, 3.03963087e-02, 6.31902367e-02, 3.87149453e-02,
       1.35959964e-02, 5.33423126e-02, 1.70078482e-02, 3.52628343e-02,
       1.12507651e-02, 5.83442114e-03, 1.99394692e-02, 2.74428129e-02,
       9.56651568e-03, -3.01534254e-02, -1.23912925e-02, -5.96545683e-03,
       -2.67946888e-02, -2.81444360e-02, 3.04906834e-02, 1.49168950e-02,
       1.29820388e-02, -1.10572418e-02, -3.47064547e-02, -2.59325970e-02,
       -2.96980795e-02, -2.05256362e-02, -1.69836320e-02,
       -2.78859325e-02, -1.25178387e-02, -2.53279023e-02,
       -2.21731178e-02, 3.82659957e-02, 5.74277267e-02, 5.34532256e-02,
       6.05365299e-02, -1.50016146e-02, 2.54735593e-02, 2.50432808e-02,
       4.87840269e-03, 2.72155758e-02, -2.70415354e-03, 1.03828358e-02,
       1.13910539e-02, 1.68199278e-02, -9.78619605e-03, -1.79162230e-02,
       -1.34792887e-02, -5.21867275e-02, -2.58231573e-02, 4.07655770e-03,
       4.53604106e-03, 9.41744447e-03, 7.56754819e-03, -2.76169479e-02,
       2.59255385e-03, 3.21425311e-02, -1.00212442e-02, 3.38258296e-02,
       8.18419736e-03, -1.63139068e-02, -1.15156863e-02, -3.52585874e-02,
       1.31753478e-02, -1.80394901e-03, -5.57917636e-03, -2.88540106e-02,
       1.07067879e-02, 1.05360588e-02, 1.41228680e-02, 3.98543365e-02,
       1.88691933e-02, -7.52863148e-03, -8.36256985e-03, 1.84317306e-02,
       9.10289993e-04, 1.49059771e-02, -2.09850203e-02, -5.70524074e-02,
       1.84560083e-02, -2.04662289e-02, -4.46361750e-02, -5.62201673e-03,
       1.56658217e-02, -3.30783501e-02, 5.34644257e-03, 2.28823982e-02,
       1.03490031e-03, 2.23289672e-02, 1.22412806e-02, 2.38922052e-02,
       3.27158235e-02, 4.73488644e-02, -1.49567407e-02, 2.51501948e-02,
       1.77079476e-02, -4.34125029e-02, 2.14463901e-02, 2.75109243e-03,
       -8.97442340e-04, 3.05669829e-02, 2.17560474e-02, -3.60434614e-02,
       1.83293615e-02, 5.74239437e-03, -4.11926657e-02, -4.41694967e-02,
       -1.58931725e-02, 3.81345190e-02, 3.21289375e-02, 2.23181467e-03,
       -4.95602749e-03, 1.94529742e-02, 4.70099319e-03, -3.22196237e-03,
       -3.02311741e-02, 2.25036126e-02, 1.09170387e-02, 7.80138141e-03,
       -2.83677746e-02, -3.21571082e-02, 3.18553466e-05, 1.88449863e-02,
       -2.79974844e-02, -5.08603267e-03, -2.19337875e-03, 7.76659092e-03,
       2.04548296e-02, 7.13547273e-03, -8.11852980e-03, 1.85321514e-02,
       2.64817365e-02, -7.84341339e-03, -1.88418142e-02, 3.07559762e-02,
       -1.99843608e-02, 3.01570981e-03, 2.98463437e-03, 9.71513728e-05,
       3.84178162e-02, 8.20740312e-03, 5.29610040e-03, -1.11296270e-02,
       1.94069035e-02, 1.76249836e-02, 1.42266722e-02, -7.74640939e-04,
       2.58183642e-03, 1.84020936e-03, 1.19556962e-02, 1.38250291e-02,
       -9.60612763e-03, 3.40336524e-02, 9.34480038e-03, 1.53437350e-02,
       8.87168851e-03, 1.52164120e-02, 2.44642906e-02, 5.03087863e-02,
       -3.63325118e-03, -3.82636138e-03, 3.88114974e-02, 2.83147972e-02,
       1.40419668e-02, -3.90482927e-03, -2.37992518e-02, 1.90915130e-02,
       6.95553469e-03, -5.66939730e-03, -1.94892474e-02, 2.55768723e-03,
       -3.00437328e-03, 2.72591021e-02, 2.24201810e-02, -1.05898222e-02,
       4.43328079e-03, -8.48068390e-03, 1.11328224e-02, -1.86915956e-02,
       -7.16255885e-03, -7.58159254e-03, 8.65633774e-04, -1.63199697e-02,
       9.45462752e-03, 1.05278610e-04, 1.60770975e-02, 2.35321298e-02,
       2.27413289e-02, -6.02756208e-03, -3.96902766e-03, -6.54627895e-03,
       -3.58827151e-02, -9.98503715e-03, -1.70308340e-03,
       -2.88457405e-02, 1.52147571e-02, 6.16860483e-03, 1.63913462e-02,
       1.34843579e-02, 2.18471698e-02, 1.04820197e-02, -8.41025379e-04,
       4.28332295e-03, 2.71993913e-02, 1.40427779e-02, 2.15037093e-02,
       3.27558517e-02, 2.51625609e-02, 1.92772392e-02, 2.98805186e-03,
       1.73862127e-03, 1.24867624e-02, -1.40017811e-02, 2.22408660e-02,
       1.17170550e-02, 6.76606456e-03, 2.95003434e-03, -4.01070388e-03,
       9.28393099e-03, -1.83958653e-02, -7.96795543e-03, -1.22266598e-02,
       1.61403436e-02, 1.46719804e-02, -3.67601897e-04, 7.81902857e-03,
       -1.22377891e-02, 7.34501658e-03, -1.56535693e-02, 1.05783110e-02,
       5.33759687e-03, -2.80592218e-02, -7.77371926e-03, 1.61886606e-02,
       4.70575038e-03, 7.49936001e-03, 1.24907270e-02, 1.44387232e-02,
       1.64872762e-02, -2.08931845e-02, -1.74611062e-02, -2.83130612e-02,
       -2.60180682e-02, -3.37715559e-02, -2.02518888e-02, 6.97510550e-03,
       5.40123088e-03, -2.11129915e-02, -8.83562607e-04, 2.28162091e-02,
       2.30635498e-02, 1.26299663e-02, 3.37110572e-02, -1.10727949e-02,
       8.99646524e-03, 2.11770590e-02, 3.37106083e-03, -3.40245198e-03,
       3.11738364e-02, 1.57049112e-03, -1.17759686e-02, 1.08008338e-02,
       -1.01027694e-02, -2.40388922e-02, -1.96666177e-03,
       -2.53087580e-02, 2.08922345e-02, 2.43782811e-02, -7.01050367e-03,
       -1.35764070e-02, 4.55855913e-02, -9.00748651e-03, -2.89931078e-04,
       -6.74513401e-04, -1.56002957e-02, 2.87944893e-03, -7.04074325e-03,
       -1.75249241e-02, -3.87188047e-02, 1.56779978e-02, -2.68128645e-02,
       -4.59199436e-02, -1.35657135e-02, -1.70982387e-02,
       -2.86973245e-03, 5.43331876e-02, 2.00366601e-03, 1.43585997e-02,
       2.79224273e-02, 2.69923806e-02, -2.04229336e-02, -1.71410777e-02,
       1.86460689e-02, -4.94379085e-03, 3.69079746e-02, -1.43305976e-02,
       -3.81466635e-02, -7.29771564e-03, 5.21163829e-03, -3.27889808e-02,
       6.18711347e-03, 1.04409887e-03, 6.31192327e-03, 4.88502346e-03,
       -1.28237652e-02, -1.91619862e-02, 1.57623086e-02, 1.20357256e-02,
       -2.30766516e-02, -6.74372632e-03, -5.64060686e-03,
       -1.09620802e-02, -8.31695681e-04, -2.16079876e-02,
       -5.92571311e-02, -1.47778401e-03, 5.21825720e-03, -2.78729741e-02,
       -2.80686077e-02, -9.08797665e-04, -1.44010875e-02, 2.54812241e-02,
       -8.56699329e-03, -1.00567862e-02, 9.25951172e-03, 4.74065058e-02,
       -8.74541793e-03, 9.47205536e-03, 6.72771966e-06, -4.94484343e-02,
       6.52502850e-03, -5.09795025e-02, 4.07040725e-03, -2.03326507e-03,
       -1.36309592e-02, -2.57504471e-02, -1.79727543e-02,
       -2.53536589e-02, 2.18494907e-02, 2.34326720e-02, 1.23978348e-03,
       -1.99276162e-03, 1.68872904e-02, 3.26277949e-02, -1.02616427e-02,
       9.01094452e-03, 3.75002995e-02, -1.70817040e-02, 3.56119834e-02,
       -3.45136300e-02, -1.12470621e-02, 1.45926373e-02, 3.89852049e-03,
       -1.64044276e-02, -4.54813987e-03, -1.77134555e-02, 8.02472048e-03,
       3.43181677e-02, 4.56998218e-03, 2.47863773e-02, 2.48001739e-02,
       5.47081381e-02, 1.36196464e-02, 7.63418339e-03, 3.75258587e-02,
       -1.11763338e-02, 3.79600413e-02, 4.97580133e-03, -2.15499103e-02,
       -2.21473128e-02, 1.49592804e-02, -9.20453202e-03, -1.44021986e-02,
       1.87259838e-02, -2.01742235e-03, 4.94895726e-02, -1.16229439e-02,
       -1.21169565e-02, 1.56062690e-03, 4.13627923e-02, 8.63113347e-03,
       -8.38013832e-03, 5.73356869e-03, -2.39251219e-02, 2.22632401e-02,
       -2.63276435e-02, -8.23307689e-03, -4.42930833e-02,
       -1.64382383e-02, -2.00028475e-02, -5.38228042e-02,
       -8.50780308e-03, 2.99430471e-02, 5.23351468e-02, 1.47925064e-04,
       -2.91889952e-03, -2.69467123e-02, 2.35490239e-04, -1.77056119e-02,
       -1.84977427e-02, 4.17396333e-03, -1.39464661e-02, 1.54431099e-02,
       1.73305627e-02, -3.65982926e-03, -2.74890959e-02, -5.33402432e-03,
       -1.78630929e-02, -1.18526118e-02, -3.07096988e-02, 3.68876345e-02,
       2.82803737e-02, -2.23783534e-02, 8.65465403e-03, -2.18867231e-03,
       1.62524469e-02, -7.46681727e-03, -2.72667781e-02, -1.61584932e-02,
       -3.45382374e-03, 6.30074507e-03, -3.56497541e-02, 9.18856449e-03,
       -1.68639775e-02, 1.80004947e-02, -2.18038335e-02, -1.44117437e-02,
       -2.75571402e-02, -1.56055372e-02, 2.13374291e-02, 2.22423021e-02,
       2.25946978e-02, -8.57352559e-03, 3.06704752e-02, -2.61443644e-03,
       2.05473155e-02, 2.24882620e-03, -1.65223237e-02, 2.04310752e-03,
       2.55216518e-03, 4.44480404e-03, 1.82463694e-02, 4.21605147e-02,
       -7.22288666e-03, 2.34988872e-02, -1.60698835e-02, 4.90174210e-03,
       -2.39203591e-03, -8.66889674e-03, 1.41336294e-02, -2.58176532e-02,
       3.33937593e-02, -3.89571600e-02, -1.17505994e-02, -1.29847592e-02,
       9.92284063e-03, -1.33379856e-02, -3.07047274e-03, -2.19215807e-02,
       1.81796085e-02, 8.81671347e-03, -5.61689734e-02, -2.55935136e-02,
       5.34793315e-03, -1.81610323e-02, 2.34765280e-02, 5.98494802e-03,
       9.76094697e-03, 5.82118751e-03, 3.15901190e-02, 5.12711704e-03,
       -5.50141267e-04, -2.13874858e-02, -1.32449279e-02, 2.98014432e-02,
       7.93465041e-03, 1.70637704e-02, -1.95840560e-02, 3.31381597e-02,
       1.40255746e-02, 1.31348139e-02, -3.32425646e-02, -1.67789180e-02,
       1.07684778e-02, -9.36972722e-03, -1.43192764e-02, -2.66074622e-03,
       1.39536886e-02, -2.67027672e-02, -2.97059887e-03, -6.74892915e-04,
       -1.87456142e-02, 1.36374896e-02, -1.60029549e-02, -2.04787478e-02,
       -4.60099280e-02, -2.06642784e-03, 8.58582929e-03, 1.19135184e-02,
       -4.34613042e-03, 1.57060903e-02, 1.97495185e-02, 3.09437490e-03,
       2.63390765e-02, 1.87221020e-02, 8.23284872e-03, -6.46169204e-03,
       2.04475932e-02, -4.65201726e-03, -1.06668351e-02, -2.79449625e-03,
       -6.32994762e-03, -2.83357147e-02, 1.02318022e-02, -1.13191456e-02,
       -9.50511545e-03, 3.10977967e-03, -1.71665363e-02, 2.29441132e-02,
       1.96223576e-02, -3.25152860e-03, 5.09256730e-03, 1.08550964e-02,
       3.08760093e-03, 8.66624340e-03, -1.37759754e-02, -1.29035227e-02,
       2.71323533e-03, -5.57878707e-03, -1.27769932e-02, -1.93344429e-02,
       1.18539005e-03, -3.12808491e-02, -3.76845673e-02, -3.74906473e-02,
       -3.63705494e-02, -3.03738359e-02, 1.29449479e-02, 3.14552411e-02,
       2.94811232e-03, 3.25414576e-02, 6.46138862e-02, 2.26132497e-02,
       6.41116360e-03, -1.41671626e-02, -1.38245290e-02, 5.95028186e-03,
       1.16856648e-02, -3.55861895e-03, -2.13035531e-02, 8.72599240e-03,
       1.44106988e-02, 3.25988419e-03, 1.56927985e-04, 2.93447897e-02,
       6.65073982e-03, -1.02827558e-03, -2.68573035e-02, 2.53929887e-02,
       4.20787372e-02, 7.58990273e-03, 1.33385137e-02, -7.53614353e-03,
       1.68612432e-02, 1.54078957e-02, 6.38241821e-04, -2.77939197e-02,
       7.32519198e-03, -7.88914971e-03, -1.26387104e-02, -2.64263828e-03,
       -1.43308500e-02, 1.08951479e-02, 1.28130456e-02, 4.96362383e-03,
       1.22669498e-02, -4.52688430e-03, 2.68796133e-03, 5.46771009e-03,
       1.90195888e-02, 7.72192609e-04, -6.77812565e-03, -1.80034898e-02,
       -1.17780976e-02, -1.49721261e-02, 1.27361193e-02, -1.71841532e-02,
       1.25461603e-02, -6.98115723e-03, -1.49524817e-02, 2.44842358e-02,
       3.97323929e-02, 9.97804105e-03, 1.06734093e-02, 4.04071510e-02,
       4.50832881e-02, 3.37494165e-02, 2.56937835e-02, -5.68042882e-03,
       -2.27000527e-02, -2.00519543e-02, -2.97861025e-02, 6.01486769e-03,
       2.82740388e-02, 2.94737704e-03, 1.59599427e-02, -9.18115769e-03,
       -2.75299232e-02, 8.70842300e-03, -1.62963010e-02, 5.72475465e-03,
       1.08501259e-02, -5.57394414e-05, -3.25237704e-03, 3.04376632e-02,
       -1.94552690e-02, 6.01461204e-03, 1.06194075e-02, -3.09467074e-02,
       1.23582175e-02, 4.43102699e-03, -1.27165802e-02, 1.10639678e-02,
       1.43358782e-02, -2.28861757e-02, 2.29600482e-02, 5.64231165e-03,
       -9.42261610e-03, 4.89214435e-03, -6.38749916e-03, 1.51567925e-02,
       6.18119212e-03, -1.05725564e-02, -2.18871124e-02, 1.28510399e-02,
       -1.14724664e-02, -1.07351625e-02, 1.88732911e-02, -2.38500591e-02,
       -1.93205278e-03, 2.50990037e-02, -3.56595521e-03, -2.50068121e-02,
       1.31401615e-02, -1.38691366e+00 ]
