%YAML:1.0
---
my_detector: !!opencv-object-detector-hog
   winSize: [ 64, 128 ]
   blockSize: [ 16, 16 ]
   blockStride: [ 8, 8 ]
   cellSize: [ 8, 8 ]
   nbins: 9
   derivAperture: 1
   winSigma: 4.
   histogramNormType: 0
   L2HysThreshold: 2.0000000000000001e-01
   gammaCorrection: 1
   nlevels: 64
   signedGradient: 0
   SVMDetector: [ 3.44615951e-02, -3.73683684e-02, -2.01933756e-02,
       2.50636805e-02, 3.20924968e-02, -1.52034210e-02, -1.95040330e-02,
       -3.31698395e-02, 3.75107229e-02, 4.20410186e-02, -4.82348679e-03,
       2.07598004e-02, 6.26220694e-03, 1.70095041e-02, 2.23935135e-02,
       9.57894232e-03, -5.88681409e-03, 3.80055979e-02, 2.36747805e-02,
       -2.31448431e-02, -1.57631859e-02, 1.66888218e-02, 4.14808467e-02,
       1.22518383e-03, -9.23830457e-03, -3.92245352e-02, 2.39283615e-03,
       2.66561639e-02, 4.29274328e-03, 1.59190614e-02, 3.66811864e-02,
       -9.28462856e-03, 1.56194316e-02, 6.70909928e-03, 5.17648458e-03,
       4.69272956e-04, 1.08680604e-02, -3.29099186e-02, 2.32308786e-02,
       -1.28407404e-02, 2.12238729e-02, 2.12508813e-02, -1.43042086e-02,
       -7.95359025e-04, 6.76948763e-03, 1.14005413e-02, -1.69876311e-02,
       3.74522246e-02, 4.25139740e-02, 1.28482394e-02, 2.17248183e-02,
       -1.11474460e-02, 2.03256141e-02, -4.83694440e-03, 6.43635681e-03,
       -1.04669612e-02, -1.32769300e-03, 6.81276666e-03, 2.66292202e-03,
       8.89386516e-03, -9.47755948e-03, -1.10819482e-03, -1.44755337e-02,
       1.41124399e-02, -9.68471169e-03, -2.53802203e-02, 8.30170885e-03,
       -2.36294176e-02, -7.78366998e-03, 9.65371728e-03, 1.90523528e-02,
       6.25050534e-03, 1.73519179e-02, 4.08542901e-03, 1.88836064e-02,
       1.98024977e-02, 1.65472310e-02, 3.14322039e-02, -2.92938249e-03,
       5.19095734e-03, -6.01282530e-03, 1.41901495e-02, -2.93583842e-03,
       -6.93067722e-03, -2.59892438e-02, 3.18187103e-02, 1.13176759e-02,
       1.55444043e-02, 2.32015736e-02, 2.00523231e-02, 9.56202974e-04,
       -9.24352184e-03, -3.28945462e-03, 2.10706387e-02, -1.83062423e-02,
       1.13059543e-02, -1.10358186e-02, 1.09690300e-03, -1.80021375e-02,
       -1.11674862e-02, -2.72203870e-02, -8.02662037e-03,
       -2.87047401e-02, 8.67845141e-04, -6.50365651e-03, 2.33457983e-02,
       3.76954526e-02, -8.77711177e-03, 1.46371694e-02, 1.21090086e-02,
       -4.19851253e-03, 2.58378126e-03, 4.34532836e-02, 2.21836697e-02,
       1.54306553e-02, 8.51848279e-04, 7.74129713e-03, -9.03000310e-03,
       9.13620461e-03, -1.47381295e-02, -3.61192562e-02, -1.26754558e-02,
       -2.75777169e-02, -8.26542079e-03, -1.17322542e-02,
       -2.03038333e-03, 1.06063730e-03, 1.63050480e-02, 4.13796259e-03,
       1.59929637e-02, -7.24674063e-03, -4.56625177e-03, 2.02938803e-02,
       5.04730716e-02, -1.29430825e-02, -1.13327950e-02, -1.39471358e-02,
       -1.84936859e-02, -3.89413815e-03, -2.69262083e-02,
       -1.62029862e-02, 8.35095358e-04, 3.10502434e-03, -2.43135467e-02,
       -1.17541794e-02, 2.13649049e-02, -2.14312114e-02, -1.35329831e-02,
       1.53625868e-02, -7.72742322e-03, -1.68074609e-03, 1.57825630e-02,
       1.81075651e-02, -2.58761812e-02, -2.37332769e-02, -6.48582950e-02,
       -1.07355332e-02, 8.07507522e-03, -2.97139417e-02, -1.70886684e-02,
       1.40055055e-02, 1.77213375e-03, -1.29081393e-02, 2.57114023e-02,
       -1.57795940e-02, 1.99082866e-02, 1.18764443e-02, 1.21412883e-02,
       2.68309731e-02, 2.51019374e-02, -3.83058749e-03, -3.94294411e-02,
       4.42128076e-04, -5.40079288e-02, 1.17592542e-02, -3.62829864e-03,
       -1.62765272e-02, 6.36138022e-03, 2.17945576e-02, -1.74835809e-02,
       -1.30723203e-02, -2.49428246e-02, -4.79244962e-02, 2.96489857e-02,
       3.25926170e-02, -4.45265835e-03, -2.74066161e-02, 1.27265928e-02,
       3.10344296e-03, 2.34584557e-03, -1.29684713e-02, -2.77273525e-02,
       1.94357298e-02, 5.01473993e-03, -4.14006002e-02, -4.24623936e-02,
       -1.39165558e-02, 4.35829535e-03, 3.10326833e-02, 2.72188969e-02,
       -4.28658202e-02, 5.69265410e-02, 6.63696276e-03, 8.49459600e-03,
       -3.70357698e-03, 3.45024131e-02, -1.61512718e-02, 1.49870366e-02,
       3.21187042e-02, -2.08851695e-02, 1.04255946e-02, -1.28452498e-02,
       -2.45230962e-02, -2.37257518e-02, -1.10403374e-02,
       -1.17042009e-02, 1.17387818e-02, 1.39967278e-02, -2.14537196e-02,
       2.77217086e-02, 2.77224462e-02, -1.80970430e-02, -3.14262211e-02,
       -1.50897808e-03, 2.45941523e-02, -2.50053219e-02, -1.01328967e-02,
       -5.34563251e-02, -2.08658129e-02, 4.97370586e-03, -1.78771783e-02,
       -4.58957143e-02, 2.16533057e-02, 9.09938419e-04, -1.43290283e-02,
       1.48571301e-02, 8.37516040e-03, 3.96040231e-02, 1.32582318e-02,
       2.13586930e-02, 3.08874412e-03, 1.56652015e-02, -1.12725152e-02,
       -3.06294877e-02, 1.55500404e-03, -4.67633829e-03, -8.23620707e-03,
       1.67149045e-02, 1.17306523e-02, -2.57307030e-02, 2.28380319e-02,
       -3.12386435e-02, 6.52198074e-03, 4.54211934e-03, -2.17494462e-02,
       4.34023095e-03, -6.81322475e-04, -9.99777392e-03, -2.85128970e-02,
       1.66717358e-02, 1.72505470e-03, 5.12869284e-03, 1.08155736e-03,
       -9.99595132e-03, -2.84522288e-02, -4.14277334e-03,
       -2.12506130e-02, -3.71694416e-02, 4.28500539e-03, 3.29330168e-03,
       -5.65239973e-03, 1.92810260e-02, -2.34480505e-03, 1.40518248e-02,
       1.70009304e-02, 4.38736752e-02, -2.42808070e-02, 2.45501548e-02,
       1.14737758e-02, -3.07195727e-02, -2.37124544e-02, -1.07772928e-02,
       -8.05670582e-03, -1.37685267e-02, -7.82995019e-03,
       -1.58147365e-02, 1.31622851e-02, 9.07258783e-03, 9.65634082e-03,
       -2.12193727e-02, -1.56281155e-03, -1.23643009e-02,
       -1.52182402e-02, -1.88653059e-02, -1.59995891e-02, 8.10394436e-03,
       2.95244977e-02, 6.41557202e-03, -2.85232477e-02, -4.33058571e-03,
       1.53937992e-02, -2.83232387e-02, -6.39908714e-03, -4.35539708e-02,
       -2.51637772e-02, -3.63401091e-03, -2.53580865e-02,
       -3.05653941e-02, -1.05424300e-02, -1.43900681e-02,
       -1.31803257e-02, 1.27767185e-02, 1.51815508e-02, 1.81507692e-03,
       1.10408040e-02, -2.11536307e-02, -1.25560481e-02, -4.41438928e-02,
       3.10027786e-03, -2.14607455e-02, -4.43325564e-03, -1.28210513e-02,
       -2.22381763e-02, -2.57026460e-02, -2.09136517e-03,
       -3.32168513e-03, -8.43298715e-03, 3.54404487e-02, -3.18842568e-02,
       3.42499875e-02, -2.18881313e-02, -2.17790883e-02, 7.49506056e-03,
       -4.45517525e-03, -8.31556134e-03, -2.96025071e-02,
       -1.35491751e-02, -5.48241485e-04, -1.06909089e-02,
       -9.20929387e-03, -1.64576080e-02, -1.17321229e-02, 3.45154703e-02,
       2.56918091e-02, -6.50557224e-03, 6.53190464e-02, -2.31141485e-02,
       1.52708692e-02, -4.32690699e-03, 9.53977741e-03, -1.04836291e-02,
       -4.03323472e-02, -2.66882591e-02, -3.38789783e-02, 1.29252570e-02,
       -2.02603508e-02, -7.02478737e-03, -3.22915241e-02, 2.45659426e-02,
       -2.34487150e-02, 1.36877792e-02, 9.97087569e-04, -1.18952794e-02,
       1.55915832e-02, -2.29320233e-03, 2.87578255e-03, -1.18702156e-02,
       1.60103459e-02, 3.14633548e-02, -1.35488054e-02, -1.43868588e-02,
       -5.74287102e-02, -6.15893817e-03, -2.85251904e-02,
       -6.39083935e-03, -1.18805310e-02, 1.97528061e-02, 7.51303160e-04,
       -1.51617676e-02, 4.67725145e-03, 3.39358263e-02, 4.19407897e-02,
       -4.20939084e-03, 1.74732786e-02, -6.72097318e-03, 2.67729294e-02,
       1.68728060e-03, -4.42741960e-02, 2.75329337e-03, 1.25440313e-02,
       3.44755724e-02, 1.24611910e-02, 2.04424970e-02, -1.71352061e-03,
       1.52777061e-02, -2.12092083e-02, -6.97889191e-04, 6.97582774e-03,
       -2.54982542e-02, -2.64629885e-03, 5.53050870e-03, -1.41613167e-02,
       -1.36565473e-02, 1.89152360e-02, -5.90005657e-04, -4.59655467e-03,
       4.74667270e-03, -3.29466425e-02, -3.75783406e-02, 5.36707323e-03,
       -1.77002009e-02, -3.47351022e-02, 6.31352188e-03, -1.59419384e-02,
       -2.33968312e-05, 1.24972379e-02, -4.88479016e-03, 7.49724405e-03,
       3.16328928e-02, 2.29367483e-02, -3.47486557e-03, 1.22108907e-02,
       -2.07041809e-03, -2.91466005e-02, 9.54408851e-03, 5.63187851e-03,
       -2.52837930e-02, 1.15052108e-02, -2.40351283e-03, -1.63356327e-02,
       -2.03181151e-03, -2.81950682e-02, -1.23272734e-02, 5.34787076e-03,
       6.44115591e-03, 3.02260201e-02, -3.21459025e-03, -2.00107004e-02,
       -8.21581017e-03, 5.97635517e-03, -6.68464880e-03, -2.06402112e-02,
       -9.02514346e-03, -2.45332229e-03, -4.68780054e-04,
       -1.45995263e-02, -4.57514264e-02, -7.21583189e-03, 2.10695318e-04,
       -2.37490959e-03, 3.85100720e-03, 8.91739223e-03, 2.58549917e-02,
       5.33712395e-02, 4.93994020e-02, 1.78660750e-02, 1.95624195e-02,
       4.21070680e-02, 9.65331914e-04, 2.36008689e-02, 1.38346164e-04,
       1.74861103e-02, 2.61134822e-02, 3.29927616e-02, 8.44817783e-04,
       5.37158642e-03, 4.18052869e-03, -8.36470281e-04, -2.97362078e-02,
       2.39577647e-02, 1.93123780e-02, 3.87278050e-02, 3.70084532e-02,
       -2.24408824e-02, -2.68026185e-03, 3.02359574e-02, 4.82722447e-04,
       -1.46322977e-02, -9.37062129e-03, -9.41868126e-03,
       -1.30233094e-02, 2.95531396e-02, 1.55485170e-02, -3.84138934e-02,
       -4.41765450e-02, 3.74330697e-03, 1.15741193e-02, 3.10573820e-02,
       2.08367798e-02, 1.24946386e-02, 2.53548007e-02, 3.09788212e-02,
       2.18564942e-02, 1.24220289e-02, 2.60974839e-02, -2.48720087e-02,
       -3.01407408e-02, 1.90414768e-02, -1.75984018e-03, 4.84356172e-02,
       4.10575159e-02, -9.48603824e-03, -1.56172179e-02, 2.09703334e-02,
       1.59713570e-02, -1.40895862e-02, -3.47356535e-02, -2.80850078e-03,
       1.66431163e-02, 1.37158306e-02, -1.21520553e-02, -3.05250548e-02,
       4.40764986e-02, 1.55212749e-02, -2.94383094e-02, 1.30209969e-02,
       2.77419556e-02, -3.97216482e-03, -2.07226612e-02, -2.29054373e-02,
       -4.67650667e-02, 2.04106141e-02, 2.46633519e-03, -5.27457818e-02,
       1.10477181e-02, 3.18495035e-02, 3.98060344e-02, 4.53037880e-02,
       2.14577541e-02, -1.52757089e-03, 2.33050454e-02, 2.11253650e-02,
       -6.22539781e-02, 8.69083087e-05, 2.05490738e-02, -3.32178846e-02,
       3.43104713e-02, 2.42934637e-02, -1.64561477e-02, 2.97837649e-02,
       3.33991088e-02, -1.60310939e-02, -1.85577106e-02, -4.89897747e-03,
       2.76798513e-02, 1.16721948e-03, -1.09357676e-02, -9.82937869e-03,
       8.68154783e-03, 7.20755830e-02, 1.88742988e-02, 2.58071758e-02,
       1.28399534e-02, 2.72209868e-02, 1.68974735e-02, -8.10077693e-03,
       3.08722295e-02, 4.18183953e-02, 1.25063844e-02, -4.95454855e-02,
       -2.35377159e-02, 7.70633761e-03, -1.66040286e-02, -7.48652127e-03,
       -1.44666992e-03, 1.09356856e-02, 2.84622163e-02, 1.77778918e-02,
       -1.08243749e-02, -1.69531489e-03, 2.32500676e-02, -3.39558013e-02,
       1.45033123e-02, 1.33190323e-02, 3.57011743e-02, 3.81473713e-02,
       5.18461168e-02, 1.36832613e-02, 4.85405559e-03, -2.25348603e-02,
       5.30643761e-02, 2.10375302e-02, -1.90768950e-02, 1.21207675e-02,
       3.29256542e-02, 2.62034405e-02, -1.24202501e-02, -2.55741123e-02,
       -3.17303538e-02, -5.28138923e-03, 3.21334018e-03, -1.96896270e-02,
       1.26079109e-03, 2.60897782e-02, 5.81364147e-04, 8.16581957e-03,
       4.76398272e-03, -1.89799573e-02, 4.53184964e-03, 1.31227430e-02,
       -5.95984329e-03, -1.62326060e-02, -9.74749960e-03, 1.46289496e-02,
       7.79175316e-04, 1.39772630e-04, -2.77842097e-02, -4.89321686e-02,
       1.06071595e-04, -2.36594193e-02, -3.93637344e-02, 7.04815565e-03,
       1.30427321e-02, -7.26498989e-03, 2.05481262e-03, 9.58734285e-03,
       2.90968511e-02, -7.63313286e-03, -1.57461185e-02, -6.12679636e-03,
       -2.70451978e-03, -7.73866056e-03, -7.75393844e-03, 1.81675497e-02,
       4.12033498e-03, 2.60408875e-02, -1.05503602e-02, 3.19376662e-02,
       4.69685942e-02, 1.13886350e-03, 5.40431077e-03, 3.39671341e-03,
       -4.27845726e-03, -1.25457775e-02, 1.84864961e-02, 1.65963881e-02,
       -3.88117656e-02, -1.10305687e-02, 2.54958905e-02, -2.71543637e-02,
       -2.57890541e-02, -1.81115586e-02, -2.87374426e-02, 2.04544235e-03,
       2.50074500e-03, 6.29635016e-03, 6.31212741e-02, -1.35723380e-02,
       -1.13967415e-02, 1.63814761e-02, -1.20708896e-02, -4.18058336e-02,
       1.06167961e-02, -1.87957212e-02, 2.49283016e-03, 3.12486924e-02,
       -2.80334707e-02, 2.47067213e-02, 3.33383530e-02, -4.70963791e-02,
       -2.76429337e-02, 4.00391333e-02, -1.39638940e-02, -3.56666557e-02,
       4.66604624e-03, -6.24669529e-03, -1.04738139e-02, 5.69678098e-02,
       2.46021599e-02, -1.54651245e-02, -3.89911537e-03, -2.62495335e-02,
       -2.87463632e-03, 2.75369119e-02, -1.54702989e-02, 2.45535020e-02,
       6.59262985e-02, -6.22186484e-03, -1.52432946e-02, 1.78937018e-02,
       -1.44686829e-02, -3.02934404e-02, -7.84751587e-03,
       -2.71130130e-02, 3.51733640e-02, 7.30156228e-02, -3.06268428e-02,
       -9.05770808e-03, 3.06237917e-02, 7.53810583e-03, -1.26742409e-03,
       1.01434384e-02, 3.36238998e-03, -1.73380249e-03, 3.01984493e-02,
       -5.53152226e-02, -3.71562950e-02, 8.97271838e-03, -1.21332137e-02,
       -3.00058033e-02, -2.65274756e-03, -1.33669013e-02, 5.60038947e-02,
       1.17648907e-01, -2.32975576e-02, -1.50824068e-02, 1.00652510e-02,
       1.64537714e-03, -5.44515857e-03, 1.15188388e-02, -2.62239613e-02,
       4.20333061e-04, 3.27788517e-02, -6.49421886e-02, -2.33167410e-02,
       1.37910154e-02, -3.35579775e-02, -1.46438191e-02, 1.18016303e-02,
       -4.02127914e-02, 4.72119600e-02, 4.62889113e-02, -3.26143131e-02,
       1.03737589e-03, 1.19392714e-02, 5.31991385e-03, -1.02172755e-02,
       1.47656479e-03, 9.76424012e-03, 8.29488039e-03, 7.32541922e-03,
       -2.91323178e-02, 1.31169669e-02, 2.29680520e-02, -1.68737434e-02,
       -2.70370301e-02, 2.86534429e-04, -1.44207869e-02, 1.98351443e-02,
       4.52719927e-02, -1.17370449e-02, 8.21144041e-03, 1.51641220e-02,
       1.21830320e-02, 4.69829934e-03, 3.78230028e-02, -1.00418003e-02,
       -3.91411036e-02, 9.57276393e-03, -1.33961039e-02, -1.28780873e-02,
       -2.12243455e-03, -1.20416451e-02, -1.10224644e-02, 2.62041092e-02,
       -3.35839018e-02, 1.79945081e-02, 1.34286806e-02, -3.58134997e-03,
       5.30791609e-03, 3.99745395e-03, 1.37535622e-03, 5.45390556e-03,
       1.70317031e-02, 9.37085133e-03, 1.71014145e-02, 2.21248996e-03,
       4.26085992e-03, -9.42853373e-03, 2.88178921e-02, -1.72575582e-02,
       -1.14019336e-02, 1.81915145e-02, -1.36251689e-03, 1.22375404e-02,
       4.71640825e-02, -3.08211762e-02, -1.19209732e-03, 1.37599893e-02,
       -3.20300530e-03, 5.68653690e-03, 2.96122096e-02, 5.29831881e-03,
       2.10828949e-02, 2.33497322e-02, -1.83091760e-02, -4.65753581e-03,
       4.37199883e-02, -2.03601681e-02, 1.09541360e-02, 1.27572259e-02,
       -4.49202443e-03, 3.40073816e-02, -7.91148096e-03, -8.05976510e-04,
       -8.21315683e-03, -5.83621848e-04, -2.15026736e-02,
       -1.85584147e-02, 3.05346064e-02, 3.17575336e-02, -4.45002737e-03,
       -1.66947450e-02, -1.39953149e-02, -6.32161135e-03, 6.24502171e-03,
       -4.13412303e-02, -1.33149987e-02, 1.49669852e-02, 1.64368805e-02,
       4.21440825e-02, 3.85471061e-02, 6.71370281e-03, 2.71531893e-03,
       3.78512545e-03, 1.37364650e-02, 1.45014524e-02, 4.06527817e-02,
       1.02788080e-02, 1.98232606e-02, 4.13966551e-02, -2.31758747e-02,
       -9.01997928e-03, 2.88069900e-03, 1.94653682e-02, 1.00123719e-03,
       -2.42087618e-03, 4.52459641e-02, -1.69717427e-02, 6.88663730e-03,
       -3.37938033e-02, -1.01682986e-03, 1.74999814e-02, -6.31291012e-04,
       1.09597703e-03, -1.51346745e-02, 1.01821183e-03, -4.65785561e-04,
       -1.21617503e-02, -4.24676649e-02, 2.78388173e-03, 2.36628857e-02,
       -1.78942550e-02, -5.60573954e-03, -1.99711528e-02,
       -1.20225688e-02, 8.94413982e-03, 5.06107248e-02, -2.06340291e-02,
       1.60447918e-02, 4.83681262e-02, 6.92603663e-02, 2.77399421e-02,
       -2.10917881e-03, 2.55689435e-02, -1.27030034e-02, -6.22387696e-03,
       -2.94098109e-02, 4.11114432e-02, 5.09177707e-02, 2.04502046e-02,
       5.00293495e-03, -1.52214821e-02, 1.51492248e-03, 2.13599782e-02,
       2.32539116e-03, -3.66150774e-02, 3.45382513e-03, -1.99824907e-02,
       -6.61278749e-03, -1.11030703e-02, 2.38559325e-03, -1.07971281e-02,
       -1.03088319e-02, 1.48967812e-02, -2.78568808e-02, -8.03509541e-03,
       -4.99763899e-03, 3.93149414e-04, -2.00314969e-02, 9.53335129e-03,
       2.35172710e-03, 1.51253743e-02, 3.87698635e-02, -7.77108828e-03,
       3.39686386e-02, 1.69458669e-02, 4.92642783e-02, -1.20132416e-02,
       -2.20050989e-03, 1.28666637e-02, -2.71921232e-02, 3.13735865e-02,
       -1.51769407e-02, -1.11749023e-02, 7.30756030e-04, 3.58163081e-02,
       -2.29528788e-02, -1.79078653e-02, 2.03063134e-02, -4.06618156e-02,
       1.49476118e-02, -1.63620338e-02, -9.18465573e-03, -6.36394182e-03,
       4.98775905e-03, -2.56078076e-02, 2.83283694e-03, -1.63192414e-02,
       -4.94894907e-02, -1.17066205e-02, -2.42912341e-02, 5.55361994e-03,
       -1.02220010e-02, -6.57714717e-03, -3.59167606e-02,
       -4.45616292e-03, -1.66120753e-03, -8.73730052e-03, 3.30676921e-02,
       -1.37347691e-02, 2.99470890e-02, 4.34379131e-02, 2.49656867e-02,
       1.77431293e-02, 2.62958594e-02, 3.14485393e-02, -2.44593192e-02,
       -2.24312115e-03, -4.41973843e-02, 2.64415257e-02, 2.71096565e-02,
       1.60045382e-02, -1.12607665e-02, -8.50220118e-03, -2.21835123e-03,
       5.39642945e-03, 1.82351992e-02, -1.43480469e-02, -2.60390583e-02,
       -2.21625194e-02, -1.36740031e-02, -3.84929590e-02,
       -2.15338932e-05, 3.04805785e-02, -1.81078184e-02, 2.41836701e-02,
       4.96156141e-03, -3.90707888e-02, -3.56401056e-02, -4.61191460e-02,
       -3.12721170e-02, -1.12910289e-02, -3.81253883e-02, 2.76880078e-02,
       7.23337149e-03, -2.16211677e-02, 1.65250786e-02, 5.86518459e-02,
       2.55866833e-02, -2.69354470e-02, -1.29906856e-03, -3.87909170e-03,
       2.02716105e-02, 2.88419947e-02, 2.16711760e-02, 1.75451543e-02,
       4.15770151e-02, 3.17157689e-03, -4.66072792e-03, -8.17227270e-03,
       -1.63639765e-02, -1.98002588e-02, 6.79530809e-03, 1.20608537e-02,
       -1.08905509e-02, -9.49887279e-03, -1.70357656e-02,
       -4.17973520e-03, 1.64451357e-02, -1.28355576e-02, 7.80958263e-03,
       -2.21135560e-02, -2.20861007e-02, -5.03678769e-02,
       -4.11094576e-02, -4.79157232e-02, -3.61038037e-02,
       -1.00846617e-02, 9.78749897e-03, 8.55065044e-03, 3.53677385e-02,
       4.33555841e-02, 2.80964263e-02, 6.96845129e-02, 2.77595595e-02,
       -1.18282274e-03, 1.50207849e-02, -6.54818583e-03, 1.18972752e-02,
       2.24074349e-02, 5.33757918e-03, -1.17852380e-02, 3.63982748e-03,
       3.01452223e-02, 2.26308331e-02, 5.09285703e-02, -1.29833929e-02,
       2.73302440e-02, -1.08565055e-02, 1.56449005e-02, -2.33167149e-02,
       -8.06588586e-03, -1.02195085e-03, 3.35957017e-03, -1.59949868e-03,
       3.86951119e-02, -7.09699094e-03, -3.67262699e-02, 8.64997506e-03,
       -3.25482525e-02, -9.79695469e-03, -3.83181050e-02,
       -1.74660161e-02, 7.53408950e-03, 4.44417931e-02, 5.05037094e-03,
       -1.99387572e-03, 1.55368317e-02, 3.35903727e-02, 1.19359605e-02,
       7.66638815e-02, 4.37266752e-02, 4.13520001e-02, -2.09138915e-03,
       -3.23451422e-02, -4.62860987e-02, -8.83339811e-03, 6.55503897e-03,
       3.24016847e-02, 1.75971668e-02, -2.28983033e-02, -6.73984084e-03,
       -1.32183442e-02, -2.28099599e-02, -4.44531217e-02, 9.86374449e-03,
       3.02182715e-02, -5.47351316e-03, 1.37558242e-03, -1.28981499e-02,
       1.33391330e-02, 3.06754727e-02, -5.78792207e-03, -6.99366853e-02,
       -1.33038592e-02, 2.24354509e-02, -1.65049937e-02, -1.61168573e-03,
       -2.55182497e-02, -2.75254827e-02, 1.48860831e-02, 3.49463262e-02,
       4.60270280e-03, 2.06358116e-02, 4.29787859e-02, -4.84221242e-03,
       1.50352111e-02, -1.60620138e-02, 1.00581851e-02, 4.44831699e-02,
       2.75704209e-02, -2.96529029e-02, -2.03558756e-03, 9.69918631e-03,
       -2.42678784e-02, 2.49271933e-02, -2.64772382e-02, -4.54547033e-02,
       3.72217107e-03, -6.41623745e-03, -4.94272299e-02, -2.18945704e-02,
       2.10416391e-02, 3.35525759e-02, 1.86564978e-02, -5.00957854e-03,
       -1.82989966e-02, 6.83872402e-03, -6.66661141e-03, -1.71295758e-02,
       -5.72689623e-03, 4.19484191e-02, -1.64396428e-02, -2.63367780e-03,
       -4.16948088e-03, 3.48822190e-03, 1.45342806e-02, 1.87643971e-02,
       -2.61388458e-02, -1.62386522e-02, 1.27153965e-02, 1.94358919e-02,
       -2.54308642e-03, -2.74279770e-02, -2.22581886e-02, 3.34750004e-02,
       7.20709888e-03, -2.54917387e-02, -9.92531795e-03, 4.91982438e-02,
       -2.71283686e-02, 2.34096702e-02, -1.93298925e-02, -2.84649990e-02,
       1.61473639e-02, -3.58821452e-02, -2.41243225e-02, 5.96061465e-04,
       -4.54454916e-03, 2.12398916e-02, -4.67931405e-02, -2.58058310e-02,
       -4.06526625e-02, -3.66524458e-02, 2.69591808e-02, 6.64362535e-02,
       3.33204120e-02, 1.12262163e-02, -5.17756445e-03, -2.14403495e-02,
       -2.80533191e-02, -3.40759419e-02, -7.30272382e-03,
       -2.94392966e-02, 1.16978306e-02, 8.92046466e-02, 8.29525068e-02,
       4.75315601e-02, 7.84676801e-03, -1.18489070e-02, -5.77130802e-02,
       -3.42575461e-02, 4.71083708e-02, 9.59901363e-02, 9.65254456e-02,
       6.58571571e-02, -9.91578400e-03, 3.44269397e-03, -2.47685658e-03,
       -1.18676303e-02, -1.12885050e-02, 2.39303112e-02, 2.56189494e-03,
       -5.77361211e-02, -3.11953388e-02, 4.02717758e-03, -1.04142232e-02,
       -3.14005353e-02, 2.65399590e-02, 5.48058264e-02, -1.27995284e-02,
       -3.77263464e-02, -1.25250295e-02, 2.03371365e-02, 1.31631771e-03,
       -6.94300747e-03, 1.54960586e-03, 7.54424259e-02, 2.76606176e-02,
       3.73248160e-02, 4.77208421e-02, -1.40062850e-02, -3.34191532e-03,
       1.77485347e-02, -3.51850130e-02, -2.16623419e-04, 5.78997619e-02,
       5.25636412e-02, -1.59578933e-03, 1.10072140e-02, 1.42656695e-02,
       6.21384382e-02, 3.14321965e-02, 5.69473021e-03, 5.34711815e-02,
       1.08078949e-01, 3.45060751e-02, -1.38949482e-02, 9.76227894e-02,
       1.39373749e-01, 8.16861019e-02, -2.45378260e-03, -3.97166722e-02,
       -3.50572802e-02, 6.80307765e-03, -3.98268327e-02, -2.40216614e-03,
       8.12647417e-02, 5.90393655e-02, 6.18438702e-03, -1.71445534e-02,
       -4.51540276e-02, -7.16350451e-02, -3.67252603e-02,
       -8.03114176e-02, -5.74520566e-02, 6.60738945e-02, 1.15204856e-01,
       8.02961215e-02, 1.79681815e-02, 1.19502516e-02, 1.05033275e-02,
       6.90790340e-02, -2.05612294e-02, -6.22419938e-02, -1.26445005e-02,
       3.66924740e-02, -6.21434534e-03, -3.19529623e-02, -3.14176455e-02,
       -3.58026437e-02, -2.34280322e-02, -8.37976336e-02, 5.16098030e-02,
       1.15874797e-01, 1.70895196e-02, 1.97232682e-02, 5.72263170e-03,
       1.18958950e-02, 2.38307081e-02, 2.81324256e-02, -2.09912527e-02,
       -5.74221881e-03, 2.33576000e-02, -3.45510207e-02, -5.99233573e-03,
       3.70941707e-03, -2.69580726e-02, 2.42348127e-02, 1.67106313e-03,
       -2.18342133e-02, -1.64170600e-02, 1.24202622e-02, -2.44206227e-02,
       -1.60076115e-02, -1.93845313e-02, 2.78386548e-02, 1.80211347e-02,
       6.86290395e-03, -3.23136561e-02, -3.02723423e-02, -3.34658064e-02,
       -5.54627031e-02, -3.53030153e-02, -3.22375186e-02,
       -1.59589406e-02, -3.96103715e-04, 2.19876436e-03, 1.15984837e-02,
       2.23461688e-02, 3.32424566e-02, -1.61611531e-02, -6.08447380e-03,
       -3.26176398e-02, -1.15846833e-02, 1.53988935e-02, 3.16432081e-02,
       2.39500999e-02, 2.90510226e-02, 6.93519637e-02, 3.14590475e-03,
       -1.57178435e-02, -3.14933397e-02, 3.75226326e-03, 1.37249539e-02,
       4.85461801e-02, -5.70596429e-03, -3.32136732e-03, 1.48111256e-02,
       -1.43007925e-02, -2.50112964e-03, -3.94313894e-02,
       -4.51950729e-02, -5.70810260e-03, 2.48896256e-02, 4.46208473e-03,
       1.21496115e-02, 3.23543767e-03, -1.32939629e-02, -1.14513785e-02,
       -1.37257241e-02, -4.72748280e-02, -2.40256567e-03,
       -2.10985960e-03, -1.63451750e-02, 2.28518602e-02, 9.63977352e-02,
       1.17173577e-02, -1.19710877e-03, -1.90316662e-02, 1.75905530e-03,
       1.97352692e-02, 3.76167931e-02, 3.61551084e-02, 5.19837998e-02,
       6.04876652e-02, -2.61877174e-03, -2.67780107e-02, -2.05748435e-02,
       -1.46564059e-02, 3.58607434e-02, 2.17615385e-02, 4.54673404e-03,
       -3.70136695e-03, 3.50636095e-02, -2.22900626e-03, -4.53630323e-03,
       -7.54538411e-03, -1.74909811e-02, 1.15389051e-02, -4.59475769e-03,
       -2.92729903e-02, -3.56415240e-03, 1.19712092e-02, -2.16042530e-02,
       -3.19914259e-02, -1.17396889e-03, -1.77779477e-02,
       -1.32541154e-02, 6.57407509e-04, -1.78647786e-02, 6.10047765e-02,
       5.94419017e-02, 2.52587572e-02, 2.73356866e-03, -1.70989837e-02,
       3.19467261e-02, 1.83663927e-02, 3.19354311e-02, 3.31720486e-02,
       4.67923619e-02, 2.30384450e-02, -1.93592440e-02, -3.49081419e-02,
       -2.72406973e-02, 2.29457207e-02, 1.34752663e-02, 3.69215868e-02,
       6.45349920e-02, 2.34051347e-02, 3.12689766e-02, -1.83899037e-03,
       -1.23109175e-02, -2.44570952e-02, 3.35927471e-03, -8.56950600e-03,
       1.30280964e-02, -2.25043278e-02, -2.42809691e-02, -2.04082988e-02,
       -3.16779166e-02, -5.61422780e-02, 5.15282433e-03, -3.95655297e-02,
       -2.87586711e-02, -1.90289114e-02, 4.20655077e-03, 3.47720459e-02,
       -3.75253236e-04, -3.34186070e-02, -2.92151887e-02,
       -7.17637176e-03, 2.19405722e-02, 6.32549496e-03, 5.10090739e-02,
       8.79522264e-02, 8.38933745e-04, -5.76816965e-03, -3.54429781e-02,
       1.32863671e-02, 5.14325611e-02, 2.20742095e-02, 7.33105559e-03,
       4.38686796e-02, 4.04189564e-02, -2.95402706e-02, -7.42619717e-03,
       -5.57728000e-02, -4.65454906e-02, -3.36604416e-02,
       -3.63785289e-02, -8.64493940e-03, 1.88631508e-02, 2.58793216e-02,
       -1.42865544e-02, -3.09850182e-02, -6.66705295e-02,
       -1.45182163e-02, 9.12111439e-03, -4.71280096e-03, -3.50279696e-02,
       2.80847196e-02, 1.37948189e-02, -1.68500300e-02, 6.14680443e-03,
       -3.85480858e-02, -1.73152294e-02, 9.02918342e-04, 7.94132799e-03,
       -1.84538756e-02, -1.82768132e-03, 2.52959728e-02, -1.39929708e-02,
       2.58367807e-02, -3.70858759e-02, -5.67743108e-02, -1.01034464e-02,
       -1.12509551e-02, -4.57978100e-02, -2.48612054e-02, 8.45684111e-03,
       6.93768822e-03, -1.99682050e-04, -5.47660775e-02, -2.48781461e-02,
       -7.10015884e-03, 9.54029430e-03, -2.40972955e-02, 2.59263869e-02,
       1.61600877e-02, 9.38066188e-03, 3.74080092e-02, -9.19992477e-03,
       -5.72565794e-02, -1.41551727e-02, -1.24632083e-02,
       -3.21868658e-02, -2.23003514e-02, 1.26543399e-02, -3.05667948e-02,
       3.06189880e-02, -4.17092480e-02, -2.82705873e-02, -3.17231193e-03,
       1.04957249e-03, -3.40225059e-03, 1.41758230e-02, -6.96689542e-03,
       2.78733089e-03, -3.37550882e-03, -4.89370562e-02, -6.34490803e-04,
       -2.60287225e-02, -4.31027561e-02, -2.93875914e-02, 9.54076927e-03,
       -4.61440207e-03, -1.00546731e-02, 8.46236497e-02, 1.90899911e-04,
       -2.34924220e-02, -1.18759405e-02, 3.81384091e-03, -4.49084071e-03,
       8.14579707e-03, -2.96875555e-02, -6.36255834e-03, 3.77544127e-02,
       -2.98776999e-02, -7.94325117e-03, -2.80214380e-02,
       -1.41479811e-02, -2.15644371e-02, -1.15519832e-03,
       -6.07218826e-03, -4.14127391e-03, -1.02585694e-03,
       -2.71983445e-02, 3.22554796e-03, -3.27957533e-02, -3.68635692e-02,
       -5.37871644e-02, -3.85430362e-03, -1.18815303e-02,
       -1.07534882e-02, 1.04397219e-02, -2.43602674e-02, -3.88107188e-02,
       -3.64210196e-02, -4.95090224e-02, -2.53782403e-02,
       -5.73031139e-04, -2.17484422e-02, -8.24349094e-03, 1.43074133e-02,
       -5.73483109e-02, -4.49790806e-03, -1.49573060e-02,
       -1.82331651e-02, -4.59509045e-02, 1.60203241e-02, 2.10767742e-02,
       2.75597423e-02, 4.60512154e-02, -3.93632092e-02, -3.05836573e-02,
       -1.63332596e-02, -3.51754180e-03, -1.49913756e-02, 4.94510829e-02,
       4.38765660e-02, 2.72707912e-05, 3.18113081e-02, -4.99642082e-03,
       -4.35385257e-02, -2.45633367e-02, -2.06964202e-02,
       -1.91798725e-03, 1.40869804e-02, 9.88005847e-03, -2.78944597e-02,
       1.15631279e-02, -1.84581932e-02, -4.70060222e-02, -4.00478169e-02,
       -3.78200524e-02, -9.50520765e-03, 6.00812398e-03, -2.33683549e-02,
       3.29345018e-02, 7.96898901e-02, 4.01508957e-02, 4.20789327e-03,
       1.09259272e-02, 7.20544765e-03, 2.20601307e-03, 3.38076055e-02,
       3.49346474e-02, 3.42014879e-02, 6.78818226e-02, 5.72170541e-02,
       6.08352618e-03, 1.52663328e-02, 8.72574002e-03, 9.67925042e-03,
       3.84311527e-02, 3.21099162e-02, -1.79738794e-02, -5.62819792e-03,
       1.19106853e-02, 2.65175533e-02, 5.75216040e-02, 7.76972100e-02,
       3.85982729e-02, 2.93455087e-02, 8.57219100e-03, -3.85666601e-02,
       -6.32136315e-02, -5.20036034e-02, -7.44606555e-02,
       -1.21063199e-02, -1.52097763e-02, -2.81145740e-02,
       -4.64549549e-02, -4.82288599e-02, 4.95653078e-02, 5.55549450e-02,
       4.55956571e-02, 5.03890701e-02, 9.79449227e-02, 1.25349164e-01,
       5.55249490e-02, 4.80759852e-02, 4.61417437e-02, 2.18613655e-03,
       -4.11256514e-02, -4.26911265e-02, -5.13250604e-02, 4.09985557e-02,
       1.29254395e-02, -2.29877289e-02, -5.08052185e-02, -2.03731339e-02,
       2.37464793e-02, 5.77339856e-03, 9.40322818e-04, 5.78058185e-03,
       -2.24993471e-02, 1.05637999e-03, 1.44979521e-03, -2.29419842e-02,
       1.63315679e-03, -1.54761858e-02, -3.18226591e-02, 6.12192927e-03,
       1.09571253e-03, -3.04174460e-02, 2.44025849e-02, 3.06281401e-03,
       -5.21577559e-02, -2.02860069e-02, 3.53759639e-02, -1.11775734e-02,
       -6.07646536e-03, -1.59336384e-02, -2.24982630e-02, 2.03633867e-02,
       2.23911237e-02, -1.35053219e-02, 1.39490617e-02, 1.20502515e-02,
       -3.99781168e-02, -2.12306790e-02, -2.94599123e-03,
       -2.54322141e-02, 5.68229072e-02, 2.45634932e-02, -2.65789051e-02,
       -5.79914660e-04, 5.02719507e-02, -1.64451152e-02, -1.34126665e-02,
       -9.36752837e-03, 3.80243622e-02, -6.91016996e-03, -1.26295816e-02,
       -1.46546941e-02, 5.15612029e-02, 3.60093005e-02, -3.86330970e-02,
       -3.75787541e-02, 1.20548215e-02, 3.93517166e-02, 1.01933600e-02,
       -2.11285092e-02, -1.28759304e-02, 4.52506505e-02, 5.84123656e-02,
       -1.84579249e-02, -3.27048227e-02, -1.09969089e-02,
       -8.64063390e-04, -1.18548283e-02, -8.94381944e-03,
       -3.13591063e-02, 4.72964942e-02, 6.33980557e-02, -3.54698710e-02,
       -3.03280465e-02, -1.31425960e-03, -5.40789030e-03, 1.51296696e-02,
       -1.96527578e-02, -3.13695706e-02, 4.70430367e-02, -4.46940288e-02,
       -4.26870100e-02, 3.80285643e-02, 4.83825579e-02, 5.96543662e-02,
       2.07088832e-02, 1.37786483e-02, -4.27491888e-02, -4.01995033e-02,
       -2.39578523e-02, 3.89370173e-02, 9.53782350e-02, 5.57474531e-02,
       2.19138321e-02, 4.66545485e-02, 1.37021272e-02, -1.80680938e-02,
       -5.78537472e-02, -5.24196811e-02, -5.98498881e-02, 1.51885347e-02,
       4.11685817e-02, 4.76376675e-02, 6.38715848e-02, 7.63171166e-02,
       -9.34840739e-03, -5.13999462e-02, -4.59246412e-02,
       -7.04086758e-03, 2.45828144e-02, 3.12585421e-02, 1.46089941e-02,
       7.08272830e-02, 8.06294680e-02, 6.00424036e-02, -2.51664948e-02,
       6.83533028e-02, 5.02789915e-02, 2.24048719e-02, 2.84496765e-03,
       -2.29662028e-03, -1.09635880e-02, -2.42769103e-02, 4.68131229e-02,
       3.40966769e-02, 1.30014773e-02, 2.15637665e-02, 8.09215754e-03,
       1.05093271e-02, -1.31291547e-03, -1.61570571e-02, 2.61523649e-02,
       5.30738682e-02, 2.39226688e-03, 5.54518141e-02, 6.28129318e-02,
       1.36412345e-02, -2.85845622e-02, -3.26179597e-03, 1.28426654e-02,
       -5.94553025e-03, 6.35388717e-02, 3.96327376e-02, 1.50783518e-02,
       5.42600080e-02, 4.68161926e-02, -2.03205701e-02, 6.20442722e-03,
       -2.63977945e-02, -2.13507414e-02, -1.12571251e-02,
       -2.31305957e-02, -2.49721240e-02, 4.15361561e-02, 7.57759288e-02,
       7.97815844e-02, 3.07394024e-02, 6.57602549e-02, 6.29384592e-02,
       6.94893748e-02, -2.26523317e-02, -5.19558713e-02, -3.33068520e-02,
       4.23208671e-03, 2.25799102e-02, 2.55338866e-02, 2.02408340e-02,
       2.30926778e-02, -3.87702603e-03, -3.93976979e-02, -1.36186499e-02,
       4.79360521e-02, 8.01725015e-02, 3.29692550e-02, 2.70745880e-03,
       5.41205965e-02, 5.75183965e-02, 1.82655863e-02, -4.87376973e-02,
       -2.92525478e-02, -1.95065532e-02, 7.61113223e-03, -1.60199851e-02,
       -8.63739103e-03, -4.30318993e-03, -1.68742593e-02,
       -2.63218023e-02, -6.13114536e-02, -2.51946785e-02,
       -5.57679730e-03, -1.62715130e-02, 1.56102106e-02, -2.87724584e-02,
       3.20183448e-02, 2.66326740e-02, 2.41680592e-02, -1.06392847e-02,
       -1.58454515e-02, -1.45504847e-02, -3.43751311e-02,
       -2.86416542e-02, -6.35944009e-02, -2.57004295e-02,
       -1.73315741e-02, 1.73651967e-02, 1.45166991e-02, -1.61018327e-03,
       2.79049342e-03, 7.33483071e-03, 3.11222356e-02, -5.59113324e-02,
       -1.15510775e-02, -2.58558840e-02, 1.27891470e-02, -3.68530378e-02,
       6.22996595e-03, -2.45823078e-02, -4.25063893e-02, -1.89377703e-02,
       -6.22990318e-02, -3.65437604e-02, -3.22301090e-02,
       -2.23012846e-02, 1.26030145e-03, 1.93312904e-03, 2.78130565e-02,
       7.12313503e-03, 1.46943470e-02, -2.81981751e-02, -1.87686030e-02,
       1.12603167e-02, 3.72838899e-02, 5.14442893e-03, -1.09621100e-02,
       5.42676216e-03, 1.61318537e-02, -2.08620285e-03, -2.85602007e-02,
       -3.74277532e-02, 1.01441136e-02, 3.86276208e-02, -4.35497351e-02,
       8.65830295e-03, 1.74371228e-02, -3.85672413e-02, -4.33242181e-03,
       -2.31645927e-02, 3.63864517e-03, -1.27759983e-03, 5.36566135e-03,
       -2.49252487e-02, -3.33435237e-02, 5.18803624e-03, -4.82008560e-03,
       -2.95842886e-02, -5.00335991e-02, -5.12458831e-02,
       -1.93757396e-02, 9.37982369e-03, -6.45270720e-02, -2.00942550e-02,
       8.11272115e-03, 6.89182663e-03, 2.19566692e-02, 7.48812361e-03,
       2.40977276e-02, 2.39842143e-02, 3.50283599e-03, -3.92634645e-02,
       -2.66184192e-02, -2.79204268e-02, -1.38058225e-02, 1.50071979e-02,
       3.87824140e-02, 2.01426186e-02, 3.51028144e-02, -7.46917026e-03,
       -4.06941548e-02, -2.79872995e-02, 2.01022835e-04, 2.59619318e-02,
       2.36252621e-02, -1.61721576e-02, 4.95512330e-04, 1.19706066e-02,
       3.58626693e-02, -1.05502568e-02, -3.32023017e-02, -9.69112199e-03,
       1.30434735e-02, 2.91071981e-02, 3.33411135e-02, -2.63809189e-02,
       -1.11230125e-03, -4.54431400e-03, -2.12413929e-02,
       -1.33091277e-02, -5.10354014e-03, 1.62701793e-02, 2.14939583e-02,
       2.78777666e-02, 4.00564186e-02, 2.46776380e-02, 2.24394463e-02,
       -4.35806140e-02, -2.47798860e-02, -1.90754961e-02,
       -7.19162030e-03, 2.87973695e-02, 4.17060517e-02, -9.32603981e-03,
       -1.42596364e-02, -3.41505371e-03, -7.08145052e-02,
       -5.51153254e-03, 3.77967693e-02, 4.35464904e-02, 5.81506081e-02,
       4.77745645e-02, 6.07919414e-03, 1.77809093e-02, -5.32980962e-03,
       -2.11298764e-02, -1.64757818e-02, -1.21511461e-03, 2.87218194e-04,
       1.81395635e-02, 4.87956740e-02, -6.07647758e-04, 7.81764183e-03,
       -1.62500292e-02, -3.32845971e-02, -2.70307139e-02, 1.41991889e-02,
       -1.76953487e-02, -7.31541822e-03, -1.97843816e-02,
       -1.18436534e-02, -2.53367238e-02, 2.23398749e-02, -3.58340964e-02,
       4.63117147e-04, 6.39735609e-02, -1.72229167e-02, 1.18031921e-02,
       2.39082891e-03, -2.17187982e-02, -3.52848284e-02, 3.93270627e-02,
       9.56361275e-03, 2.09377967e-02, 1.62605885e-02, -3.21669988e-02,
       -6.77375402e-03, -3.76051932e-04, -2.80094761e-02,
       -1.49265146e-02, 3.45004611e-02, -3.81237231e-02, 1.31605091e-02,
       2.95525342e-02, -3.72813344e-02, -1.36281298e-02, 1.88178681e-02,
       -2.29032524e-02, -2.31874753e-02, 5.64053319e-02, 1.27358101e-02,
       2.76611536e-03, 4.88793738e-02, -2.42231153e-02, 8.28478893e-04,
       1.53824678e-02, -9.97434091e-03, -3.66607867e-02, 3.54351327e-02,
       6.09040912e-03, 1.53745301e-02, 7.98278749e-02, 1.90927833e-02,
       -3.58591452e-02, -8.36397428e-03, -1.07138846e-02, 2.28559086e-03,
       3.07949763e-02, -3.36658699e-03, 3.71906883e-03, 1.65817104e-02,
       -3.22878174e-02, -7.81467743e-03, 7.76231894e-03, -4.68171611e-02,
       -5.15305959e-02, 5.00872433e-02, 1.27730668e-02, -3.75807025e-02,
       2.07682904e-02, -2.63634399e-02, -2.96097510e-02, -5.52260224e-03,
       -5.86994663e-02, 8.11548717e-03, 4.93578203e-02, -5.01518045e-03,
       -4.83643496e-03, 7.25194886e-02, 5.61202364e-03, -3.49573232e-02,
       1.07156411e-02, 1.63006669e-04, -1.20699881e-02, 1.83495656e-02,
       -3.45178284e-02, 5.63602103e-03, 3.05302255e-02, -2.51456108e-02,
       -9.51823872e-03, -7.38625508e-03, -1.50367487e-02,
       -4.02825512e-02, -2.13771313e-02, 1.69079436e-03, -2.70947348e-02,
       2.84394175e-02, -1.24435527e-02, -2.59502921e-02, 8.26853421e-03,
       -2.80864537e-02, 8.38449597e-03, 6.40862659e-02, -8.58763233e-03,
       -1.68843959e-02, -1.15842735e-02, -2.77857725e-02,
       -9.95751121e-04, -1.21754790e-02, -4.36851420e-02,
       -5.26529215e-02, 8.39357730e-03, -1.06175914e-02, -1.58432275e-02,
       -8.63597612e-04, -4.56177779e-02, -2.35239291e-04, 1.90013228e-03,
       -7.49475881e-03, -5.81774451e-02, -4.94686440e-02,
       -1.37526346e-02, 9.56464931e-03, 6.07187441e-03, -3.50833908e-02,
       -9.15670581e-03, -1.25612142e-02, -2.78863758e-02,
       -2.25519724e-02, 9.18476610e-04, 2.39416063e-02, 9.81997233e-03,
       -4.34330106e-02, -4.80129682e-02, -6.29183650e-03,
       -1.35355657e-02, -2.62258183e-02, -5.14276735e-02,
       -2.83430517e-03, -2.51480453e-02, 2.96336357e-02, -5.08883549e-03,
       -2.52156891e-03, -2.67203506e-02, -3.15044671e-02,
       -1.34094143e-02, -3.22748162e-02, 8.60871375e-03, -1.84948687e-02,
       -4.79712570e-03, 1.83717795e-02, 2.56789327e-02, 3.91330943e-02,
       1.21174017e-02, -1.29737221e-02, -1.32669620e-02, 5.15355309e-03,
       2.01336183e-02, -7.95163121e-03, 3.13254967e-02, 2.50756852e-02,
       1.07690860e-02, 4.06477554e-03, 2.36370545e-02, 7.25865690e-03,
       1.51970591e-02, 1.57926492e-02, 2.69110892e-02, -5.61099325e-04,
       -8.34751874e-04, 1.46818170e-02, 8.44727363e-03, 9.07167047e-03,
       1.41203208e-02, 2.59879790e-02, 1.49453874e-03, 1.76419225e-02,
       1.43867219e-02, -2.76432820e-02, 9.91736189e-04, 2.81690434e-03,
       -2.37826426e-02, 9.78283118e-03, 4.30620536e-02, 1.43326242e-02,
       2.11875401e-02, 5.21007255e-02, 1.56794265e-02, 5.19093685e-02,
       8.79907906e-02, 1.10638991e-01, 2.76403930e-02, 2.67960243e-02,
       2.44576652e-02, -1.92428343e-02, -3.21084820e-02, -5.68791069e-02,
       -3.56997661e-02, 5.98056149e-03, -1.71859656e-02, -2.73966901e-02,
       -4.53547500e-02, -2.28725690e-02, 2.91809533e-02, 3.14825848e-02,
       1.59411356e-02, 1.09586783e-01, 8.55047107e-02, 4.76455912e-02,
       8.04726221e-03, 5.53551465e-02, 7.59963354e-04, -3.26230414e-02,
       -5.48357479e-02, -4.46553715e-02, -6.30680891e-03, 3.55874412e-02,
       -5.01824357e-02, -5.94539717e-02, -5.88670969e-02,
       -4.07502390e-02, 3.56203876e-02, -1.24497507e-02, -9.50430613e-03,
       2.12669075e-02, -1.76519565e-02, 2.88846083e-02, 2.07737964e-02,
       -8.30966234e-03, 2.19255686e-02, 9.24165174e-03, -2.35950500e-02,
       -1.99095774e-02, -2.02408619e-02, -1.68652125e-02, 2.76597980e-02,
       -9.25417710e-03, -1.70828775e-02, 1.57429627e-03, 3.35893668e-02,
       1.01145953e-02, 1.89454500e-02, 5.77812940e-02, -7.08660809e-04,
       3.05114668e-02, -4.27041762e-03, -2.06135679e-02, 2.18624081e-02,
       1.89757382e-03, -1.58723537e-02, -9.11216345e-03, 9.56382975e-03,
       -3.03108413e-02, 2.20533423e-02, -5.43669472e-03, -1.34077985e-02,
       1.39909275e-02, 4.07386571e-02, -2.35356949e-02, -2.09771879e-02,
       9.45469830e-03, 3.46730016e-02, 3.42037641e-02, 1.78644303e-02,
       -6.69874251e-03, 6.51436578e-03, 3.78942676e-02, -2.24121436e-02,
       -3.60511988e-02, 3.24527337e-03, -1.23923663e-02, 2.17938107e-02,
       -1.70968415e-03, -4.03958745e-02, -7.69005809e-03,
       -1.25274267e-02, -2.17837561e-02, -2.81346105e-02, 1.59958769e-02,
       2.76367608e-02, 5.53364009e-02, 8.44441913e-03, -1.38655892e-02,
       -3.28359231e-02, 8.48195888e-03, 1.76236837e-03, -6.79090945e-03,
       1.30216507e-02, 2.15863157e-02, 4.14095037e-02, 1.98105108e-02,
       -2.52126753e-02, 6.00011367e-03, -3.07278596e-02, -6.57188371e-02,
       -4.37947325e-02, -2.81405617e-02, 3.10249962e-02, 6.91099092e-02,
       8.26539472e-02, 1.20956795e-02, -2.45028622e-02, 2.05155220e-02,
       -2.85132811e-03, 1.25120627e-02, -2.94174562e-04, -8.24040174e-03,
       5.10680228e-02, 8.71127397e-02, 8.77759010e-02, 4.34768163e-02,
       -3.25954072e-02, -5.81971742e-02, -2.52248012e-02,
       -5.11091053e-02, -1.54441278e-02, -2.39474960e-02, 4.80794674e-03,
       -3.82973887e-02, -4.43861857e-02, -1.35235945e-02,
       -2.63279080e-02, -4.12686281e-02, -1.05536673e-02,
       -8.34692083e-03, 2.55972985e-02, 4.83174548e-02, 2.96792891e-02,
       1.17287962e-02, 8.40632915e-02, 7.59926140e-02, 1.53884785e-02,
       -1.60990376e-02, 1.30245928e-02, -1.14296731e-02, -2.45063137e-02,
       5.50497174e-02, 5.81594408e-02, 3.62654440e-02, 7.79569969e-02,
       2.96074934e-02, -3.24748456e-02, 1.63275376e-02, 2.63124965e-02,
       1.68050057e-03, -6.05034828e-03, 7.07363011e-03, 5.04966862e-02,
       2.03302465e-02, -3.26205045e-02, -6.97283424e-04, 3.56057938e-03,
       -2.00418606e-02, -1.99139584e-02, 3.41859111e-03, 5.03518470e-02,
       1.46519700e-02, 2.14168914e-02, -3.24502848e-02, -1.85081586e-02,
       -2.75259418e-03, -1.57500468e-02, -2.48612240e-02,
       -4.01034467e-02, -7.71196978e-03, -3.19294408e-02, 3.60713340e-02,
       9.64504201e-03, -2.65954174e-02, -1.36356521e-02, 9.36998054e-02,
       1.14619523e-01, 4.89693508e-02, -4.03621346e-02, -4.64925319e-02,
       -1.04722586e-02, -3.11730821e-02, -4.52455916e-02,
       -5.69783561e-02, 1.43654579e-02, 2.74547469e-02, 1.58464257e-02,
       -3.12756076e-02, -3.43590118e-02, 2.50188150e-02, -8.19312595e-03,
       -2.25039944e-02, 1.26053905e-02, 7.80761987e-02, 1.36045560e-01,
       1.06131263e-01, 9.84013360e-03, -8.60427320e-02, 1.62537000e-03,
       -3.57186534e-02, -5.77985942e-02, -7.37272250e-03, 1.00240344e-02,
       4.04421911e-02, 8.50040540e-02, -1.81726944e-02, -1.99664664e-02,
       1.99443717e-02, 2.21728552e-02, 2.36911662e-02, -3.83679084e-02,
       -8.66541825e-03, -4.27162535e-02, 4.95638512e-03, -8.96275416e-03,
       2.04923172e-02, 1.12766474e-02, 4.00746358e-05, -1.53405629e-02,
       -3.37178409e-02, -1.36818904e-02, -4.03275080e-02,
       -1.62460953e-02, 9.35995113e-03, -1.02894409e-02, 4.29281443e-02,
       1.45814456e-02, -3.42348195e-03, -3.88936349e-03, 1.88863883e-03,
       3.67230875e-03, 8.84864777e-02, 4.72647958e-02, -1.07666589e-02,
       9.30632185e-03, 4.69171023e-03, -1.62258074e-02, 4.35135793e-04,
       -1.82680059e-02, -5.07382080e-02, 8.40936694e-03, 1.72451120e-02,
       9.84500814e-03, 3.61627550e-03, -2.90665403e-02, -3.21408436e-02,
       -3.80095430e-02, -1.32241892e-03, -2.56645810e-02, 1.14686796e-02,
       1.52183641e-02, -4.63662902e-03, 5.58917178e-04, -1.37334578e-02,
       -1.56566892e-02, -1.43060042e-02, -2.46413369e-02,
       -3.68885361e-02, -4.37267681e-06, 1.98469982e-02, 9.94280726e-03,
       1.31058823e-02, -1.99514367e-02, -2.62077171e-02, -1.16877938e-02,
       -2.42753676e-03, -1.70689654e-02, 3.77758555e-02, 2.26708446e-02,
       -1.43189309e-02, 5.25393151e-02, 4.63940995e-03, -6.13671029e-03,
       2.05478724e-03, -5.75033591e-05, -9.41765495e-03, 5.74751459e-02,
       1.40097551e-02, -3.44855525e-02, -5.88234933e-03, 1.53832743e-02,
       2.14261208e-02, -2.99035870e-02, -6.68839365e-03, -2.36096475e-02,
       3.15693356e-02, 6.50245370e-03, -3.03876027e-02, -1.08293984e-02,
       1.47105828e-02, 2.03115419e-02, 4.76943003e-03, -3.82540636e-02,
       -3.35195772e-02, 8.74823425e-03, -2.68612280e-02, 1.59625076e-02,
       3.15600671e-02, -3.04645835e-03, 4.88647912e-03, -2.61050649e-02,
       -9.47310764e-04, 2.14927760e-03, 1.18547030e-01, 2.03129817e-02,
       1.39590502e-02, 1.65887922e-02, 3.17986421e-02, 1.50872963e-02,
       2.79931128e-02, -2.87191086e-02, -1.23505723e-02, 7.87926391e-02,
       1.69628803e-02, -2.41651461e-02, 5.27503109e-03, 2.74318561e-04,
       2.94020195e-02, -2.10888647e-02, -2.56764889e-02, -1.82731170e-02,
       8.93214531e-03, 6.18200935e-03, -1.18266083e-02, -5.61812054e-03,
       -4.21285853e-02, -1.82250589e-02, -6.55473676e-03,
       -5.19924685e-02, -2.13083215e-02, -9.12799407e-03,
       -3.95767428e-02, 2.69940104e-02, 2.40168832e-02, -4.48758015e-04,
       3.32638323e-02, -4.80797654e-03, -2.00273306e-03, 1.39195174e-02,
       6.35240525e-02, 4.82049435e-02, 6.14352897e-02, 5.74773438e-02,
       -2.39658598e-02, 1.01666888e-02, 1.97481606e-02, 2.20277565e-04,
       -1.58385001e-02, 2.49314923e-02, 3.00947297e-02, 3.71328257e-02,
       5.30211115e-03, -3.74532565e-02, -1.83723178e-02, -2.66329274e-02,
       -3.60575505e-02, -3.31213139e-02, 1.54826920e-02, -4.01856452e-02,
       2.01001894e-02, -4.98406636e-03, -5.98433763e-02, -1.58202834e-02,
       -1.34332879e-02, -4.43252996e-02, -4.92912605e-02,
       -4.58434643e-03, -2.73851529e-02, 6.81200773e-02, 7.40053803e-02,
       1.13022123e-02, 1.52129140e-02, 1.63893681e-02, -7.00775860e-03,
       -2.04328373e-02, 2.37566233e-02, 1.27720376e-02, 1.71129555e-02,
       3.42169069e-02, -1.52845331e-03, -2.84667686e-02, -8.26651230e-03,
       -3.63473222e-02, -3.15933414e-02, 5.24927210e-03, 9.90741793e-03,
       2.08085403e-02, 1.47543997e-02, -2.81357206e-02, 4.78912145e-03,
       -1.51389642e-02, -4.23124842e-02, -3.52348275e-02, 1.76589731e-02,
       1.43917529e-02, 2.59742793e-03, -7.18546892e-03, -2.68420968e-02,
       -2.07460243e-02, -3.98392640e-02, -6.37819991e-02,
       -1.12233553e-02, 1.48800714e-02, 4.54194099e-03, 5.41127548e-02,
       2.00515222e-02, -4.03138995e-03, -2.14334279e-02, -3.43188032e-04,
       -3.70142311e-02, -7.34185101e-03, 3.47856944e-03, 2.81549115e-02,
       8.78690742e-04, -3.00209839e-02, -3.66387330e-02, -3.07323746e-02,
       -6.95317192e-03, -5.36142327e-02, -1.55955181e-02,
       -1.27341493e-03, 9.31480248e-03, -1.52632557e-02, 4.61607194e-03,
       -9.04616248e-03, -1.56511385e-02, -1.85720623e-02,
       -1.83063056e-02, -4.32152580e-03, 5.61632849e-02, 5.62264770e-03,
       2.22878046e-02, 1.00376913e-02, -2.18501110e-02, -3.66174546e-03,
       1.75595237e-03, 7.37043039e-04, -1.88875087e-02, 3.88315916e-02,
       6.36090385e-03, -2.32500527e-02, -1.02548050e-02, -3.36967371e-02,
       -9.37447697e-03, 8.43438599e-03, -2.98651904e-02, -3.58560011e-02,
       -6.53140573e-03, -8.30550119e-03, -2.46872045e-02,
       -3.50743569e-02, -3.53647619e-02, -2.31813639e-02, 1.17757935e-02,
       1.25850858e-02, -3.81897427e-02, -1.53568769e-02, -1.37234479e-02,
       4.26683091e-02, 5.20094708e-02, -2.33783387e-02, -1.07105486e-02,
       -6.30249595e-03, -7.18963332e-03, -3.10217775e-02, 1.22529091e-02,
       -3.45383276e-04, 4.98996042e-02, 6.53939694e-02, 7.39930663e-03,
       -2.18523517e-02, -5.34738833e-03, 6.28264807e-03, -2.35653035e-02,
       2.62180306e-02, 2.91473395e-03, -1.25583820e-02, -1.83031317e-02,
       -5.24855107e-02, -3.09793334e-02, 4.31189034e-03, -5.25740441e-04,
       -2.68586017e-02, -8.26769695e-03, -3.65745574e-02,
       -8.48599710e-03, 1.09141180e-02, -3.56863514e-02, -3.21536064e-02,
       -5.81277441e-03, -2.29961071e-02, -4.34143730e-02,
       -4.88636969e-03, -1.76978707e-02, 1.77239291e-02, 4.57290858e-02,
       1.97306406e-02, -9.53847310e-04, 2.47403644e-02, 4.69535477e-02,
       3.81704830e-02, 5.38838021e-02, 3.77740487e-02, 9.38988477e-03,
       3.87052111e-02, 2.64386437e-03, 1.28252096e-02, 6.16723392e-03,
       1.73789263e-02, 6.31037876e-02, 8.27629641e-02, 6.75916150e-02,
       7.96989724e-03, 2.66708620e-02, 1.84726075e-03, -6.90326467e-03,
       -4.44814237e-03, -7.54310191e-03, -1.29599851e-02, 2.85508614e-02,
       1.21777393e-02, -5.72945513e-02, 5.55371493e-03, -1.11701256e-02,
       -3.52145173e-02, -4.62015904e-03, -2.55253818e-02,
       -1.25728024e-03, 6.39852881e-03, -2.98251230e-02, 1.26181245e-02,
       4.04863171e-02, 2.83383317e-02, 1.23081461e-01, 7.49950260e-02,
       2.53135040e-02, 3.33939642e-02, 1.00642003e-01, 4.01986465e-02,
       -9.87433270e-03, -4.56564240e-02, -1.83283333e-02, 3.97287756e-02,
       5.47114089e-02, -5.57478815e-02, -5.39000668e-02, -1.43604912e-02,
       -4.52393247e-03, -1.02241745e-03, 4.06503342e-02, 5.09971082e-02,
       7.35023245e-02, 5.99820577e-02, 2.93378197e-02, 1.75406188e-02,
       2.89145280e-02, 4.54625487e-03, -3.18576321e-02, -4.18997966e-02,
       -2.64375880e-02, 2.27427743e-02, 1.27837341e-02, -6.85316622e-02,
       -5.59145547e-02, -3.32768448e-02, -2.84754857e-02, 3.57995443e-02,
       6.99171750e-03, 1.57203097e-02, 2.57390849e-02, 5.79408091e-03,
       1.19644986e-03, -4.66713635e-03, 2.40734848e-03, 7.92437140e-03,
       2.64963936e-02, -1.15471715e-02, 1.12363137e-02, 2.74473708e-02,
       -5.81943728e-02, 1.94224492e-02, -2.16235109e-02, -3.34648304e-02,
       1.58271454e-02, 1.80223566e-02, 1.53221618e-02, 1.84403956e-02,
       2.74898447e-02, 1.83877517e-02, 1.75154358e-02, 1.10141626e-02,
       3.64981890e-02, 1.68724228e-02, -4.32831720e-02, -3.22645679e-02,
       1.22396331e-02, 1.86797045e-02, -3.32964510e-02, 1.64682213e-02,
       -1.29302172e-02, -2.54025124e-02, -1.88586097e-02, 2.52885725e-02,
       -2.47759223e-02, -3.56726870e-02, -5.78683428e-03, 4.11058357e-03,
       1.44401444e-02, -1.76681243e-02, -9.00341757e-03, -1.95098086e-03,
       3.57741714e-02, 8.93083680e-03, 1.06165558e-02, 1.37241813e-03,
       -2.09682789e-02, -2.39052791e-02, 1.03733875e-02, -2.70406771e-02,
       2.92289164e-02, 2.74376804e-03, -1.42698139e-02, -4.85733300e-02,
       1.55491857e-02, 3.24546359e-02, 3.24647911e-02, 7.08338246e-03,
       -3.03521077e-03, 2.88749468e-02, 2.35911589e-02, 9.82822850e-03,
       7.36809336e-03, 5.85927889e-02, 1.31022716e-02, -9.86908097e-03,
       2.37907488e-02, -1.13148587e-02, 3.01522538e-02, 2.33461633e-02,
       -1.85068119e-02, 1.56525597e-02, 1.09873060e-02, 9.79703106e-03,
       -1.83122978e-02, 8.96522496e-03, -3.60926948e-02, 2.42186412e-02,
       2.26188693e-02, -2.57880818e-02, -1.37639400e-02, 1.80388894e-02,
       -3.42926234e-02, 1.56142963e-02, 3.15685421e-02, -5.18457091e-04,
       3.06891557e-02, 1.16240568e-02, 1.45207606e-02, -3.51203431e-04,
       2.25091912e-02, 1.86244026e-02, -3.33485082e-02, -1.96309015e-02,
       -4.83161695e-02, 2.32738350e-02, 7.74696330e-03, 2.29089893e-02,
       -8.65436718e-03, 1.88299902e-02, 9.24655888e-03, -1.48794346e-03,
       -2.21984531e-03, -1.76522620e-02, 3.99920754e-02, 1.25559382e-02,
       -2.31721979e-02, -3.63163725e-02, 3.17117944e-02, 2.98279785e-02,
       -5.16472105e-03, 6.71395275e-04, -1.21151786e-02, 1.78274438e-02,
       -7.08283065e-03, 3.07505466e-02, 6.07025018e-03, 1.11859832e-02,
       -6.08486682e-03, -3.60679775e-02, -3.42029259e-02,
       -3.60519625e-02, -1.10595236e-02, -7.97820371e-03,
       -3.45835811e-03, -1.44011974e-02, 2.20715106e-02, 4.73177433e-02,
       9.63991508e-03, 8.02408438e-03, -2.44886335e-03, 1.11053186e-02,
       1.86109880e-03, 4.25417610e-02, 2.07951721e-02, -2.65905773e-03,
       -9.79571976e-03, 3.14971572e-03, -8.19413736e-03, -1.26180686e-02,
       2.34206691e-02, -1.68273244e-02, 1.92273594e-02, 2.44616531e-02,
       1.17703909e-02, -2.59841396e-03, -9.98398568e-03, 2.42744498e-02,
       3.72025184e-02, 3.70297115e-03, -5.78158721e-02, -1.07232826e-02,
       4.56557795e-03, -3.02245282e-02, 1.27099070e-03, -1.18859550e-02,
       -9.90467332e-03, 3.92464064e-02, -2.76366081e-02, -1.82463489e-02,
       3.29109142e-03, 1.94402970e-02, 1.07660191e-02, -6.30769972e-03,
       -1.91124938e-02, -8.78464151e-03, -8.27079732e-03, 6.99095253e-04,
       -3.12925950e-02, 9.38050821e-03, 7.32559618e-03, -6.29084976e-03,
       2.86350697e-02, -3.13273296e-02, -2.19451170e-02, 3.12490724e-02,
       2.71452088e-02, -6.79949485e-03, 1.68907885e-02, -1.89774274e-03,
       1.20688900e-02, 2.70435208e-04, -1.57019515e-02, -4.12831753e-02,
       8.51625875e-02, 4.87702116e-02, -1.87044144e-02, -5.73724927e-03,
       -2.17105076e-02, -4.55972785e-03, -3.31408530e-03,
       -2.31006611e-02, -3.48300263e-02, 3.87403555e-02, 2.40831040e-02,
       -4.63839248e-03, 1.55850705e-02, 8.55035614e-03, 1.02988575e-02,
       1.56117249e-02, -1.46226771e-02, -1.75212361e-02, 6.42465875e-02,
       6.88605681e-02, -2.94931815e-03, -2.76979222e-03, -1.23719787e-02,
       5.86456677e-04, 1.71247136e-03, -1.88212469e-02, -2.72899047e-02,
       3.17247659e-02, 2.19482649e-02, -3.56239416e-02, -3.60554201e-03,
       -3.53367813e-02, -1.99060347e-02, 1.56417247e-02, -2.90863402e-03,
       2.84702634e-03, 5.43169789e-02, 1.01744384e-02, -4.06767167e-02,
       2.14412119e-02, -2.41984073e-02, -1.13726910e-02, 2.99095009e-02,
       1.25471167e-02, -3.85643682e-03, 2.91437190e-02, -2.03087330e-02,
       3.39337275e-04, 1.67826302e-02, -1.37370387e-02, -5.15443797e-04,
       1.88044626e-02, 5.15414868e-03, -2.63137091e-02, 2.84397360e-02,
       1.46655496e-02, -1.07443808e-02, 5.33818230e-02, -1.70715172e-02,
       -9.45680775e-04, 1.36952382e-02, -4.00892319e-03, -3.26016545e-02,
       1.24292099e-03, -1.24207772e-02, -3.21188010e-03, 2.77719330e-02,
       -3.03773629e-03, 9.15877055e-03, 1.49994567e-02, 1.00636631e-02,
       -9.93403513e-03, 7.17682764e-02, 3.53029333e-02, -1.01262759e-02,
       -6.48059277e-03, 2.86225067e-03, -1.28109986e-02, 1.19045312e-02,
       -1.32124294e-02, -3.25256288e-02, 4.08259220e-02, 3.18663642e-02,
       3.22985114e-04, 4.64537032e-02, -8.20771884e-03, 4.02950076e-03,
       2.23095305e-02, 8.27561971e-03, -9.23343375e-03, -3.63250799e-03,
       6.79712510e-03, -1.12444488e-02, 1.28145954e-02, -1.22389020e-02,
       -3.77258994e-02, 9.34375264e-03, -2.68887244e-02, -8.45333375e-03,
       2.93855765e-03, 5.48645714e-03, 3.46700515e-04, 1.33081675e-02,
       -4.17384133e-03, 7.40023097e-03, -7.42913503e-03, 1.23466114e-02,
       -6.72364514e-03, 3.92747447e-02, 5.51239103e-02, 2.82181986e-02,
       2.04123580e-03, -3.89744006e-02, 3.63973156e-02, 3.34580690e-02,
       1.36067932e-02, -8.41005798e-03, 2.29535215e-02, 9.64447670e-03,
       2.06464455e-02, 2.76036654e-02, -1.24275489e-02, -1.81839038e-02,
       -1.68674737e-02, 1.19541045e-02, 5.89572964e-03, -1.02150720e-02,
       1.85052194e-02, 2.27569621e-02, 4.38178482e-04, -3.36053148e-02,
       -2.22703419e-03, 6.24798285e-03, -9.13327280e-03, -6.69821771e-03,
       -2.87403874e-02, -2.18637940e-02, 2.28236821e-02, 1.07783023e-02,
       -2.61105452e-04, 3.94340940e-02, 4.95853238e-02, 5.32331765e-02,
       -1.16726970e-02, 3.60844173e-02, -2.42804307e-02, 5.58083528e-04,
       -2.31527537e-03, -2.94855703e-03, -1.12028392e-02, 1.17615471e-02,
       2.60701124e-02, -2.75150687e-03, 9.58702993e-03, -2.05624625e-02,
       1.63366944e-02, 5.74504538e-03, -2.73310076e-02, 1.25981485e-02,
       2.37413570e-02, 1.73557643e-02, -2.96719614e-02, -3.17402091e-03,
       -2.25701891e-02, -2.41000708e-02, -3.26575674e-02,
       -2.77334396e-02, -9.42056533e-03, 4.28383611e-03, -8.76187347e-03,
       -5.47107607e-02, 4.01726505e-03, -2.16737874e-02, 2.39863875e-03,
       6.65670261e-03, -2.36750417e-03, 6.81497669e-03, 1.43736042e-02,
       2.70327572e-02, 1.82304217e-03, 2.86827292e-02, 1.78230274e-02,
       -1.57748889e-02, -6.55790884e-03, -1.22534800e-02, 1.46739930e-02,
       1.08284010e-02, 1.63935106e-02, -4.30027209e-03, 3.87621112e-02,
       -1.91396698e-02, -1.36736063e-02, 2.43728072e-03, -8.00869800e-03,
       -1.20093534e-02, -5.12398686e-03, 1.05415216e-04, -2.84465179e-02,
       1.13964593e-02, -4.68668481e-03, -2.32300572e-02, -2.02380028e-03,
       4.84133372e-03, -8.13500583e-03, -1.99115295e-02, -7.69675663e-03,
       -1.05711780e-02, -2.54915119e-03, -3.17312665e-02,
       -2.69384880e-04, 7.73770828e-03, 2.93674995e-03, 2.65703313e-02,
       1.70713849e-02, 2.08467636e-02, 2.95941136e-03, 2.83695646e-02,
       1.28214341e-02, -2.95813996e-02, -2.14845557e-02, -8.31696298e-03,
       4.65454115e-03, 4.68655229e-02, 4.45340388e-02, -2.04552282e-02,
       1.49347018e-02, 4.88069002e-03, -4.12096716e-02, -1.39069592e-03,
       -8.64658784e-03, -6.12192648e-03, 4.18954482e-03, -3.05750649e-02,
       -2.74418686e-02, 2.53803637e-02, -3.09790503e-02, -4.37635891e-02,
       1.20947720e-03, -3.75799239e-02, -2.52152756e-02, -2.51610484e-03,
       9.98710096e-03, -4.82738130e-02, 4.65625292e-03, -1.93424691e-02,
       -1.05768337e-03, -2.36741509e-02, -2.48590875e-02, 1.60750337e-02,
       4.49688472e-02, 2.71211416e-02, -1.97004247e-02, 1.05886981e-02,
       2.74304617e-02, -2.76557971e-02, 1.30296201e-02, 2.27379636e-03,
       2.53298543e-02, 2.18382776e-02, 7.93780014e-03, -1.68426502e-02,
       3.27006578e-02, 1.72103643e-02, 2.09558941e-02, -4.27437387e-03,
       -2.55857483e-02, 5.28486073e-03, 4.14788425e-02, 2.44273394e-02,
       -7.73611013e-03, -4.30319412e-03, 1.06892008e-02, -4.24150340e-02,
       -2.01346576e-02, -1.86166018e-02, -3.67104411e-02, 9.78590338e-04,
       -1.81165505e-02, -6.89375261e-03, -3.22567411e-02,
       -2.23963559e-02, -7.08073005e-03, 5.31657487e-02, 3.58602181e-02,
       7.71385059e-02, 4.71738838e-02, 1.77530441e-02, 1.81998741e-02,
       5.14058359e-02, 3.44296806e-02, -5.51171834e-03, 6.18278831e-02,
       3.35632525e-02, 2.42275614e-02, 7.26916781e-03, 1.73112936e-02,
       3.33643742e-02, 2.48619299e-02, 5.87071851e-03, -8.16395972e-03,
       2.24582329e-02, 3.23555875e-03, -1.95903871e-02, -2.70722136e-02,
       -2.06600446e-02, 1.95442419e-02, -8.38549994e-03, -6.05714554e-03,
       -2.43409704e-02, -1.40997274e-02, -2.55478304e-02,
       -3.58084291e-02, -3.97034995e-02, -2.71049980e-02,
       -1.12815090e-02, -2.89865658e-02, 3.09509598e-03, 2.02421285e-02,
       5.82336299e-02, 4.69441116e-02, 5.97387254e-02, -2.06641331e-02,
       4.55198959e-02, 3.39512937e-02, 9.03361104e-03, 2.29194555e-02,
       1.17336484e-02, 2.01327279e-02, -3.76730203e-03, 4.98011857e-02,
       -1.62944896e-03, -3.09782233e-02, -1.30665777e-02,
       -2.32676119e-02, -1.05874399e-02, 3.17792408e-02, -5.40613080e-04,
       1.90697107e-02, 3.26634236e-02, -3.36434282e-02, 3.08386749e-03,
       1.74059086e-02, -2.73078419e-02, 2.56070178e-02, 9.59980674e-03,
       -1.41859306e-02, -1.84162371e-02, 1.87698659e-02, 1.09770556e-03,
       -1.75308324e-02, 8.68242327e-03, -1.99276544e-02, -1.10654356e-02,
       3.92333195e-02, 1.43227959e-02, -5.13273850e-03, 1.49130896e-02,
       -2.70045977e-02, -1.80150326e-02, 7.39057502e-03, 1.95748378e-02,
       3.05082649e-02, -1.75018720e-02, -5.29002510e-02, 1.55703793e-03,
       7.76546728e-03, -2.88424343e-02, 2.35404912e-02, -2.27350388e-02,
       -4.62188497e-02, 6.84992271e-03, 2.69959103e-02, -1.12990066e-02,
       -3.93786747e-03, 3.86617146e-02, 1.30544519e-02, 1.36361560e-02,
       5.01701012e-02, -1.33765507e-02, 2.57127918e-02, 2.85097249e-02,
       -3.65973823e-02, -7.32100662e-03, 6.16696989e-03, -2.62965411e-02,
       1.24231512e-02, -2.31554992e-02, -6.54752329e-02, 1.64224468e-02,
       -2.55546179e-02, -3.10439672e-02, -5.10822348e-02, 1.16846804e-02,
       3.14966477e-02, 2.87826955e-02, 9.68549214e-03, -7.10798195e-03,
       1.03493975e-02, -6.93987031e-03, 1.30405708e-03, -1.24192098e-02,
       4.16226089e-02, 1.14464331e-02, 2.25210991e-02, 2.27717776e-02,
       -1.08942445e-02, 1.92872100e-02, 3.30225527e-02, -1.49897281e-02,
       -2.77881301e-03, 1.17844995e-02, 1.60659272e-02, 2.48082168e-02,
       4.12548473e-03, -4.77027893e-03, 2.33718939e-02, 2.71920022e-02,
       1.43976649e-02, -1.66126397e-02, 3.33566479e-02, 2.54276786e-02,
       3.45457941e-02, 2.05388330e-02, 2.41592880e-02, 4.29134630e-02,
       -1.15607409e-02, 1.41822435e-02, 2.86840391e-03, 5.68170100e-03,
       6.85966481e-03, 9.53648053e-03, -6.08851388e-03, -2.31614392e-02,
       6.02563284e-03, -2.27975519e-03, 2.70400625e-02, -6.92613656e-03,
       9.00582131e-03, 1.66055374e-02, 1.57718994e-02, 3.13080498e-03,
       -6.19398197e-04, 2.51956489e-02, 1.51853627e-02, 1.51003094e-03,
       -4.86680167e-03, 1.53347775e-02, 2.48482097e-02, 1.88753586e-02,
       3.93058144e-04, -2.09214482e-02, -4.95497091e-03, 1.81702226e-02,
       3.45875472e-02, -1.53425327e-02, 4.13371157e-03, 6.04450004e-03,
       2.99276952e-02, 1.21787814e-02, 1.87550299e-02, 2.27081869e-02,
       -2.29881201e-02, 2.10047830e-02, -6.20876532e-03, 1.58133311e-03,
       -1.16111189e-02, 6.35701045e-03, 1.51547100e-02, 1.21000325e-02,
       4.50214092e-03, -3.48114818e-02, 2.28741355e-02, 1.07180765e-02,
       -2.01184545e-02, -1.56646911e-02, 7.56210322e-03, -2.69005960e-03,
       -2.90339673e-03, -3.34125129e-03, -1.77054759e-03, 3.19079533e-02,
       -5.92722697e-03, 1.03390878e-02, -5.96453727e-04, 2.31561204e-03,
       8.94217379e-03, 3.85107361e-02, 4.20874134e-02, 2.26655640e-02,
       1.16663976e-02, -1.57644097e-02, 8.20765272e-03, -3.06544714e-02,
       -1.83197130e-02, -1.61400177e-02, 1.75811462e-02, 2.20542327e-02,
       -2.37712767e-02, -7.23649166e-04, -7.20881531e-03,
       -8.42918921e-03, -1.51150459e-02, 1.02702715e-02, 1.61996707e-02,
       4.93024616e-03, 1.01873754e-02, -3.24612949e-03, 7.88011029e-03,
       -6.83672633e-03, -1.70827396e-02, -2.45306995e-02,
       -1.87144615e-02, -1.28083033e-02, 8.55760183e-03, 1.00783277e-02,
       -1.44355483e-02, -7.45672267e-03, 5.43957856e-03, 2.40928084e-02,
       -1.19935405e-02, -5.56707941e-03, -1.29759964e-02, 1.18162604e-02,
       2.29484104e-02, 2.18965416e-03, 1.90682022e-03, -3.76717448e-02,
       -1.91064589e-02, -3.91069241e-02, -3.50890197e-02,
       -7.53849000e-03, 1.18425861e-03, -1.92906857e-02, 5.19683002e-04,
       2.01115515e-02, 1.75329261e-02, 1.20532652e-02, 1.38113396e-02,
       1.13837682e-02, -2.40608044e-02, 2.01035272e-02, 1.13120768e-02,
       -1.47234732e-02, 7.25679751e-03, 4.38676262e-03, -5.05637238e-03,
       1.11272978e-02, -3.79330944e-03, -5.21639623e-02, -1.06716212e-02,
       -7.21481908e-03, 2.74665542e-02, 7.75810378e-03, -1.88203119e-02,
       6.96278363e-03, 2.81062792e-03, 4.14069043e-03, -4.39238660e-02,
       -6.47750217e-04, -5.49818156e-03, 5.14767738e-03, -1.44162914e-02,
       -9.32325702e-03, -1.60604957e-02, 2.52158809e-02, -2.47934833e-02,
       -5.08355983e-02, -1.85362715e-02, -1.63360145e-02,
       -8.79449584e-03, 2.96159890e-02, -7.84305297e-03, 2.14101374e-02,
       2.49112304e-02, 3.56382430e-02, -4.31626923e-02, 1.26087414e-02,
       3.57100964e-02, -1.36510916e-02, 6.73579657e-03, -2.23273337e-02,
       -1.39413709e-02, -1.44154881e-04, 1.89342201e-02, -4.16062139e-02,
       2.72998139e-02, 1.76163632e-02, 6.38245977e-03, -4.07430436e-03,
       -1.73258204e-02, 7.00352434e-03, 3.19559909e-02, 8.70401505e-03,
       -3.93246375e-02, -1.88901406e-02, 1.52722665e-03, -1.41789848e-02,
       -1.02960523e-02, -2.05874890e-02, -1.99892670e-02, 7.38328090e-05,
       1.10942293e-02, -2.41674799e-02, -1.08680157e-02, -1.65527742e-02,
       8.47322750e-04, 3.43267396e-02, -8.26649927e-03, 3.80264642e-03,
       3.34513038e-02, 5.85768558e-02, 1.30653509e-03, -8.34520534e-03,
       -5.01720142e-03, -3.61129194e-02, 1.81976464e-02, -2.89041735e-02,
       -1.36225019e-02, 2.69417223e-02, 3.12897041e-02, -9.28463321e-03,
       1.98740349e-03, -3.10794804e-02, -1.29921304e-03, 2.23372318e-02,
       -8.45181663e-03, -9.94737074e-03, 4.85689193e-03, 5.90662658e-03,
       -2.91683823e-02, -7.02717807e-03, -1.55473147e-02,
       -3.10661029e-02, 3.60774361e-02, -3.08320951e-02, -2.24878639e-02,
       1.29079563e-03, 9.81396716e-03, -4.71800417e-02, -3.37148905e-02,
       -4.05491106e-02, 1.45172961e-02, 3.63588631e-02, -8.33430607e-03,
       2.12214049e-02, 1.93317998e-02, 7.05062598e-02, 2.37790588e-02,
       1.22430138e-02, 5.56572294e-03, 3.11606247e-02, 2.39598900e-02,
       -2.19989009e-02, 1.35757653e-02, -8.33919179e-03, 9.55565553e-03,
       -1.47791894e-03, -2.26521119e-02, -6.08580513e-03,
       -1.36279445e-02, 1.38075892e-02, -3.61882113e-02, 9.39479284e-03,
       -9.18202195e-03, 2.13913042e-02, -2.35070772e-02, -5.50754834e-03,
       -9.80799552e-03, -1.18263150e-02, 2.21224409e-02, -3.91649455e-02,
       7.89649878e-03, -1.86056625e-02, -5.33397272e-02, -3.31704803e-02,
       -7.07832025e-03, -1.75719196e-03, 2.77046915e-02, 2.92010270e-02,
       -2.12031752e-02, 1.97949242e-02, -2.88956426e-02, 1.63781233e-02,
       -1.59363225e-02, -6.95654657e-03, -6.65980810e-03, 6.97764615e-03,
       1.22297499e-02, -1.84810497e-02, -2.48861103e-03, -2.11764500e-02,
       -1.14322302e-03, -1.37985824e-02, 5.12347370e-03, -2.13278048e-02,
       3.84890772e-02, 3.56913470e-02, -2.66783480e-02, 2.69463751e-02,
       -1.38899842e-02, 3.60950548e-03, 4.16470226e-03, 4.93389368e-03,
       -1.18190013e-02, -4.52764658e-03, 1.50839752e-02, -4.17262763e-02,
       -3.00054834e-03, -1.44040110e-02, 1.74238440e-02, -2.18618475e-02,
       -3.38884704e-02, -3.07779051e-02, 5.34040667e-03, 1.57751497e-02,
       -1.96767366e-03, 2.21422855e-02, -2.84811798e-02, 2.62304638e-02,
       1.92640437e-04, 1.24933254e-02, 6.49083266e-03, -1.45556750e-02,
       -3.62133724e-03, 2.31999625e-03, 1.72122903e-02, -2.54129823e-02,
       -1.33170085e-02, -3.43779102e-02, 3.03445850e-03, -1.57672707e-02,
       3.87858716e-03, 4.34396043e-03, -2.22880114e-02, 2.73926947e-02,
       -6.05340023e-03, 9.35228541e-03, -1.76309738e-02, -1.41364457e-02,
       -8.93177278e-03, -2.64807101e-02, -2.87571196e-02,
       -2.80200038e-02, 2.76614241e-02, -2.33380217e-03, -2.98726168e-02,
       -4.81012352e-02, -1.74423214e-02, -6.41745236e-03,
       -2.11809631e-02, 1.89046450e-02, 1.04152110e-04, 1.79915142e-03,
       1.04211140e-02, 2.46325537e-04, -1.21934405e-02, 1.11327628e-02,
       -4.79813153e-03, -1.20594921e-02, 1.23291472e-02, 5.04703587e-03,
       -4.50663315e-03, 2.60368548e-03, 1.11113144e-02, -2.12890073e-03,
       2.57786829e-03, -1.32374717e-02, -3.10681481e-03, -1.74018629e-02,
       -1.98257174e-02, -1.56417943e-03, 3.49378511e-02, 1.00205485e-02,
       -4.44425307e-02, -1.51698645e-02, -9.15314187e-04,
       -1.72568485e-02, -7.39649870e-04, -9.32660699e-03,
       -2.27983594e-02, -1.43673457e-02, -7.90890213e-03,
       -2.40708161e-02, -3.31477225e-02, -3.46099064e-02,
       -1.64450041e-03, -1.04328785e-02, 4.90154978e-03, 6.98853703e-03,
       8.67811684e-03, 2.40185745e-02, 7.85807148e-03, 5.53253107e-03,
       1.86431259e-02, -2.64700372e-02, -2.97619514e-02, -1.38588408e-02,
       -1.80007275e-02, -6.72533782e-03, -2.91827112e-03,
       -5.85012464e-03, -2.58167665e-02, -2.47593853e-03,
       -3.50390188e-03, 9.87440441e-03, 1.28044933e-03, -1.00843180e-02,
       2.21777745e-02, 7.95808528e-03, -8.96282122e-03, -2.10562628e-03,
       -7.45582674e-03, -2.53434945e-02, -4.67884634e-03,
       -2.82554794e-02, -3.30615789e-02, -1.29584223e-02,
       -1.34101463e-02, -4.14824598e-02, -2.42277402e-02,
       -1.98189020e-02, 7.86999473e-04, 3.00104935e-02, 1.77742578e-02,
       1.17550269e-02, 2.00333185e-02, 5.07773720e-02, 3.88325043e-02,
       1.69036351e-02, 3.87540720e-02, -3.49152251e-03, 1.50855174e-02,
       1.30105866e-02, -5.77591360e-03, -2.50813775e-02, 1.41467508e-02,
       2.74278354e-02, 1.92253944e-02, 3.04803085e-02, 2.44971924e-02,
       8.53117462e-03, -8.12104624e-03, -1.29790297e-02, -1.75641961e-02,
       5.02660535e-02, 1.09109497e-02, 1.00771692e-02, 1.73019711e-02,
       4.83911904e-03, 2.40681022e-02, 1.51392333e-02, -3.89363989e-02,
       -6.27987878e-03, -1.30891595e-02, -1.11653730e-02,
       -1.97197031e-02, -1.17805703e-02, 1.76584497e-02, -1.23356208e-02,
       1.32570881e-02, 2.77443454e-02, 1.47138657e-02, 3.10971327e-02,
       2.11350322e-02, 2.52393205e-02, 5.64823905e-03, -2.31218478e-03,
       -2.88555063e-02, -1.12361358e-02, 4.16824073e-02, 5.07195443e-02,
       8.38528387e-03, 4.89486419e-02, -5.54780569e-03, -9.73202474e-03,
       6.13741111e-03, 2.40732059e-02, -1.26190786e-03, 3.60218412e-03,
       1.63788404e-02, 3.07043567e-02, 3.28670405e-02, 1.59092546e-02,
       -6.25190837e-03, 1.50614558e-03, -7.35789491e-03, -2.50851959e-02,
       4.81761992e-03, 2.17110887e-02, 7.44192954e-03, 2.26119719e-02,
       -1.34398099e-02, -1.37862703e-02, 2.67945305e-02, -2.32347380e-02,
       -2.15303060e-02, 4.69879247e-02, 6.21406082e-03, -1.96248330e-02,
       3.99110056e-02, -3.04750260e-02, 1.48238577e-02, 2.77812891e-02,
       -2.79987119e-02, -8.79122969e-03, 2.97949519e-02, -3.40339262e-03,
       -2.11399663e-02, -8.26178212e-03, -6.32139668e-02, 2.52735205e-02,
       4.33289818e-02, 1.40765645e-02, -3.06620309e-03, 6.89374795e-03,
       2.26445422e-02, -9.84990038e-03, -2.34576361e-03, -3.05438507e-02,
       2.76713204e-02, 2.32925657e-02, -2.20357496e-02, -7.88600836e-03,
       -3.95696238e-03, -1.03016435e-04, 1.40137319e-02, -1.35588832e-02,
       -3.98293212e-02, 2.96403207e-02, -1.63411069e+00 ]
